<?xml version="1.0"?>
<MethodSetup Method="MLP::MLP">
  <GeneralInfo>
    <Info name="TMVA Release" value="4.2.1 [262657]"/>
    <Info name="ROOT Release" value="6.32/10 [401418]"/>
    <Info name="Creator" value="lorena"/>
    <Info name="Date" value="Wed May 21 14:23:59 2025"/>
    <Info name="Host" value="Linux wl-atoui 5.15.167.4-microsoft-standard-WSL2 #1 SMP Tue Nov 5 00:21:55 UTC 2024 x86_64 x86_64 x86_64 GNU/Linux"/>
    <Info name="Dir" value="/home/lorena/Documents/Thesis/JLAB_EIC/DVCS/TMVA_studies/03_Sebastian_variables+El_P"/>
    <Info name="Training events" value="2000"/>
    <Info name="TrainingTime" value="1.09829860e+03"/>
    <Info name="AnalysisType" value="Classification"/>
  </GeneralInfo>
  <Options>
    <Option name="NCycles" modified="Yes">600</Option>
    <Option name="HiddenLayers" modified="Yes">N+5</Option>
    <Option name="NeuronType" modified="Yes">tanh</Option>
    <Option name="RandomSeed" modified="No">1</Option>
    <Option name="EstimatorType" modified="No">CE</Option>
    <Option name="NeuronInputType" modified="No">sum</Option>
    <Option name="V" modified="Yes">False</Option>
    <Option name="VerbosityLevel" modified="No">Default</Option>
    <Option name="VarTransform" modified="Yes">N</Option>
    <Option name="H" modified="Yes">True</Option>
    <Option name="CreateMVAPdfs" modified="No">False</Option>
    <Option name="IgnoreNegWeightsInTraining" modified="No">False</Option>
    <Option name="TrainingMethod" modified="No">BP</Option>
    <Option name="LearningRate" modified="No">2.000000e-02</Option>
    <Option name="DecayRate" modified="No">1.000000e-02</Option>
    <Option name="TestRate" modified="Yes">5</Option>
    <Option name="EpochMonitoring" modified="No">False</Option>
    <Option name="Sampling" modified="No">1.000000e+00</Option>
    <Option name="SamplingEpoch" modified="No">1.000000e+00</Option>
    <Option name="SamplingImportance" modified="No">1.000000e+00</Option>
    <Option name="SamplingTraining" modified="No">True</Option>
    <Option name="SamplingTesting" modified="No">False</Option>
    <Option name="ResetStep" modified="No">50</Option>
    <Option name="Tau" modified="No">3.000000e+00</Option>
    <Option name="BPMode" modified="No">sequential</Option>
    <Option name="BatchSize" modified="No">-1</Option>
    <Option name="ConvergenceImprove" modified="No">1.000000e-30</Option>
    <Option name="ConvergenceTests" modified="No">-1</Option>
    <Option name="UseRegulator" modified="Yes">False</Option>
    <Option name="UpdateLimit" modified="No">10000</Option>
    <Option name="CalculateErrors" modified="No">False</Option>
    <Option name="WeightRange" modified="No">1.000000e+00</Option>
  </Options>
  <Variables NVar="7">
    <Variable VarIndex="0" Expression="_mm2_eNg" Label="_mm2_eNg" Title="mm2_eNg missing Neutron" Unit="GeV" Internal="_mm2_eNg" Type="D" Min="-8.32648933e-01" Max="3.77702999e+00"/>
    <Variable VarIndex="1" Expression="_mm2_eg" Label="_mm2_eg" Title="mm2_eg missing proton" Unit="GeV" Internal="_mm2_eg" Type="D" Min="-4.71607357e-01" Max="3.62626934e+00"/>
    <Variable VarIndex="2" Expression="_delta_t" Label="_delta_t" Title="Delta t" Unit="GeV" Internal="_delta_t" Type="D" Min="-1.90244830e+00" Max="1.05165792e+00"/>
    <Variable VarIndex="3" Expression="_delta_Phi" Label="_delta_Phi" Title="Delta Phi" Unit="°" Internal="_delta_Phi" Type="D" Min="-4.93853951e+00" Max="4.68485737e+00"/>
    <Variable VarIndex="4" Expression="_theta_gamma_X" Label="_theta_gamma_X" Title="Angle missing photon - photon out" Unit="°" Internal="_theta_gamma_X" Type="D" Min="2.15963442e-02" Max="1.79985771e+01"/>
    <Variable VarIndex="5" Expression="_strip_Ph_P" Label="_strip_Ph_P" Title="photon Momentum" Unit="GeV" Internal="_strip_Ph_P" Type="D" Min="2.00011635e+00" Max="9.80960464e+00"/>
    <Variable VarIndex="6" Expression="_strip_El_P" Label="_strip_El_P" Title="electron Momentum" Unit="GeV" Internal="_strip_El_P" Type="D" Min="1.00494707e+00" Max="7.75421286e+00"/>
  </Variables>
  <Spectators NSpec="0"/>
  <Classes NClass="2">
    <Class Name="Signal" Index="0"/>
    <Class Name="Background" Index="1"/>
  </Classes>
  <Transformations NTransformations="1">
    <Transform Name="Normalize">
      <Selection>
        <Input NInputs="7">
          <Input Type="Variable" Label="_mm2_eNg" Expression="_mm2_eNg"/>
          <Input Type="Variable" Label="_mm2_eg" Expression="_mm2_eg"/>
          <Input Type="Variable" Label="_delta_t" Expression="_delta_t"/>
          <Input Type="Variable" Label="_delta_Phi" Expression="_delta_Phi"/>
          <Input Type="Variable" Label="_theta_gamma_X" Expression="_theta_gamma_X"/>
          <Input Type="Variable" Label="_strip_Ph_P" Expression="_strip_Ph_P"/>
          <Input Type="Variable" Label="_strip_El_P" Expression="_strip_El_P"/>
        </Input>
        <Output NOutputs="7">
          <Output Type="Variable" Label="_mm2_eNg" Expression="_mm2_eNg"/>
          <Output Type="Variable" Label="_mm2_eg" Expression="_mm2_eg"/>
          <Output Type="Variable" Label="_delta_t" Expression="_delta_t"/>
          <Output Type="Variable" Label="_delta_Phi" Expression="_delta_Phi"/>
          <Output Type="Variable" Label="_theta_gamma_X" Expression="_theta_gamma_X"/>
          <Output Type="Variable" Label="_strip_Ph_P" Expression="_strip_Ph_P"/>
          <Output Type="Variable" Label="_strip_El_P" Expression="_strip_El_P"/>
        </Output>
      </Selection>
      <Class ClassIndex="0">
        <Ranges>
          <Range Index="0" Min="-8.3264893293380737e-01" Max="2.9261479377746582e+00"/>
          <Range Index="1" Min="-4.7160735726356506e-01" Max="2.6638839244842529e+00"/>
          <Range Index="2" Min="-1.5581326484680176e+00" Max="1.0516579151153564e+00"/>
          <Range Index="3" Min="-1.9796046018600464e+00" Max="1.9995166063308716e+00"/>
          <Range Index="4" Min="2.1596344187855721e-02" Max="1.7998577117919922e+01"/>
          <Range Index="5" Min="2.0404675006866455e+00" Max="9.8096046447753906e+00"/>
          <Range Index="6" Min="1.0049470663070679e+00" Max="7.7542128562927246e+00"/>
        </Ranges>
      </Class>
      <Class ClassIndex="1">
        <Ranges>
          <Range Index="0" Min="-2.0690326392650604e-01" Max="3.7770299911499023e+00"/>
          <Range Index="1" Min="3.7680473178625107e-02" Max="3.6262693405151367e+00"/>
          <Range Index="2" Min="-1.9024482965469360e+00" Max="1.0289539098739624e+00"/>
          <Range Index="3" Min="-4.9385395050048828e+00" Max="4.6848573684692383e+00"/>
          <Range Index="4" Min="3.9427787065505981e-02" Max="9.1860609054565430e+00"/>
          <Range Index="5" Min="2.0001163482666016e+00" Max="8.3269901275634766e+00"/>
          <Range Index="6" Min="1.0227127075195312e+00" Max="7.6031303405761719e+00"/>
        </Ranges>
      </Class>
      <Class ClassIndex="2">
        <Ranges>
          <Range Index="0" Min="-8.3264893293380737e-01" Max="3.7770299911499023e+00"/>
          <Range Index="1" Min="-4.7160735726356506e-01" Max="3.6262693405151367e+00"/>
          <Range Index="2" Min="-1.9024482965469360e+00" Max="1.0516579151153564e+00"/>
          <Range Index="3" Min="-4.9385395050048828e+00" Max="4.6848573684692383e+00"/>
          <Range Index="4" Min="2.1596344187855721e-02" Max="1.7998577117919922e+01"/>
          <Range Index="5" Min="2.0001163482666016e+00" Max="9.8096046447753906e+00"/>
          <Range Index="6" Min="1.0049470663070679e+00" Max="7.7542128562927246e+00"/>
        </Ranges>
      </Class>
    </Transform>
  </Transformations>
  <MVAPdfs/>
  <Weights>
    <Layout NLayers="3">
      <Layer Index="0" NNeurons="8">
        <Neuron NSynapses="12">
          -1.0232424864326508e+00 2.1162483308278928e+00 1.8426112119510079e+00 1.6260575300587268e+00 -1.5525494996047420e+00 -1.0186877061701591e+00 -1.2132854236531303e+00 2.3220037206019524e+00 -1.1910241342037029e+00 -2.1653987302699771e+00 -1.5466447519628619e+00 -1.0502312150168716e+00 
        </Neuron>
        <Neuron NSynapses="12">
          -1.9655090817304921e+00 -5.2799746405554659e-01 -4.4092474760294770e-01 5.9442206658230412e-01 3.0606026855404550e-01 1.9412773329796904e+00 6.9380380332364100e-01 1.4678467301083031e+00 1.4332094326317416e-01 -6.6537979851232743e-01 7.9539893620250202e-01 -1.1673284882474575e+00 
        </Neuron>
        <Neuron NSynapses="12">
          -6.6051323857543842e-01 3.7697280048683030e-02 1.8563475600090453e+00 -1.0803823924485050e+00 -2.1447697621288295e+00 4.1054865238656518e-01 -3.7637518347546595e-01 1.8590822783104604e+00 -8.3159116970898073e-01 -1.9262542978602275e+00 -1.5426487236152853e-02 1.1074687296363199e-02 
        </Neuron>
        <Neuron NSynapses="12">
          -7.6422242650585104e-01 3.0357387329792802e+00 1.6718879947180681e-01 1.0456680905998841e+00 3.2844681523640631e+00 1.0161333279766507e+00 2.2562223428273001e+00 1.1894447427058397e+00 -2.2055724014839437e-02 9.7727091810582895e-02 4.5202922550041014e-01 7.3301634484592884e-02 
        </Neuron>
        <Neuron NSynapses="12">
          9.0849655246977168e-01 9.3283425663447950e-01 9.1546905997785299e-01 1.3342464537605458e+00 -1.0375437105196961e+00 1.0458965143215500e+00 2.7978808101904984e-01 -1.6645201772761642e+00 -1.6798296292981283e+00 -9.6616057569316460e-01 1.3737415495000860e+00 -1.3638533074366310e+00 
        </Neuron>
        <Neuron NSynapses="12">
          -2.3732640485737333e+00 -1.2157408501008371e+00 -3.0051425100984983e+00 8.5493347965358824e-01 -3.9359697654596820e-01 -7.6513787510711362e-01 3.1972232183496270e+00 -1.5087580867585654e-01 -2.2634612722208880e-01 2.0492020130508930e+00 -5.1851484179506813e-01 -5.9310052295843292e+00 
        </Neuron>
        <Neuron NSynapses="12">
          8.1450700769522788e-01 -5.3475962526305265e-01 8.2999726553331687e-01 -4.3089110828283972e-01 -3.0353003834316934e+00 -1.8360676861467249e+00 2.8957329920040369e+00 -3.5278979938749672e-01 2.4151260010990452e+00 1.9127420059925297e+00 1.6877161719666767e+00 -4.6507807283535536e+00 
        </Neuron>
        <Neuron NSynapses="12">
          -4.7377975672088385e-01 -1.3073161454503988e+00 4.6819953504940659e-01 -1.0721262337709858e+00 -1.1672985369812070e+00 -1.8501247119455331e+00 1.6453119604764468e+00 -8.7776633555960965e-02 1.4733615492340915e+00 -7.6088869192845421e-01 -6.0531086616029184e-01 -1.8147661849211589e+00 
        </Neuron>
      </Layer>
      <Layer Index="1" NNeurons="13">
        <Neuron NSynapses="1">
          -1.1510390738590044e+00 
        </Neuron>
        <Neuron NSynapses="1">
          -2.8196752723038228e+00 
        </Neuron>
        <Neuron NSynapses="1">
          -2.0102613511736083e+00 
        </Neuron>
        <Neuron NSynapses="1">
          4.0470332419879174e-01 
        </Neuron>
        <Neuron NSynapses="1">
          -2.4794575102450787e+00 
        </Neuron>
        <Neuron NSynapses="1">
          -1.1819630193677213e+00 
        </Neuron>
        <Neuron NSynapses="1">
          2.6066162378848738e+00 
        </Neuron>
        <Neuron NSynapses="1">
          1.0719548232560783e+00 
        </Neuron>
        <Neuron NSynapses="1">
          -1.8379648035336751e+00 
        </Neuron>
        <Neuron NSynapses="1">
          2.0432664232472653e+00 
        </Neuron>
        <Neuron NSynapses="1">
          5.4135750968241914e-01 
        </Neuron>
        <Neuron NSynapses="1">
          -4.2622653082667492e+00 
        </Neuron>
        <Neuron NSynapses="1">
          -4.7735905017219737e-01 
        </Neuron>
      </Layer>
      <Layer Index="2" NNeurons="1">
        <Neuron NSynapses="0"/>
      </Layer>
    </Layout>
  </Weights>
</MethodSetup>
