<?xml version="1.0"?>
<MethodSetup Method="MLP::MLPBNN">
  <GeneralInfo>
    <Info name="TMVA Release" value="4.2.1 [262657]"/>
    <Info name="ROOT Release" value="6.32/10 [401418]"/>
    <Info name="Creator" value="lorena"/>
    <Info name="Date" value="Tue Apr 22 00:46:39 2025"/>
    <Info name="Host" value="Linux wl-atoui 5.15.167.4-microsoft-standard-WSL2 #1 SMP Tue Nov 5 00:21:55 UTC 2024 x86_64 x86_64 x86_64 GNU/Linux"/>
    <Info name="Dir" value="/home/lorena/Thesis/JLAB_EIC/TMVA_studies"/>
    <Info name="Training events" value="2000"/>
    <Info name="TrainingTime" value="9.89454770e+01"/>
    <Info name="AnalysisType" value="Classification"/>
  </GeneralInfo>
  <Options>
    <Option name="NCycles" modified="Yes">60</Option>
    <Option name="HiddenLayers" modified="Yes">N+5</Option>
    <Option name="NeuronType" modified="Yes">tanh</Option>
    <Option name="RandomSeed" modified="No">1</Option>
    <Option name="EstimatorType" modified="No">CE</Option>
    <Option name="NeuronInputType" modified="No">sum</Option>
    <Option name="V" modified="Yes">False</Option>
    <Option name="VerbosityLevel" modified="No">Default</Option>
    <Option name="VarTransform" modified="Yes">N</Option>
    <Option name="H" modified="Yes">True</Option>
    <Option name="CreateMVAPdfs" modified="No">False</Option>
    <Option name="IgnoreNegWeightsInTraining" modified="No">False</Option>
    <Option name="TrainingMethod" modified="Yes">BFGS</Option>
    <Option name="LearningRate" modified="No">2.000000e-02</Option>
    <Option name="DecayRate" modified="No">1.000000e-02</Option>
    <Option name="TestRate" modified="Yes">5</Option>
    <Option name="EpochMonitoring" modified="No">False</Option>
    <Option name="Sampling" modified="No">1.000000e+00</Option>
    <Option name="SamplingEpoch" modified="No">1.000000e+00</Option>
    <Option name="SamplingImportance" modified="No">1.000000e+00</Option>
    <Option name="SamplingTraining" modified="No">True</Option>
    <Option name="SamplingTesting" modified="No">False</Option>
    <Option name="ResetStep" modified="No">50</Option>
    <Option name="Tau" modified="No">3.000000e+00</Option>
    <Option name="BPMode" modified="No">sequential</Option>
    <Option name="BatchSize" modified="No">-1</Option>
    <Option name="ConvergenceImprove" modified="No">1.000000e-30</Option>
    <Option name="ConvergenceTests" modified="No">-1</Option>
    <Option name="UseRegulator" modified="Yes">True</Option>
    <Option name="UpdateLimit" modified="No">10000</Option>
    <Option name="CalculateErrors" modified="No">False</Option>
    <Option name="WeightRange" modified="No">1.000000e+00</Option>
  </Options>
  <Variables NVar="4">
    <Variable VarIndex="0" Expression="_mm2_eNg" Label="_mm2_eNg" Title="mm2_eNg missing Neutron" Unit="GeV" Internal="_mm2_eNg" Type="F" Min="-8.32648933e-01" Max="3.38111949e+00"/>
    <Variable VarIndex="1" Expression="_mm2_eNg_N" Label="_mm2_eNg_N" Title="mm2_eNg_N All detected" Unit="GeV" Internal="_mm2_eNg_N" Type="F" Min="-9.22752559e-01" Max="6.21411741e-01"/>
    <Variable VarIndex="2" Expression="_mm2_eNX_N" Label="_mm2_eNX_N" Title="mm2_eNX_N missing photon" Unit="GeV" Internal="_mm2_eNX_N" Type="F" Min="-1.27379923e+01" Max="6.32826185e+00"/>
    <Variable VarIndex="3" Expression="_mm2_eg" Label="_mm2_eg" Title="mm2_eg missing proton" Unit="GeV" Internal="_mm2_eg" Type="F" Min="-7.68935025e-01" Max="3.38438797e+00"/>
  </Variables>
  <Spectators NSpec="0"/>
  <Classes NClass="2">
    <Class Name="Signal" Index="0"/>
    <Class Name="Background" Index="1"/>
  </Classes>
  <Transformations NTransformations="1">
    <Transform Name="Normalize">
      <Selection>
        <Input NInputs="4">
          <Input Type="Variable" Label="_mm2_eNg" Expression="_mm2_eNg"/>
          <Input Type="Variable" Label="_mm2_eNg_N" Expression="_mm2_eNg_N"/>
          <Input Type="Variable" Label="_mm2_eNX_N" Expression="_mm2_eNX_N"/>
          <Input Type="Variable" Label="_mm2_eg" Expression="_mm2_eg"/>
        </Input>
        <Output NOutputs="4">
          <Output Type="Variable" Label="_mm2_eNg" Expression="_mm2_eNg"/>
          <Output Type="Variable" Label="_mm2_eNg_N" Expression="_mm2_eNg_N"/>
          <Output Type="Variable" Label="_mm2_eNX_N" Expression="_mm2_eNX_N"/>
          <Output Type="Variable" Label="_mm2_eg" Expression="_mm2_eg"/>
        </Output>
      </Selection>
      <Class ClassIndex="0">
        <Ranges>
          <Range Index="0" Min="-8.3264893293380737e-01" Max="2.9261479377746582e+00"/>
          <Range Index="1" Min="-8.9731335639953613e-01" Max="2.6076209545135498e-01"/>
          <Range Index="2" Min="-1.2737992286682129e+01" Max="6.3282618522644043e+00"/>
          <Range Index="3" Min="-4.7160735726356506e-01" Max="2.6638839244842529e+00"/>
        </Ranges>
      </Class>
      <Class ClassIndex="1">
        <Ranges>
          <Range Index="0" Min="-6.4220863580703735e-01" Max="3.3811194896697998e+00"/>
          <Range Index="1" Min="-9.2275255918502808e-01" Max="6.2141174077987671e-01"/>
          <Range Index="2" Min="-4.3600544929504395e+00" Max="5.5903105735778809e+00"/>
          <Range Index="3" Min="-7.6893502473831177e-01" Max="3.3843879699707031e+00"/>
        </Ranges>
      </Class>
      <Class ClassIndex="2">
        <Ranges>
          <Range Index="0" Min="-8.3264893293380737e-01" Max="3.3811194896697998e+00"/>
          <Range Index="1" Min="-9.2275255918502808e-01" Max="6.2141174077987671e-01"/>
          <Range Index="2" Min="-1.2737992286682129e+01" Max="6.3282618522644043e+00"/>
          <Range Index="3" Min="-7.6893502473831177e-01" Max="3.3843879699707031e+00"/>
        </Ranges>
      </Class>
    </Transform>
  </Transformations>
  <MVAPdfs/>
  <Weights>
    <Layout NLayers="3">
      <Layer Index="0" NNeurons="5">
        <Neuron NSynapses="9">
          -2.8345029807778315e+00 1.6320587755177232e+00 8.5635175740208347e-02 1.1999584018065628e+00 -3.7298240493588697e+00 -3.6772218094474622e+00 -5.5330090997137404e-01 4.7611886980358953e-01 9.2862092408038888e-02 
        </Neuron>
        <Neuron NSynapses="9">
          -1.5830064456320923e+00 -2.1372826841340404e+00 -8.9253749578164354e-01 -1.8533280100111338e-01 -8.8806273937810865e-01 -3.5753005774154600e-01 1.4820486426088315e+00 -6.6520691074760907e-01 2.3672760821219714e+00 
        </Neuron>
        <Neuron NSynapses="9">
          1.4472180499106733e+00 3.2619514642327752e-01 -1.4544237621678229e+00 -6.5530747835860337e-01 3.1970957945567202e-01 -8.9535727837146073e-01 -7.7519894977696269e-01 2.0686525717597388e+00 4.2322673779057371e+00 
        </Neuron>
        <Neuron NSynapses="9">
          -3.0797209762145488e+00 -2.9248365804108380e+00 -6.5098591578309051e-01 1.3091563153586930e-01 3.8264615920244234e+00 -2.5885950132544124e+00 -2.4431906281122248e-01 -1.3610164321230767e-01 -6.4252611574527030e-01 
        </Neuron>
        <Neuron NSynapses="9">
          -1.8846515586570263e+00 1.1975373992669547e+00 -7.7462553928333810e-01 2.5489819141966921e+00 8.4226021701830311e-01 -4.8581375800352483e-01 1.4753176685691940e+00 1.4052944435907331e+00 -2.8727398460629003e+00 
        </Neuron>
      </Layer>
      <Layer Index="1" NNeurons="10">
        <Neuron NSynapses="1">
          -2.2449763713928279e+00 
        </Neuron>
        <Neuron NSynapses="1">
          2.0012198579991121e+00 
        </Neuron>
        <Neuron NSynapses="1">
          9.2948137735434000e-01 
        </Neuron>
        <Neuron NSynapses="1">
          9.8551731095265949e-01 
        </Neuron>
        <Neuron NSynapses="1">
          2.7951326889115706e+00 
        </Neuron>
        <Neuron NSynapses="1">
          2.2504626298157655e+00 
        </Neuron>
        <Neuron NSynapses="1">
          9.8705346000409722e-01 
        </Neuron>
        <Neuron NSynapses="1">
          -6.8633752874377385e-01 
        </Neuron>
        <Neuron NSynapses="1">
          2.4381765731949687e+00 
        </Neuron>
        <Neuron NSynapses="1">
          -2.3603539347005009e+00 
        </Neuron>
      </Layer>
      <Layer Index="2" NNeurons="1">
        <Neuron NSynapses="0"/>
      </Layer>
    </Layout>
    <InverseHessian NElements="3025" NRows="55" NCols="55">
      <Row Index="0">
        1.0757097994550069e+01 4.5138594889408186e+00 -1.4182963192334753e+01 4.1064831981181811e+01 -1.4782715680117353e+00 -6.0648736706690298e-01 -4.3024443242298338e-01 -3.1759199846352346e+00 -4.9722300545819575e-01 2.8337239820848037e+00 -2.6406500458932305e+00 1.7352056830624264e+01 4.2756296253572842e+01 -3.4505431096026684e-01 -3.3538553232080877e+00 1.8501063724018181e+00 3.4140408196495180e+00 8.3275093643380460e-01 -2.4163115204126613e+00 1.2173264918788962e-01 4.1536875514197256e+00 -6.1473994344275376e+00 1.4953631119663142e+00 5.0730086069495073e+00 -7.1514613818344941e-01 2.0511883731371380e+01 1.6103671711980971e+00 8.0609643777337716e+00 -4.0216535241052096e+00 5.6137233152383450e+00 2.5076768029540311e+01 1.0907570710624372e+00 -4.5238762645513670e+00 -8.3828599569981606e+00 -6.5634616392386782e+00 -1.0114262927115254e-01 6.6716756796074543e+00 6.3243232058133447e-01 7.2426967414467871e+00 1.5122460842358916e+02 -2.1476342863416653e-01 -1.2540178456355806e+00 2.4659325165859762e+00 1.7927439163178843e+01 -7.7773197324085896e-01 -9.1027909038865058e+00 -4.5713315457925390e+00 1.0726128360373879e+01 1.0653982984356591e+02 -2.0602800929676017e+00 2.8326824443552052e+00 -9.3851125937498576e+00 9.7400123682463775e+00 -2.2758482533615747e+00 -1.0552323448433232e+02 
      </Row>
      <Row Index="1">
        4.5138594879924376e+00 1.8403963986489799e+01 -6.5448559540737401e+00 1.6007947707984204e+02 8.7545226354403149e-01 -2.2401309583276112e+00 3.6421420753635523e+01 3.2375306198039901e+01 -1.0447514035919225e+00 5.0242838337557882e-01 -1.7504123074078901e+01 2.3938317027548500e+01 -6.8170321109707089e+01 -2.5307924500672434e+00 -1.9418546457627051e+00 -8.3255740774145764e+01 2.3513853693201010e+01 3.5214306323851137e+00 -1.4848922043853285e+00 9.3130804339799163e+00 -2.9979011821886420e+01 -7.7345110512558222e+01 3.7193924877914721e+00 1.7503336763641744e+00 4.0247446446231123e+01 5.3585757914399430e+00 7.3178391140493932e+00 4.0569199734918477e+00 -1.8049001801871334e+01 2.2534271268654006e+01 1.0943567197124848e+01 -1.8198607152203783e+00 -3.1352925434812895e+00 -2.0166629903253188e+01 1.7191005917778590e+01 -8.3856060715009284e-01 3.2587159327240522e+00 1.3049199595320489e+00 2.0816838236249573e+01 -1.6460201570083122e+00 -7.8382553302752622e-01 -6.4444756189985408e-01 8.3790011680431071e+00 5.4877435382687210e+01 -3.8799596047528988e+00 -4.1682267898746890e+00 -1.6259766398750632e+01 -3.6446964765272076e+00 -4.1877349486939715e+02 -1.9894479507479821e+00 -8.2090599666818420e-01 9.3170731520046758e+01 -7.4932867035993738e+00 -7.8234269383867696e+00 3.3422283147004453e+02 
      </Row>
      <Row Index="2">
        -1.4182963195222474e+01 -6.5448559516311242e+00 2.9646701128352458e+02 -4.1568747870849620e+01 2.1599066229494124e+00 4.1627015806390339e+00 -6.2334071462252567e+01 2.1838524214952380e+02 -7.3090417016890648e+00 -9.1178236997877415e-01 7.1303615433580356e+00 -1.6170226674245768e+02 -4.0594350340428434e+02 5.3396089520487395e+00 7.5566007677785700e+00 -5.5617733768207415e+01 -2.8839524850387612e+01 5.5251523571508541e+00 8.5794319599891935e+00 -2.6110409824975250e+01 -9.0096969032856663e+01 -7.1491521520881179e+02 -5.4166446953188174e-01 -6.3320495027871573e+00 1.4919528883340050e+02 2.7184410532988608e+00 1.1338897254172570e+01 -1.3522542170254287e+01 2.0257927330902476e+01 -1.0747012386400363e+02 -1.0930266787781457e+02 4.0191333044607980e-03 1.3549621885046843e+01 9.8716736865461513e+01 8.2138900415984082e+01 5.0236632861996409e+00 -1.0809263449507048e+01 3.8959034120249463e+00 -3.6341161941501824e+01 -3.6129905400462832e+02 -2.8157689298253592e+00 1.8194260732862366e+00 -4.0384517674517909e+01 -5.2677217329967597e+01 -5.6740253636668321e+00 1.2749918297375419e+01 2.3582869109570467e+01 -3.6110725512322475e+01 -1.0583225213590056e+03 2.4699918618935626e+00 4.7570745607627511e+00 1.6136899364798589e+02 9.5564708456108562e+01 9.4017144396773877e-01 8.1064222120889735e+02 
      </Row>
      <Row Index="3">
        4.1064831970783416e+01 1.6007947684932321e+02 -4.1568748689060897e+01 8.8553896128626075e+03 -3.7566316427028539e+01 -4.9244353035021504e+01 2.6353090728760026e+02 5.8544804238512916e+02 1.4992863920651399e+01 1.8376228913685985e+01 -1.7360079211464105e+02 3.1891284228928720e+02 -1.5986768918595103e+03 -1.0930982768007219e+01 -1.7342790473962783e+01 -1.3236967485936663e+02 5.6326032777386814e+01 5.0261559237080938e+01 2.3858725711028228e+00 5.8780837929205148e+01 -6.0905395701199302e+02 -3.9095705885491534e+03 7.7699366663566127e-01 -1.0559902051032591e+01 7.3327788748583913e+01 -3.5422376459265723e+02 7.2575259606378623e+01 4.2806005251786871e+01 -1.5219960124016507e+02 2.9572892403511827e+02 -1.6405893111854982e+02 5.4284413596942656e+01 -1.0894241026200976e+02 -3.9518284971378392e+02 -4.6668502127400370e+02 -1.6453425638089733e+01 2.4063909740275868e+01 2.5545638224482285e+01 2.6669251706033430e+02 -8.6993388185836484e+03 8.7871727188744959e+00 -9.6215352940252075e+00 -1.0918986615694723e+02 7.9218765970492950e+02 -5.3325155281009188e+01 -3.5923213558493273e+01 -1.8599405299685003e+02 6.3028790218379797e+01 -3.5365165467255589e+04 -7.8411768213132746e+01 -7.2834782337817842e+01 -2.9264238762785897e+02 -2.5083256565902573e+02 -8.8737158893235460e+01 3.5708018554149581e+04 
      </Row>
      <Row Index="4">
        -1.4782715684599452e+00 8.7545226545120736e-01 2.1599066285428989e+00 -3.7566316296238256e+01 7.9509111150375071e+00 -9.1542640566231159e-01 2.1392452406773312e+01 -1.1308213727462566e+00 1.8829032923375262e+00 -1.1684928850527245e+00 -1.8046411264749476e+00 -3.7927854145652566e+00 -3.4372096277005895e+01 3.0361052831724422e-01 -6.4765577101143224e-01 -4.9977728206621393e+01 5.2892181041862658e+00 4.6915347421555376e-01 3.2121931742449772e-01 4.1093700540375755e+00 -3.6538801057371746e+00 2.3597238016479835e+01 -1.4711459411029000e+00 -3.5107815197305509e-01 2.2157638087377222e+01 -2.9837149775246807e+01 -1.7292870364716106e+00 -8.5238963142097579e-01 1.5853355653941890e+00 -4.5703982868689081e+00 6.0503464855678386e+00 -7.6002943504866316e+00 1.2428513437598199e-01 1.8150904007319160e+00 5.0094393032568973e-01 -2.3682725286530801e+00 -6.8027151486892401e-01 -2.3578923393109790e+00 -3.2391089894572636e+00 -2.0758329008022567e+01 -2.0931724177706079e-01 1.9312942647586967e-01 4.4181680857983929e+00 -1.0580138930002644e+01 7.2404492767320838e-01 1.8280150597668205e+00 1.5315227580273922e+00 -7.8504352525358332e+00 6.6557746356654846e+01 7.3498160596425928e+00 -1.3694642234545156e+00 6.6081187699708735e+01 -1.3989472477017923e+01 1.1038287530994142e+00 -1.2065089528120699e+02 
      </Row>
      <Row Index="5">
        -6.0648736639689105e-01 -2.2401309592199516e+00 4.1627015795565967e+00 -4.9244353221492020e+01 -9.1542640460046698e-01 7.3065640820839253e+00 -1.8689580937958713e+01 1.9010040861854520e+00 -3.7923800813960085e-01 9.6044619021023625e-01 1.3262462285804899e+00 -5.0320313665669500e+00 1.3704270147005246e+01 5.0500234555568746e-01 -5.8955404211091977e-01 3.6055891170538722e+01 3.3141231020567402e-01 4.9581481517898851e-01 -4.4882744398429688e+00 -8.4634509875619823e-01 -1.0961382387606827e+01 1.5028614501333262e+01 -3.0098937132782377e-01 2.7644296185609001e+00 -1.3285860864085501e+01 -1.6148303457959052e+01 -6.4009127234530130e-02 -2.6538753700999956e-01 -6.5743376993026459e-01 2.7163752068541547e-01 -4.4191069954576392e+01 8.3866646531836542e-01 1.5707322493529390e+00 -5.4034101101118126e-01 1.0843974189469577e+01 4.2324501462903119e-01 1.7995781142652250e+00 1.3054041696411589e+00 -5.1283374474763233e-01 2.5149409431666147e+01 1.3261044568513752e-01 -8.2339463338887364e-01 -5.5963667372542503e-01 2.0993328913202170e+01 -1.4783128878242124e-01 -4.1241546496369930e+00 3.7502183751183349e-01 -3.6698633624759345e+00 2.0887493883535802e+02 -8.6698314401645316e-01 7.3883068052667458e+00 -4.2440516790351182e+01 -1.8770376726194971e+01 -1.7159268384469165e-01 -1.5102543372815271e+02 
      </Row>
      <Row Index="6">
        -4.3024444526577099e-01 3.6421420793650292e+01 -6.2334071359190602e+01 2.6353091099396988e+02 2.1392452398490093e+01 -1.8689580956130385e+01 4.6349379609460289e+02 -1.7064891325668648e+02 9.3470638609566539e+00 -5.0829556970995426e+00 -7.1726376252784490e+01 -4.4204309314696729e+01 -6.3396543490163151e+02 -1.6493193335532276e+01 -1.2978844223880978e+01 -9.6106896041249991e+02 3.5344675179025995e+02 1.0691799572361781e+01 -3.1724437969358221e-01 4.4355511072967687e+01 1.6858596392476102e+00 4.4282855310687395e+01 1.5884955356468666e-02 2.8040262547159926e+00 4.8498106679211236e+02 1.3617403115187304e+02 1.5891186318381063e+01 1.5539472331150872e-01 -1.1477438264687862e+01 1.9083992324690689e+02 6.5180285545683461e+00 -1.8289788526358191e+01 -1.2906111607667013e+01 -2.9074828065313454e+01 7.2914277345087510e+02 -1.2830706388288407e+01 1.5568333347801111e+00 -5.5668749946969518e+00 3.2852175132650011e+01 -9.0863135897464602e+01 2.4853398580879116e-01 -1.1655403368632071e+00 8.3598474546503979e+01 -4.1228337366090244e+01 -9.7964691080956179e+00 9.0564745331972638e+00 -3.5768170317710506e+01 -8.2758737434527390e+01 -5.4892771132659755e+02 1.4520995112229445e+01 -2.0321206031720500e+01 1.3096755653667869e+03 8.6035299887680125e+01 -1.3432243260304343e+01 -7.9346259926287303e+02 
      </Row>
      <Row Index="7">
        -3.1759199818047819e+00 3.2375306187484469e+01 2.1838524211432195e+02 5.8544804169829149e+02 -1.1308213734963601e+00 1.9010040926418696e+00 -1.7064891331634135e+02 3.6528175267972429e+03 -1.5959403157414235e+01 -1.7891099633904211e+00 8.7745815063571442e+00 3.1711526059046622e+02 -5.2049762130742181e+02 5.1345660001496540e+01 -6.9654979504482286e+00 3.6965865188362540e+02 -1.8903628873334426e+03 3.4985086891083625e+01 1.4372069010654451e+01 5.2427346596715111e+01 -4.8617410357862889e+02 -1.3680737837677157e+01 -6.9280167095756653e+01 6.2030934396438884e+00 9.7335131609413679e+01 4.1530506724928483e+02 1.8155504167491593e+01 1.9134762377213747e+01 -2.0537086205834385e+01 -8.7087300082617716e+01 -6.3503792769686243e+02 -2.5712951230993908e+00 2.3782458796511659e+00 -4.5193537582411551e+01 -3.8537134114574760e+03 -1.5596967637126882e+01 4.1072188493714377e+00 -3.3716849724293610e+01 9.2284081312820206e+01 -2.8128531422092675e+02 1.4292018120172980e+01 -7.8924772725067549e-01 -3.2091602383264546e+02 1.0813940889090611e+03 -1.0185605118495964e+01 -7.2362742369183479e+00 1.7959010194590746e+01 3.6141589034414562e+02 -5.2294153007441491e+02 3.8760731240248276e+00 1.3791248330293273e+01 -7.8845008742061907e+02 5.1521804061876924e+02 -3.4262311215902471e+01 1.1259026904967493e+03 
      </Row>
      <Row Index="8">
        -4.9722300540958031e-01 -1.0447514032124461e+00 -7.3090417001257890e+00 1.4992863909264543e+01 1.8829032926586891e+00 -3.7923800849895883e-01 9.3470638692139687e+00 -1.5959403159126850e+01 4.8670022201901642e+00 -2.5671175361592480e-01 -6.3275863411766631e-01 -3.2867123030174872e-01 3.5048880244490106e+00 -2.1340826438065602e-01 -2.1795125477680760e-01 -1.1002118339437262e+01 1.1094124022246366e+01 -6.3137637697505022e-01 3.0922484594198579e-02 5.0500375714335011e+00 4.6415412474685036e-01 3.4308337567110840e+01 -1.8206216968811735e+00 1.3306504383538806e-01 8.1558512212178125e-01 -8.5053289736539082e+00 6.2781615034612570e-01 -2.1306293013049704e-02 1.0150059917910426e-01 3.5643696406860030e+00 -1.2260317783293706e+01 -1.3429344919580737e+00 -5.0177296299415541e-01 -4.0181015386444594e+00 8.5648794568319797e+00 -4.9759051120506284e+00 -2.0127184376509449e-01 -1.7822837710204826e+00 -6.3279688584713290e-01 3.6365415871365101e+01 6.2186818527415166e-01 -3.0849349850818636e-02 -2.4451085040950096e+00 -8.0275192514850655e+00 -3.6773351104783780e-01 6.9116685051475013e-01 -1.7248009700822968e+00 -4.1583108679118075e+00 8.0115474013091060e+01 2.7667598126602790e+00 -8.8973267260572197e-01 6.1500944065173844e+00 -7.4234456592248961e+00 -8.9063259617020618e-01 -8.2838091444999478e+01 
      </Row>
      <Row Index="9">
        2.8337239823392792e+00 5.0242838380937016e-01 -9.1178236805768620e-01 1.8376228853502653e+01 -1.1684928843063886e+00 9.6044618967232509e-01 -5.0829556801313061e+00 -1.7891099679155786e+00 -2.5671175352493769e-01 6.6822976847924238e+00 -5.3908064869048600e-01 -2.2011289187665373e+00 1.4142324799797851e+01 5.1120004526926544e-01 4.1051584685252701e-01 1.8156273446358234e+01 -1.6587981642657528e+01 1.0902813146108259e+00 -4.5775282220068050e+00 6.9650415941962374e-01 2.9046265234940463e+00 -1.7940229257344583e+01 3.7972040301018134e-01 2.9415924645569111e+00 -2.1888048078376858e+00 7.3786428528258359e+00 1.1436126586348088e+00 7.4557340962953944e+00 -6.4481020557730062e-01 7.6573326741235253e+00 -7.4247183192811868e+00 1.1143276384527439e+00 7.3519553310761654e-02 -1.5696438504787484e+00 1.2833434406115302e+01 -1.4935259438427351e-01 4.0454640036405944e+00 -1.5225970611238135e-01 -1.0687823782021955e-01 1.3634714618966163e+02 -9.6487765786850643e-02 -1.2349011370544212e+00 -7.2585249802918623e+00 7.2338251590269138e+00 -7.5222643926534782e-01 -7.2124423668416995e+00 -1.0245737429730668e+00 8.7569925461085951e+00 1.6401023437026612e+02 -1.1922534448753619e+00 4.4502150962898890e+00 -2.5034650663364982e+01 3.8879403162946913e+00 -1.6574663888543069e+00 -1.4022980668046995e+02 
      </Row>
      <Row Index="10">
        -2.6406500442921015e+00 -1.7504123076446881e+01 7.1303615391569792e+00 -1.7360079253305230e+02 -1.8046411243539637e+00 1.3262462289095538e+00 -7.1726376218601445e+01 8.7745814936887427e+00 -6.3275863329786652e-01 -5.3908064728864247e-01 2.9248068487569537e+01 -4.2356512705479545e+00 1.2920260709196771e+02 4.4148938071812101e+00 1.8237855504366702e+00 1.4762941135790922e+02 -7.3537482005096706e+01 -4.3292391875827523e+00 2.1690724351050030e+00 -1.6343805638717299e+01 3.3801829851539225e+01 6.7818230023426381e+01 -2.5516236148480695e+00 -1.7464247055947617e+00 -7.1804834131003716e+01 3.1977952271666474e+01 -3.4139509930645358e+00 -3.4175107922215928e+00 1.3172217234727441e+01 -4.3623520948330956e+01 3.3675499348630950e+01 1.3688025008811573e+00 3.7778755180839161e+00 3.5748024407313302e+01 -1.3123734628053126e+02 1.1575178715348318e+00 -2.7922150395338319e+00 -3.3887552813410682e-01 -1.9838864595428483e+01 5.8983437622428951e+00 3.6152152520064562e-01 7.2249870372798153e-01 -1.0093539916596551e+01 -3.0587187747324041e+01 2.5613065430447568e+00 2.7256372378472165e+00 1.6616304719692522e+01 2.3566832002176717e+01 3.8167364261594105e+02 9.6356437261427152e-01 1.0632016415200622e+00 -1.8020567369415213e+02 2.3527148904132837e+01 5.4982496826578728e+00 -2.2057596844641122e+02 
      </Row>
      <Row Index="11">
        1.7352056835429721e+01 2.3938317006182235e+01 -1.6170226680260566e+02 3.1891284078618628e+02 -3.7927854140364161e+00 -5.0320313549864295e+00 -4.4204309397330690e+01 3.1711526057932497e+02 -3.2867122665295767e-01 -2.2011289106662844e+00 -4.2356512474463264e+00 2.9746316336905352e+02 1.8726696861808071e+02 4.1311756811389868e+00 -7.6075038872697931e+00 1.6608371165403202e+02 -2.0671359675009933e+02 -3.6058702019975435e+00 -3.4595412718093796e+00 1.8739791543615880e+01 -1.2363962597128933e+02 1.4590518704990717e+02 -1.0774698138206669e+00 5.2463266799330102e+00 -1.8931891808519211e+02 3.3774219804461083e+00 -8.8734917416507173e+00 1.1799902567329605e+01 -3.6167847409425121e+01 -1.4618654749738415e+01 9.8234471625279724e+01 4.4943067740325243e-01 -1.1577109930891169e+01 -1.1026928602127664e+02 -7.8988071334303572e+02 -1.4917760331165080e+00 1.0455495954133443e+01 -2.0360434610825244e+00 8.8536221416717737e+01 1.4211757642732707e+01 1.1719018878242820e+00 -9.5038381601667177e-01 -1.2958420028807474e+01 3.6983806814394353e+02 5.5113090027556808e+00 -1.2522559168753444e+01 -2.5746532863695109e+01 6.0025611990245352e+01 -5.7936921432133749e+02 -4.8489073003259255e+00 -3.3569123475467677e+00 -4.5061397498417477e+02 -1.0749284953293461e+02 -3.9764487491796077e+00 1.1334089977601291e+03 
      </Row>
      <Row Index="12">
        4.2756296271883912e+01 -6.8170321100623070e+01 -4.0594350333029979e+02 -1.5986768963215291e+03 -3.4372096234696528e+01 1.3704270123231254e+01 -6.3396543398892027e+02 -5.2049762155416465e+02 3.5048880317089584e+00 1.4142324805663520e+01 1.2920260702950742e+02 1.8726696815061121e+02 2.7385235556226776e+03 2.2225932094657175e+01 1.8159870567968888e+01 1.5155334640906374e+03 -4.5617253453315050e+02 -3.1059833939442452e+01 -9.9306062591200401e+00 -7.0002972013748931e+01 6.2981127334032897e+02 1.6595342463428428e+03 1.5242257723088957e+00 8.7390202472285523e+00 -8.4034045239688214e+02 8.8832770069193111e+02 -2.0426048596487789e+01 3.7325939895108782e+01 6.0709058267784712e+00 -1.2113508550888396e+02 3.6047021976533728e+02 2.6281420889500851e+01 4.6122917041194764e+00 2.3561526434638843e+01 -8.2508220121559896e+02 9.7324007755960462e+00 1.9924607380275688e+01 1.4833616691225767e+01 -5.9127562099924887e+01 3.0683527034881390e+03 3.0733884102324640e+00 -1.9830208870572088e+00 -5.2367659159394691e+01 -3.5934514234994379e+02 1.5568123345300330e+01 -4.8990268368625948e+01 3.5730389315433769e+01 3.0641706242234352e+02 9.0733027212539819e+03 -2.0477585230861973e+01 2.3498869878707410e+01 -1.9908881863182535e+03 3.4545282021098564e+02 1.5964155428238517e+01 -7.4066498714339059e+03 
      </Row>
      <Row Index="13">
        -3.4505431041975498e-01 -2.5307924517113758e+00 5.3396089476687081e+00 -1.0930982919033568e+01 3.0361052863320026e-01 5.0500234632326624e-01 -1.6493193335999010e+01 5.1345659999184591e+01 -2.1340826404313651e-01 5.1120004598175228e-01 4.4148938086168634e+00 4.1311756780197868e+00 2.2225932132572780e+01 3.4483785630442410e+00 5.2933682729340803e-01 4.9176651409664515e+01 -4.4466095655808893e+01 4.9153569735506752e-01 -9.1859858560178059e-03 -1.2031297073402922e+00 -5.9576234621177404e-01 -8.1855912356721845e+00 -2.4090699546663803e+00 -2.0747087225468563e-01 -1.6240911212895625e+01 1.1907698438907035e+01 6.4914265177414346e-02 4.3935791972817095e-01 1.7473682841411460e+00 -1.0144211475595700e+01 2.4347077472201004e+00 -7.3144149901296851e-01 5.0149779616912826e-01 -1.7946274525723172e+00 -8.6421345629954743e+01 -5.1241940041125722e-01 -8.3538647754539411e-02 -7.0613269139983492e-01 -2.2618356249379916e+00 1.5900391263835898e+00 2.5647822952817190e-01 2.7950170545436186e-02 -1.0275526164411518e+01 1.2329857788492683e+01 3.0477256523773866e-02 -4.0571179966010362e-01 2.9067570293336455e+00 1.2448984711325890e+01 1.4802624777725441e+01 1.2727066111006471e+00 6.5718205009490305e-01 -6.9140866897566980e+01 1.0251642712405824e+01 -2.4060882424524949e-01 4.7873181255464317e+01 
      </Row>
      <Row Index="14">
        -3.3538553229890908e+00 -1.9418546454339687e+00 7.5566007696202462e+00 -1.7342790521489405e+01 -6.4765577042980738e-01 -5.8955404260007072e-01 -1.2978844209991678e+01 -6.9654979533096366e+00 -2.1795125472031529e-01 4.1051584685413900e-01 1.8237855493469546e+00 -7.6075038940502280e+00 1.8159870563414643e+01 5.2933682673724913e-01 6.4567749424280390e+00 2.1592615651673100e+01 2.5743653254994836e+01 -6.7128036834809524e-01 1.9942123975851878e+00 -3.5766396445866397e+00 -8.0750152689066788e+00 1.9399031936541782e+00 -3.1476439903636300e-01 -5.7779627891457812e+00 -1.2504163401546206e+01 -2.5239824307861700e+00 -6.0919516417316383e-02 -3.3589468558041831e+00 1.5745181646712467e+00 -6.3184306155985137e+00 -2.1019627737769980e+01 6.3238647738724751e-01 3.0716920508649679e+00 -2.9102212872894810e+00 2.4653388309503754e+01 8.9291914743321854e-01 -4.0008813228427593e+00 1.2298781849696387e+00 1.0831075394698984e+00 4.8799001271064434e+01 1.6435645298934790e-01 1.4092970352798029e+00 5.0979764925449897e+00 -7.5183631339802757e+00 5.9870404866079086e-02 5.0308862291405454e+00 1.0689447080973444e+00 -1.1836758692115680e+01 1.4164038557754446e+02 -4.3511336870388839e-01 -3.3550921144208701e+00 -2.3722152214919930e+01 -3.9473210493760535e-01 9.8101550507757262e-01 -1.2960647737530567e+02 
      </Row>
      <Row Index="15">
        1.8501064072133886e+00 -8.3255740894814650e+01 -5.5617734089817532e+01 -1.3236968508150312e+02 -4.9977728189540585e+01 3.6055891229207191e+01 -9.6106896057942322e+02 3.6965865174642931e+02 -1.1002118316104600e+01 1.8156273495804271e+01 1.4762941147081744e+02 1.6608371149411744e+02 1.5155334668054857e+03 4.9176651415074595e+01 2.1592615692085474e+01 2.5246814628657607e+03 -1.0005662987164876e+03 -1.9747618363364857e+01 -1.0323484645062619e+01 -5.7718047716136489e+01 1.6612860153182788e+02 3.7124050422644524e+02 -8.2591029964322527e+00 -1.8378322197796053e+00 -1.3192262275577409e+03 -3.6365777399445051e+02 -4.6537287135342680e+01 8.9166734556572891e+00 1.7511946587450439e+01 -2.9666614695192322e+02 1.8932601698203686e+02 3.5586116191423400e+01 1.9311535986370817e+01 -1.0417147296068549e+02 -1.7965133673626244e+03 1.7398445813219041e+01 3.5397862391452386e+00 1.0730603324576165e+00 -7.7460444363269900e+01 -1.6813376405371451e+02 2.9330038493779269e+00 -6.7084889606597575e-01 -3.5683366438895990e+02 3.4127154658139432e+01 2.5728618172656986e+01 -3.1941494768993007e+01 6.3018012475773730e+01 3.0266364191485849e+02 -1.3161595196881990e+02 -2.4581114915796924e+01 4.2698992932919282e+01 -3.6094318401082514e+03 -2.1867637842795179e+02 2.2771852189541608e+01 3.8606337822954583e+03 
      </Row>
      <Row Index="16">
        3.4140408130961077e+00 2.3513853725774343e+01 -2.8839524744660594e+01 5.6326034662852180e+01 5.2892181074266773e+00 3.3141228958902502e-01 3.5344675200486381e+02 -1.8903628873333982e+03 1.1094124017252028e+01 -1.6587981655258773e+01 -7.3537482045452961e+01 -2.0671359679966423e+02 -4.5617253525429260e+02 -4.4466095663985591e+01 2.5743653245982841e+01 -1.0005662992281432e+03 3.0135910254045193e+03 -7.0639093049634889e+00 -6.6552163792104215e+00 -7.6529763757751624e+01 -3.5229694516974433e+02 5.4221921936691376e+02 3.1634108813051249e+01 -3.6054097901818253e+01 1.6365169540945905e+02 -1.0768305744972909e+03 -9.2765629476049103e+00 -3.0871741416909590e+01 -7.6975516279071599e+00 -2.6015370610820153e+01 -8.7712691097188582e+01 -3.5428532915898803e-01 2.8998195109511826e+00 -1.9854875205549305e+02 3.6091795641744743e+03 1.7595331598085977e+01 -1.0929456156722701e+01 5.6188891873664261e+01 1.1296664639013713e+02 1.0463653412571655e+03 -2.1566308794098363e+00 1.0483748264161374e+01 4.4473777715058560e+02 -2.1697996677251246e+02 -3.5306271915631804e+00 2.1401095093738888e+01 -5.9918596269991838e+01 -7.9160438213639509e+02 2.0144775600639221e+03 -4.3273379950501862e+00 -2.5090853490811241e+01 1.3610282327371076e+03 -7.5013258795292177e+02 2.4129310769895245e+01 -3.2308072024441249e+03 
      </Row>
      <Row Index="17">
        8.3275093603772987e-01 3.5214306334077889e+00 5.5251523595255883e+00 5.0261559350963523e+01 4.6915347383270589e-01 4.9581481479740219e-01 1.0691799568863434e+01 3.4985086893577154e+01 -6.3137637721783424e-01 1.0902813141513832e+00 -4.3292391882473673e+00 -3.6058701980211305e+00 -3.1059833963174697e+01 4.9153569751041792e-01 -6.7128036873482788e-01 -1.9747618348525691e+01 -7.0639093134529958e+00 7.7058384577292882e+00 -9.9986515523978503e-01 2.1137240823151155e+00 -1.5986612929017941e+01 -1.4045390284703039e+01 3.3186511886442427e-01 1.2115209894918619e+00 3.2451690887794420e+01 2.0937603682323950e+01 7.0241803835721317e+00 2.3298511071090555e+00 -4.2254914155898113e+00 1.0877100944094883e+01 -2.1814914737971339e+01 -3.3403090742439118e-01 -1.0174809980147370e+00 -3.3176220691381548e+00 1.5928246305653587e+01 -2.4494627420051991e+00 1.3329602944715688e+00 5.0219996400814437e-01 3.0814704738217018e+00 2.1967731571380476e+01 -2.9793515689715488e-01 -4.3840393651762405e-01 -7.2873947599930311e+00 2.5651705008840590e+01 -4.7554174386120707e+00 -2.2226989316576162e+00 -4.4982823027891623e+00 5.7569299408760477e+00 -5.1219429691491854e+01 -5.3010650868077547e-01 1.1158168488703151e+00 2.9643256647564318e+01 1.8435604780369239e+01 -6.7407700969984203e+00 1.0871041238231300e+01 
      </Row>
      <Row Index="18">
        -2.4163115208238324e+00 -1.4848922030835676e+00 8.5794319632705776e+00 2.3858727005668356e+00 3.2121931706634044e-01 -4.4882744404237620e+00 -3.1724438113397202e-01 1.4372069013492982e+01 3.0922484303157166e-02 -4.5775282225463627e+00 2.1690724341018162e+00 -3.4595412683575915e+00 -9.9306062886343796e+00 -9.1859857648639298e-03 1.9942123970955405e+00 -1.0323484635092033e+01 -6.6552163886424651e+00 -9.9986515515648411e-01 1.0178313139794696e+01 -1.6991233065744324e+00 3.1848116465197593e+00 2.4529225251502811e+00 -8.0325666683246388e-01 -5.0882402465299705e+00 5.3090970642326276e+00 -2.2405675341895499e+00 -3.1069972632232679e-01 -6.3917037990846453e+00 2.9779173944459441e+00 -1.0048507739804219e+01 7.4671904816539776e+00 2.0600413452513638e-01 -8.8466784869219750e-01 6.2964267857722893e+00 -4.1131076073557367e+01 -1.8134868502368917e-01 -6.7179446486274585e+00 -7.0636198993796007e-01 -4.3381480525144083e+00 -2.2978117389648574e+01 9.4205250856757031e-02 1.9593208051907669e+00 3.7234004135616470e+00 -3.5598701046392122e+01 5.3515586144954419e-01 1.0352658382336500e+01 2.7125431702215517e+00 -1.1888852344145175e+00 -3.6690380072756987e+01 4.3701567006731784e-01 -9.4175608190386271e+00 1.9067396733108094e+01 2.2131239008843245e+01 1.5246057534900335e+00 -3.5689634900782665e+00 
      </Row>
      <Row Index="19">
        1.2173264912001969e-01 9.3130804329533401e+00 -2.6110409828280950e+01 5.8780837913274809e+01 4.1093700536344429e+00 -8.4634509797177770e-01 4.4355511059472349e+01 5.2427346598234465e+01 5.0500375715202637e+00 6.9650415965406864e-01 -1.6343805637072727e+01 1.8739791548658083e+01 -7.0002971994796553e+01 -1.2031297068144151e+00 -3.5766396443146391e+00 -5.7718047679921142e+01 -7.6529763761774859e+01 2.1137240818768648e+00 -1.6991233070412752e+00 3.1137266025987731e+01 -7.9841454886966821e+00 7.2931951870956127e+00 -1.8190071458511303e+00 3.9057999000114343e+00 2.3374650943584488e+01 -4.0287407846005323e+01 1.8547533229921598e+00 3.5671988073209637e+00 -9.7770472342944572e+00 3.2442857420313629e+01 -3.1607465034397617e+01 -3.7491936674795965e+00 -2.8554873491278352e+00 -2.4948148836110828e+01 -1.1163224449228555e+02 -8.3742017467024255e+00 2.2535493741415324e+00 -9.0824971079398757e+00 3.7729547207789782e+00 -4.9401345381663056e+01 3.4990947931948391e-01 -1.0009758835517459e+00 -1.1638464349704480e+01 3.0004033106336783e+00 -8.4580157434371017e-01 -1.0335696280357318e+00 -1.0741211169760751e+01 8.9896850880624921e+00 -1.2782938269251619e+02 3.7994528345282106e+00 4.6073409534727716e-02 4.7581452348843698e+01 -2.5891449445392265e+01 -6.5539135457420139e+00 1.2041066949210614e+02 
      </Row>
      <Row Index="20">
        4.1536875450447042e+00 -2.9979011784998612e+01 -9.0096968932078198e+01 -6.0905395482586755e+02 -3.6538801034311064e+00 -1.0961382408135250e+01 1.6858598412791252e+00 -4.8617410358680627e+02 4.6415411933905659e-01 2.9046265107217550e+00 3.3801829807797404e+01 -1.2363962600124187e+02 6.2981127256010222e+02 -5.9576235435694613e-01 -8.0750152804380377e+00 1.6612860107739198e+02 -3.5229694519933400e+02 -1.5986612920897736e+01 3.1848116534854469e+00 -7.9841454801065375e+00 8.5528574526905652e+02 3.7840274694437159e+02 2.4302790666285135e+00 1.0265028800993994e+01 4.4386013547906934e+01 1.0360800180505050e+03 -4.2198880316393570e+00 7.9173696703259191e+00 1.8442704886555475e+01 1.6164488132212443e+02 3.4858641110370115e+02 4.8404682476973839e+00 -2.9564507929837993e+00 1.9433132556649980e+02 3.6167579134360233e+02 -3.0123141951389698e-01 2.8841237841087080e+00 3.4634821940864224e-01 -1.3632481619587060e+02 7.6759362816593807e+01 -2.7740039484544976e-01 -3.5990143443188973e+00 -8.2967859493090941e+01 -8.4399712372141903e+02 1.0167327988665305e+01 -4.9229542424907038e+00 2.0228791403145038e+01 3.2627624002843714e+02 1.3133400684404689e+03 -1.3104660381053179e-01 -2.9115620279330869e+00 5.3316721630118181e+01 7.2515137168684691e+02 9.5908319953141739e+00 -1.8218468455395550e+03 
      </Row>
      <Row Index="21">
        -6.1473994146435871e+00 -7.7345110389030324e+01 -7.1491521472667955e+02 -3.9095705923761707e+03 2.3597238119140457e+01 1.5028614386552363e+01 4.4282857967591553e+01 -1.3680738398252288e+01 3.4308337567598528e+01 -1.7940229283572990e+01 6.7818229758784753e+01 1.4590518588509622e+02 1.6595342440762906e+03 -8.1855913445733677e+00 1.9399031744360400e+00 3.7124049672369438e+02 5.4221922095816990e+02 -1.4045390206742969e+01 2.4529226167761067e+00 7.2931951615204831e+00 3.7840274870832428e+02 6.4795106952148144e+03 3.2416156806624130e+00 3.1629610011100850e+00 -5.7898623039965787e+02 -7.3365130733348394e+02 -6.2722802858384966e+01 6.1651069147609050e+00 2.4132446929710568e+01 1.6291525828566051e+02 -2.6151678266643978e+02 -3.3535515790210248e+01 1.7541276099821584e+01 -1.6169906975868798e+02 4.3898145670470717e+02 -1.8943240558481193e+01 -2.0757152472110683e+00 -4.5776279252636112e+00 -4.2729415621576408e+00 7.0971942517430980e+03 3.6300599490135488e+00 5.0156421574925005e+00 6.2807234651925796e+01 -1.7715041382630488e+02 2.7004912552289770e+01 4.9548107788368299e+00 1.8812414259231446e+01 -7.5401439515685738e+01 2.5843780638749799e+04 4.3533325149111576e+01 9.7255980133777484e+00 -6.1586106243045151e+02 -2.9183251008291722e+02 2.4304704520328325e+01 -2.5002303976512769e+04 
      </Row>
      <Row Index="22">
        1.4953631120300166e+00 3.7193924873745390e+00 -5.4166447058867817e-01 7.7699363793107068e-01 -1.4711459410791967e+00 -3.0098937110851764e-01 1.5884953853301909e-02 -6.9280167096196607e+01 -1.8206216968089370e+00 3.7972040314382127e-01 -2.5516236144155133e+00 -1.0774698139096550e+00 1.5242257808047270e+00 -2.4090699546154339e+00 -3.1476439888842833e-01 -8.2591029937101794e+00 3.1634108814699065e+01 3.3186511878587860e-01 -8.0325666688225705e-01 -1.8190071459631900e+00 2.4302790668206282e+00 3.2416157027700212e+00 6.1063640743074536e+00 7.8747749526625954e-01 -4.8311954151127665e+00 -1.1343477866577460e+01 2.6059789579476149e+00 6.7897323429767242e-01 -4.5143530281770943e+00 2.6957514830171192e+00 2.4772710585255041e+01 9.1368891757442616e-01 -1.3225239428139726e-01 2.0331142099744284e+00 9.2514216553748355e+01 2.2225833294669428e+00 1.0565574520188585e+00 1.9583983635270374e+00 3.7376013575896527e+00 2.3793151498159446e+01 -1.5356573926859660e+00 -3.0764145996080000e-01 3.8039076224960580e+00 -4.5852658171616030e+00 -1.3640419539782123e+00 -1.6582140717082936e+00 -3.9624848508787087e+00 -5.4234067899333596e+00 -8.7419584477513403e+00 -2.6606234821032642e+00 7.9865671512369296e-01 1.1295989034312429e+01 -1.4160562643275467e+01 -2.1468663607722034e+00 6.9227400908763990e+00 
      </Row>
      <Row Index="23">
        5.0730086069679032e+00 1.7503336772371085e+00 -6.3320495000555468e+00 -1.0559902049967604e+01 -3.5107815148793975e-01 2.7644296179288972e+00 2.8040262678958072e+00 6.2030934364601649e+00 1.3306504380467565e-01 2.9415924643292897e+00 -1.7464247071601668e+00 5.2463266747866566e+00 8.7390202304904960e+00 -2.0747087281676357e-01 -5.7779627893273329e+00 -1.8378322560531046e+00 -3.6054097894119195e+01 1.2115209898872887e+00 -5.0882402461123108e+00 3.9057999000386445e+00 1.0265028807678142e+01 3.1629609876432117e+00 7.8747749520119092e-01 9.4812321446226662e+00 1.1926665092364425e+01 2.1559951597395283e+01 1.3534168484354367e+00 7.2859231262389326e+00 -2.6439661826942142e+00 1.3626344158244933e+01 -1.8455359639151023e+00 1.8428395746760295e-01 -2.2259158933839469e+00 3.5024776171018175e+00 -1.6135180790827746e+01 -8.2539400886315661e-01 6.8034785200563226e+00 -7.7616848134059402e-01 7.5988466033463098e-01 6.2341133337755544e+01 -2.1323263996633879e-01 -2.7550167717445326e+00 -1.0204013985475395e+01 1.3996650150831613e+01 -8.2075945628246938e-01 -9.9623626254112985e+00 -2.0097893857286673e+00 1.8013527087314564e+01 1.1855880802522358e+02 -5.9443286559250086e-01 8.1936081486507817e+00 1.7625557152879967e+00 8.9627645785159729e+00 -2.4398535486372812e+00 -1.1335256715901309e+02 
      </Row>
      <Row Index="24">
        -7.1514616124295571e-01 4.0247446532506729e+01 1.4919528906322830e+02 7.3327795686855097e+01 2.2157638077982256e+01 -1.3285860906931703e+01 4.8498106696849391e+02 9.7335131688534602e+01 8.1558510612521218e-01 -2.1888048421296844e+00 -7.1804834215183689e+01 -1.8931891800046517e+02 -8.4034045431356935e+02 -1.6240911219225893e+01 -1.2504163430164681e+01 -1.3192262277292684e+03 1.6365169509035877e+02 3.2451690899751867e+01 5.3090970727367406e+00 2.3374650968632888e+01 4.4386013278011475e+01 -5.7898623555124880e+02 -4.8311954134963218e+00 1.1926665068321654e+01 9.8229637681822965e+02 7.4189442868343235e+02 6.2214795052253294e+01 4.8003349258729830e+00 -1.3261526750545272e+01 2.7304042668009060e+02 -3.5471574770700130e+02 -1.2441307999400273e+01 -9.6900700175631478e+00 1.5983320535682833e+02 9.2269085732287726e+02 -1.9291896127295331e+01 1.7208005807187139e+00 4.9483544837909363e+00 1.3920326942365969e+01 3.9969458684229693e+02 -4.6228550917158007e-01 -3.2700054700756858e+00 7.5494740511808374e+01 -2.1369575122881049e+01 -3.2081093107392086e+01 8.4026606826917458e+00 -3.6101274468340876e+01 2.9192209369694641e+01 5.9071128926299048e+02 6.4679610915797348e+00 -1.0516532296799596e+01 2.0531013318139139e+03 5.3567885495241865e+02 -4.1104301391068610e+01 -2.9324486393400466e+03 
      </Row>
      <Row Index="25">
        2.0511883701490660e+01 5.3585759255183802e+00 2.7184414057119284e+00 -3.5422375482122879e+02 -2.9837149782492361e+01 -1.6148303526901145e+01 1.3617403157820081e+02 4.1530506732403774e+02 -8.5053289966878083e+00 7.3786428032017284e+00 3.1977952131873728e+01 3.3774220347719393e+00 8.8832769779559749e+02 1.1907698422606586e+01 -2.5239824753307403e+00 -3.6365777471393085e+02 -1.0768305748918901e+03 2.0937603704278452e+01 -2.2405675179270048e+00 -4.0287407808501278e+01 1.0360800177958724e+03 -7.3365131475197029e+02 -1.1343477864874519e+01 2.1559951566528071e+01 7.4189442901389521e+02 4.4761687922562287e+03 1.1656112893008708e+02 1.1708059465959471e+01 -5.1231954138142100e+01 4.1131842337363923e+02 -4.2590634293313485e+01 2.7594810830885827e+01 9.6002993099011391e-02 4.2939682322591943e+02 -6.1198349149823343e+01 -9.6991738995257037e+00 1.1093233033853108e+01 3.7312281417307986e+01 -2.7912478180918562e+01 1.0068087767964665e+03 5.9787846523209343e+00 -9.1268645832534023e+00 -3.5329871284311469e+02 -6.1704811723958892e+02 -5.2001320809806543e+01 -1.8340992426913999e+01 -3.4532480571442420e+01 6.9872524034137109e+02 1.9176501541269149e+03 -3.4104348158519578e+01 4.3903394234284860e+00 7.3140139516111265e+02 2.6116625012090581e+03 -7.2651290608821071e+01 -4.5045842513026892e+03 
      </Row>
      <Row Index="26">
        1.6103671701340545e+00 7.3178391186206682e+00 1.1338897266584866e+01 7.2575259936560542e+01 -1.7292870366694189e+00 -6.4009129627834227e-02 1.5891186333895803e+01 1.8155504169667324e+01 6.2781614956733556e-01 1.1436126568959253e+00 -3.4139509979008600e+00 -8.8734917404572897e+00 -2.0426048696149792e+01 6.4914264576536596e-02 -6.0919517884656216e-02 -4.6537287162968596e+01 -9.2765629592356618e+00 7.0241803843514994e+00 -3.1069972568504545e-01 1.8547533241920615e+00 -4.2198880400726466e+00 -6.2722803110554786e+01 2.6059789579891377e+00 1.3534168473159980e+00 6.2214795065443411e+01 1.1656112893307977e+02 2.1895064926564785e+01 1.6354446763849735e+00 -1.3244525679630783e+01 2.7440095072651729e+01 -4.8317905364011501e+01 1.3229311674042952e+00 -6.7328406253740269e-01 1.3695861500495994e+01 6.8004648227976702e+01 -5.6189861456207382e+00 1.0535053301339690e+00 2.5460802018366451e+00 7.2314654987641385e+00 1.3475450747697047e+02 -5.6283543148274673e-01 -5.1800705929224045e-01 -1.5096336959625848e+01 3.9735962885971226e+01 -1.1011831087108403e+01 -1.9526197708473374e+00 -1.3222274105585218e+01 1.8331189245763291e+01 8.5603651537311492e+01 -3.7547149049779507e+00 7.8502064454687570e-01 7.1659735184831746e+01 6.4671597802665175e+01 -1.5687412998360278e+01 -1.9667301271327150e+02 
      </Row>
      <Row Index="27">
        8.0609643778822146e+00 4.0569199748962319e+00 -1.3522542165498294e+01 4.2806005225831541e+01 -8.5238963040769988e-01 -2.6538753815339078e-01 1.5539474948786847e-01 1.9134762370973704e+01 -2.1306293014928812e-02 7.4557340959813700e+00 -3.4175107950267050e+00 1.1799902556375738e+01 3.7325939869275317e+01 4.3935791862745077e-01 -3.3589468560564057e+00 8.9166733824065432e+00 -3.0871741400794122e+01 2.3298511078792288e+00 -6.3917037982393907e+00 3.5671988072333640e+00 7.9173696858947551e+00 6.1651069076691796e+00 6.7897323413297306e-01 7.2859231263446134e+00 4.8003349753332145e+00 1.1708059533163599e+01 1.6354446787691188e+00 1.6142532962726587e+01 -3.5503114364333896e+00 1.2416422106104847e+01 2.0532915114304245e+01 1.0607500471079814e+00 -2.8511422702797367e+00 -6.3567029981953738e+00 -2.2607746498597180e+01 -1.0270799141526368e+00 9.2843348032602453e+00 -9.2017354059865042e-01 3.7743070413432358e+00 2.2688052967373321e+02 -2.5444709230611240e-01 -2.1974557106562664e+00 -2.9906725715687372e+00 2.3002872758828858e+01 -1.1475519872741513e+00 -1.3708237156131686e+01 -3.7275821436582626e+00 2.0958521576689066e+01 2.3660555099349693e+02 -1.4213127217588850e+00 6.4049109652851826e+00 -1.1972642602265246e+01 6.7067126468315550e+00 -3.5353405841168546e+00 -2.2282614506798785e+02 
      </Row>
      <Row Index="28">
        -4.0216535240299436e+00 -1.8049001800522774e+01 2.0257927335711031e+01 -1.5219960123175133e+02 1.5853355660665329e+00 -6.5743377101483702e-01 -1.1477438244302789e+01 -2.0537086208508299e+01 1.0150059908154141e-01 -6.4481020591256311e-01 1.3172217232393576e+01 -3.6167847417519852e+01 6.0709058008560532e+00 1.7473682833386306e+00 1.5745181643578974e+00 1.7511946531635431e+01 -7.6975516195421960e+00 -4.2254914149355542e+00 2.9779173951634990e+00 -9.7770472343942583e+00 1.8442704899056025e+01 2.4132446901922371e+01 -4.5143530283613087e+00 -2.6439661826738501e+00 -1.3261526712159878e+01 -5.1231954082181801e+01 -1.3244525677783507e+01 -3.5503114365688946e+00 2.7048103361455333e+01 -3.2236199824753839e+01 2.3041724589122538e+01 9.0332435823826995e-02 2.5995048209966143e+00 1.6703882341646022e+01 -5.3827395591523768e+00 3.0900620798537943e+00 -3.5682813447554893e+00 -3.5161939895151164e+00 -2.4757669757259936e+01 -6.0833601918059721e+01 5.6568960880474162e-01 8.5881515908232997e-01 2.4768433885010186e+00 -7.2781295957560644e+01 6.5679373892075086e+00 5.0842057902122697e+00 2.2214559244252271e+01 -1.2340378693426066e+01 2.0436673705349617e+02 4.5867821156415793e+00 -1.7218323488042415e+00 -7.8887760367034510e-01 -6.0714989781204256e+00 1.3134925290344233e+01 -2.0536860740312926e+02 
      </Row>
      <Row Index="29">
        5.6137233092895258e+00 2.2534271296783118e+01 -1.0747012378628006e+02 2.9572892588136165e+02 -4.5703982864225736e+00 2.7163750540330511e-01 1.9083992337406062e+02 -8.7087300080641398e+01 3.5643696362528345e+00 7.6573326636862475e+00 -4.3623520980098903e+01 -1.4618654758967466e+01 -1.2113508611791985e+02 -1.0144211480671885e+01 -6.3184306243307446e+00 -2.9666614721815313e+02 -2.6015370650894511e+01 1.0877100949664623e+01 -1.0048507734960619e+01 3.2442857427085869e+01 1.6164488129380152e+02 1.6291525683651901e+02 2.6957514830172906e+00 1.3626344151933836e+01 2.7304042682734189e+02 4.1131842347979000e+02 2.7440095076001171e+01 1.2416422092423517e+01 -3.2236199834974286e+01 3.0356809242060262e+02 -2.7249707829638004e+02 5.0906063242344475e+00 -9.9835788350954164e+00 -1.2589080632549667e+01 5.4236514429543820e+02 -8.7583490515207814e+00 9.7607046587587636e+00 6.1334398981937088e+00 2.9321291993930348e+01 5.3555348720031054e+02 2.3439779367551927e+00 -5.2600502442830663e+00 -4.4628997234751743e+01 6.4004237449995678e+00 -1.3754410903665844e+01 -1.2549028815075111e+01 -4.5705753986110913e+01 1.1252275541303042e+02 8.4385931453588171e+02 -1.1072667648394370e+01 4.6786296122566000e+00 4.6463225634020569e+02 2.5896231803301447e+02 -2.7879298546914900e+01 -1.4181921612605206e+03 
      </Row>
      <Row Index="30">
        2.5076768030074163e+01 1.0943567152338801e+01 -1.0930266803045379e+02 -1.6405893176927930e+02 6.0503464656640062e+00 -4.4191069920716473e+01 6.5180279471442191e+00 -6.3503792759602948e+02 -1.2260317779963998e+01 -7.4247183064107958e+00 3.3675499423124528e+01 9.8234471857419749e+01 3.6047022065499914e+02 2.4347077718584842e+00 -2.1019627727616353e+01 1.8932601862779484e+02 -8.7712691367058142e+01 -2.1814914757247607e+01 7.4671904600356669e+00 -3.1607465033974126e+01 3.4858641077810171e+02 -2.6151678157115498e+02 2.4772710589735830e+01 -1.8455359617200884e+00 -3.5471574881415472e+02 -4.2590635830776591e+01 -4.8317905415568248e+01 2.0532915123235625e+01 2.3041724591366801e+01 -2.7249707857735484e+02 1.6413465181795823e+03 -1.5542845720254872e+01 -1.3007185325719860e+01 1.4418933971875958e+01 -2.9752571213647082e+02 1.8841735473079098e+01 1.2342903788916864e+01 -1.3739083432136132e+01 -6.7034139774862211e+01 -2.1329347584190846e+03 -1.0159038217352052e+01 5.0940372692460789e-01 9.8679425095148844e+01 -4.4431946662755945e+02 2.8417585506634982e+01 -1.1751655664778795e+01 4.0111510728708112e+01 5.6831881709580799e+01 -5.7612206608578590e+03 1.5999104478810835e+01 -2.7711563373215540e+01 -2.5645586184910542e+02 -9.4506452036899717e+01 4.1007599315715296e+01 6.0445870093805624e+03 
      </Row>
      <Row Index="31">
        1.0907570712478218e+00 -1.8198607166102647e+00 4.0191287671973441e-03 5.4284413539870911e+01 -7.6002943508122769e+00 8.3866646624426266e-01 -1.8289788539140261e+01 -2.5712951217550994e+00 -1.3429344917881920e+00 1.1143276389383345e+00 1.3688025028315769e+00 4.4943068140579356e-01 2.6281420919126504e+01 -7.3144149850247686e-01 6.3238647774744550e-01 3.5586116224245075e+01 -3.5428533260949280e-01 -3.3403090787388123e-01 2.0600413403740525e-01 -3.7491936675949349e+00 4.8404682434032793e+00 -3.3535515735779278e+01 9.1368891766167037e-01 1.8428395769461758e-01 -1.2441308020681845e+01 2.7594810803513155e+01 1.3229311665034587e+00 1.0607500476397611e+00 9.0332436077630973e-02 5.0906063199454366e+00 -1.5542845727293241e+01 8.1481708539389306e+00 -5.4268624530202203e-01 1.3192906365612771e+00 1.0623638325433859e+01 1.7470218869353289e+00 3.6974942931218852e-01 2.0356798571845340e+00 2.0372633409281278e+00 2.7966642757563953e+00 3.0982733666771789e-01 -1.1874651700200450e-01 -1.9319293345631963e+00 3.8105386954730420e+00 -5.5018039359798576e-01 -1.2887134261551383e+00 -8.0998029575497377e-01 6.6603438424428436e+00 -1.2040307837379265e+02 -7.2310110964519678e+00 7.5621844650558501e-01 -4.2200747996173639e+01 1.6232179746377692e+01 -6.9840943093710761e-01 1.4910291209890573e+02 
      </Row>
      <Row Index="32">
        -4.5238762641927224e+00 -3.1352925424878322e+00 1.3549621889569039e+01 -1.0894241034086190e+02 1.2428513559871135e-01 1.5707322482180643e+00 -1.2906111577725142e+01 2.3782458731454881e+00 -5.0177296291760598e-01 7.3519553184723918e-02 3.7778755154590904e+00 -1.1577109944868194e+01 4.6122916876929594e+00 5.0149779494834235e-01 3.0716920507840655e+00 1.9311535900181298e+01 2.8998195303979628e+00 -1.0174809971671408e+00 -8.8466784765579298e-01 -2.8554873495851059e+00 -2.9564507706534187e+00 1.7541276124975774e+01 -1.3225239456125387e-01 -2.2259158931015008e+00 -9.6900699575156750e+00 9.6003082623838054e-02 -6.7328405952305559e-01 -2.8511422699387481e+00 2.5995048215193037e+00 -9.9835788174113986e+00 -1.3007185343890683e+01 -5.4268624602244131e-01 5.7177224182347324e+00 6.1249202269383431e+00 1.2558562401719030e+01 9.7781731564953134e-01 -2.2338852972142615e+00 3.5540126871425892e-01 -3.8749030777644546e+00 3.3635640643795945e+01 3.0890968417763329e-02 6.0750975893719328e-01 -2.3376628662326171e+00 -3.0179974954962745e+00 5.0812169400696217e-01 2.2670605493883138e+00 3.4750403296670607e+00 -8.3353658713752736e+00 3.0505867854614536e+02 9.2755568314882753e-01 1.7903302141859854e+00 -2.1459873645855946e+01 -4.0566485971148705e+00 1.6327187601928195e+00 -2.8295533548781782e+02 
      </Row>
      <Row Index="33">
        -8.3828599621797366e+00 -2.0166629880822711e+01 9.8716736925566465e+01 -3.9518284806494557e+02 1.8150903994621785e+00 -5.4034102259902284e-01 -2.9074827994787938e+01 -4.5193537568705779e+01 -4.0181015425480027e+00 -1.5696438589297941e+00 3.5748024383980294e+01 -1.1026928601210687e+02 2.3561525946244728e+01 -1.7946274552448358e+00 -2.9102212946413601e+00 -1.0417147307941923e+02 -1.9854875212038905e+02 -3.3176220654238762e+00 6.2964267886150296e+00 -2.4948148830058756e+01 1.9433132552106963e+02 -1.6169907101118449e+02 2.0331142102005368e+00 3.5024776116802627e+00 1.5983320541054263e+02 4.2939682322327099e+02 1.3695861499935290e+01 -6.3567030097746056e+00 1.6703882332375088e+01 -1.2589080652056509e+01 1.4418934230543073e+01 1.3192906412135414e+00 6.1249202119433424e+00 2.0486669729622054e+02 8.4036847129129654e+01 1.2803834689218547e+00 -5.2974897958929557e+00 1.7645030440953442e+00 -6.3005795115637319e+01 -1.8998284994897932e+02 -1.9173219756808599e+00 -4.4410036912695317e-01 -1.1904332723842545e+01 -2.0814869419417028e+02 -3.7429387373611043e+00 8.8701687274499932e+00 2.6215370871363248e+01 9.4747851984026937e+01 3.7442293155478296e+02 -4.5011151388615556e-02 2.1000735990783141e+00 3.1423730326582864e+02 3.0077420179846922e+02 1.9420089896455783e-01 -8.5982215998001902e+02 
      </Row>
      <Row Index="34">
        -6.5634616645693313e+00 1.7191006042965455e+01 8.2138900783011195e+01 -4.6668501348607242e+02 5.0094393651670543e-01 1.0843974117316975e+01 7.2914277412054435e+02 -3.8537134114530454e+03 8.5648794373674377e+00 1.2833434359421517e+01 -1.3123734642739731e+02 -7.8988071344316904e+02 -8.2508220393856755e+02 -8.6421345656136737e+01 2.4653388272054144e+01 -1.7965133688607748e+03 3.6091795640638447e+03 1.5928246333525294e+01 -4.1131076046636167e+01 -1.1163224446761728e+02 3.6167579131769162e+02 4.3898145042101373e+02 9.2514216551381153e+01 -1.6135180818724166e+01 9.2269085820873624e+02 -6.1198348259022168e+01 6.8004648254969197e+01 -2.2607746558775943e+01 -5.3827395996340783e+00 5.4236514436082507e+02 -2.9752571097711552e+02 1.0623638342087588e+01 1.2558562324693252e+01 8.4036847281302471e+01 7.5633919897399555e+03 2.0758475812383040e+01 1.0528562360957014e+00 9.8802140287220425e+01 1.2246853009652995e+01 2.3993148574786642e+03 -1.6675581532558493e+01 -1.3239472504861283e-01 3.4963106239327760e+02 -9.1867045318731107e+02 -4.3021069288236461e+01 -3.1674816740697338e+00 -1.0134065627914556e+02 -6.7346619761189697e+02 5.3268668634868745e+03 -2.2708263497280967e+01 6.2479328931185592e+00 2.9777193661161045e+03 -8.0454895337358266e+01 -2.1260737345228932e+01 -8.5395261112525641e+03 
      </Row>
      <Row Index="35">
        -1.0114262913299399e-01 -8.3856060848518155e-01 5.0236632819799638e+00 -1.6453425685365801e+01 -2.3682725290197055e+00 4.2324501551581761e-01 -1.2830706401476505e+01 -1.5596967635265116e+01 -4.9759051119077951e+00 -1.4935259394695777e-01 1.1575178734723313e+00 -1.4917760288220556e+00 9.7324008033042446e+00 -5.1241939987374252e-01 8.9291914777952286e-01 1.7398445847448556e+01 1.7595331593850005e+01 -2.4494627424530790e+00 -1.8134868549648875e-01 -8.3742017468337213e+00 -3.0123142451293461e-01 -1.8943240511121083e+01 2.2225833295411177e+00 -8.2539400869508484e-01 -1.9291896149605549e+01 -9.6991739281584159e+00 -5.6189861465880995e+00 -1.0270799137130737e+00 3.0900620800897514e+00 -8.7583490564047679e+00 1.8841735467660556e+01 1.7470218869838803e+00 9.7781731630574253e-01 1.2803834640264995e+00 2.0758475793038997e+01 8.1208708130792218e+00 -2.7077273198460278e-01 2.6760577564916943e+00 3.6714903703698631e-01 -5.6059040313544998e+01 -5.2558150234949874e-01 1.6075306164129274e-01 7.1177727389777310e+00 -3.2191515808588065e+00 2.8142181337734380e+00 2.3239414128149782e-02 4.7499801853886376e+00 -7.2954165050198307e+00 -1.1384053581542578e+02 -2.7856841951848885e+00 6.0773184618116716e-01 -1.9229864258733198e+01 -8.3941479104309327e+00 5.3585097245315971e+00 1.3407989595906807e+02 
      </Row>
      <Row Index="36">
        6.6716756797539745e+00 3.2587159325750576e+00 -1.0809263449829899e+01 2.4063909695165648e+01 -6.8027151457130230e-01 1.7995781142691669e+00 1.5568333397147001e+00 4.1072188470282924e+00 -2.0127184366691275e-01 4.0454640037515190e+00 -2.7922150397315342e+00 1.0455495951258253e+01 1.9924607384837941e+01 -8.3538647983827374e-02 -4.0008813227353244e+00 3.5397862234930670e+00 -1.0929456150464830e+01 1.3329602945723655e+00 -6.7179446485029928e+00 2.2535493740203600e+00 2.8841237884573445e+00 -2.0757152191654420e+00 1.0565574519928018e+00 6.8034785202043633e+00 1.7208005915653217e+00 1.1093233048626871e+01 1.0535053307181599e+00 9.2843348035216184e+00 -3.5682813445284296e+00 9.7607046625132625e+00 1.2342903780570282e+01 3.6974942905366426e-01 -2.2338852969435878e+00 -5.2974897932278253e+00 1.0528562550616414e+00 -2.7077273221146214e-01 7.8445812458954096e+00 3.1796568012141757e-02 4.8307950321800313e+00 7.9515584033045883e+01 -2.1667773418877181e-01 -2.0900959508017904e+00 -2.5085697874104582e+00 2.8149360548360960e+01 -7.5029785989556785e-01 -1.1200608210453709e+01 -3.4583971868982681e+00 1.1223075754306738e+01 4.7001566846969808e+01 -1.0876569946371659e+00 7.3102772658527542e+00 -8.4968704328972056e+00 -3.7931735666902555e+00 -2.3678946892135961e+00 -2.9572493874571713e+01 
      </Row>
      <Row Index="37">
        6.3243232033573804e-01 1.3049199607684159e+00 3.8959034154480179e+00 2.5545638306459296e+01 -2.3578923393075542e+00 1.3054041689545386e+00 -5.5668749891829918e+00 -3.3716849723979408e+01 -1.7822837712197335e+00 -1.5225970656248933e-01 -3.3887552951355127e-01 -2.0360434614557734e+00 1.4833616664742067e+01 -7.0613269161273529e-01 1.2298781845808691e+00 1.0730603210599838e+00 5.6188891871326319e+01 5.0219996425109770e-01 -7.0636198971823161e-01 -9.0824971076532108e+00 3.4634821858554687e-01 -4.5776279896259542e+00 1.9583983635198585e+00 -7.7616848160911189e-01 4.9483544902639380e+00 3.7312281423125967e+01 2.5460802019903603e+00 -9.2017354118416783e-01 -3.5161939899698211e+00 6.1334398982817220e+00 -1.3739083419560359e+01 2.0356798573896011e+00 3.5540126792292248e-01 1.7645030450387935e+00 9.8802140283880874e+01 2.6760577567087438e+00 3.1796567853945357e-02 5.6352698584587984e+00 7.2064755912998635e+00 5.2423535807987491e+01 -1.2199318537566839e-01 1.0416105558056282e-01 4.1558702419139451e+00 1.5633557104299257e+01 -1.4623735580874255e+00 -8.3597615211646925e-01 -3.0417077306951512e+00 -4.5166946380857365e+00 3.8378459654065807e+01 -3.2568337098509583e+00 8.0318158664655925e-01 5.7112375296540598e+00 1.5163563245183854e+01 -7.3503869357984031e-01 -6.3067848500716153e+01 
      </Row>
      <Row Index="38">
        7.2426967417706010e+00 2.0816838232996815e+01 -3.6341161950967773e+01 2.6669251691602221e+02 -3.2391089900419843e+00 -5.1283374274908056e-01 3.2852175106442246e+01 9.2284081315076264e+01 -6.3279688543439150e-01 -1.0687823681666941e-01 -1.9838864591094289e+01 8.8536221423834050e+01 -5.9127562033332651e+01 -2.2618356238904980e+00 1.0831075404421426e+00 -7.7460444297851041e+01 1.1296664638693244e+02 3.0814704728777755e+00 -4.3381480533866945e+00 3.7729547202634066e+00 -1.3632481620410135e+02 -4.2729414320066255e+00 3.7376013577100622e+00 7.5988466069603078e-01 1.3920326900046916e+01 -2.7912478233237380e+01 7.2314654970264769e+00 3.7743070423598013e+00 -2.4757669756441373e+01 2.9321291985304470e+01 -6.7034139794098337e+01 2.0372633408204095e+00 -3.8749030759884406e+00 -6.3005795124566703e+01 1.2246852981682423e+01 3.6714903687408196e-01 4.8307950325577274e+00 7.2064755909581102e+00 7.0302784168861308e+01 1.5490003054859582e+02 9.0061488954564894e-02 -6.2442347850573920e-01 1.1396794134336778e+01 2.5195707800346372e+02 -4.4453026187858313e+00 -6.0795606356310650e+00 -2.5717471263439361e+01 -3.4888409161662345e+01 -2.0821914423256609e+02 -6.5090799513326685e+00 -6.3450386739646092e-02 1.9106146006383081e+01 -7.6979100115058998e+01 -9.7539785838622421e+00 2.3551293466753609e+02 
      </Row>
      <Row Index="39">
        1.5122460844722809e+02 -1.6460195728577673e+00 -3.6129905195499305e+02 -8.6993388179293834e+03 -2.0758328682008141e+01 2.5149408964032773e+01 -9.0863126645883312e+01 -2.8128531595529057e+02 3.6365415842404218e+01 1.3634714603633620e+02 5.8983427091588965e+00 1.4211753912859422e+01 3.0683526921786834e+03 1.5900387486599357e+00 4.8799001149476680e+01 -1.6813378952996572e+02 1.0463653459572815e+03 2.1967731855831516e+01 -2.2978117067915264e+01 -4.9401345414866682e+01 7.6759368211496621e+01 7.0971942417677492e+03 2.3793151428257261e+01 6.2341133338595682e+01 3.9969460410502506e+02 1.0068088009954663e+03 1.3475450829679176e+02 2.2688052960476307e+02 -6.0833601902966620e+01 5.3555349178262986e+02 -2.1329347599346656e+03 2.7966641342754883e+00 3.3635640441677374e+01 -1.8998284586204682e+02 2.3993148768157698e+03 -5.6059040429914603e+01 7.9515583920458084e+01 5.2423536010555885e+01 1.5490003019764958e+02 3.7082682374707321e+04 7.5339689367032747e-01 -7.9671295257998072e+00 8.5122468770583737e+00 5.0591492272622418e+02 -6.4915898431894973e+01 -1.9919213070322195e+02 -1.1311051571558329e+02 7.3435035373469532e+01 8.7472163076620374e+04 -4.1656792643590990e+00 9.0863796697027283e+01 3.1407242934533929e+02 7.8600865686863676e+02 -1.0656628080714947e+02 -8.8414193754691296e+04 
      </Row>
      <Row Index="40">
        -2.1476342864537123e-01 -7.8382553291993595e-01 -2.8157689295461337e+00 8.7871727249912510e+00 -2.0931724177179545e-01 1.3261044562330948e-01 2.4853398642163427e-01 1.4292018120200645e+01 6.2186818525826726e-01 -9.6487765818981330e-02 3.6152152507515078e-01 1.1719018877290135e+00 3.0733884080930665e+00 2.5647822950528670e-01 1.6435645295273060e-01 2.9330038480057343e+00 -2.1566308796433216e+00 -2.9793515687217387e-01 9.4205250876746388e-02 3.4990947934504490e-01 -2.7740039468615052e-01 3.6300599440232801e+00 -1.5356573926876638e+00 -2.1323263997811615e-01 -4.6228550828500437e-01 5.9787846534630056e+00 -5.6283543144869441e-01 -2.5444709234057644e-01 5.6568960876505159e-01 2.3439779369112728e+00 -1.0159038216433075e+01 3.0982733668177320e-01 3.0890968350814365e-02 -1.9173219755020829e+00 -1.6675581532462509e+01 -5.2558150233809986e-01 -2.1667773419621317e-01 -1.2199318537172094e-01 9.0061488966329706e-02 7.5339687887043283e-01 6.3424146337061382e-01 7.5061824545391814e-02 -3.1754321923776108e-01 2.1126703993783487e+00 2.9275030027881177e-01 3.2123255222139180e-01 2.1778614622288339e-01 5.4826823439990191e-01 3.7001053624035398e+00 2.0667343659813892e-01 -1.7240627652577833e-01 -4.7638755881857886e+00 3.9638464262568305e+00 5.1910777586743762e-01 -2.8052910837234499e+00 
      </Row>
      <Row Index="41">
        -1.2540178456290576e+00 -6.4444756184148844e-01 1.8194260736132613e+00 -9.6215352940134835e+00 1.9312942650991438e-01 -8.2339463345871167e-01 -1.1655403357042218e+00 -7.8924772722860581e-01 -3.0849349858201869e-02 -1.2349011370715814e+00 7.2249870361875712e-01 -9.5038381654566084e-01 -1.9830208882747229e+00 2.7950170506099159e-02 1.4092970352687679e+00 -6.7084889927703273e-01 1.0483748264445239e+01 -4.3840393647845577e-01 1.9593208052457980e+00 -1.0009758835834612e+00 -3.5990143433252086e+00 5.0156421559971704e+00 -3.0764145998154468e-01 -2.7550167717460194e+00 -3.2700054677254329e+00 -9.1268645790222962e+00 -5.1800705917310808e-01 -2.1974557106649355e+00 8.5881515909989758e-01 -5.2600502436451961e+00 5.0940372673444045e-01 -1.1874651701126027e-01 6.0750975891114600e-01 -4.4410036847992274e-01 -1.3239472272239539e-01 1.6075306162805347e-01 -2.0900959508218158e+00 1.0416105561336676e-01 -6.2442347859556913e-01 -7.9671295255176346e+00 7.5061824550454431e-02 9.5864395800375313e-01 3.8186116038281730e+00 -5.0410766053908844e+00 3.4774764096727373e-01 3.3258045054079877e+00 8.0466620061305316e-01 -5.6950460442558049e+00 1.3428368414774056e+01 2.9635889350980854e-01 -2.6537856041658152e+00 1.1602106443390721e+00 -3.1914466065640452e+00 8.5142399719908402e-01 -1.5983523569831940e+01 
      </Row>
      <Row Index="42">
        2.4659325123468534e+00 8.3790011824366957e+00 -4.0384517633518499e+01 -1.0918986497853621e+02 4.4181680842677906e+00 -5.5963668115145992e-01 8.3598474577258230e+01 -3.2091602381790653e+02 -2.4451085068185705e+00 -7.2585249863650461e+00 -1.0093539930700691e+01 -1.2958420016045920e+01 -5.2367659487834317e+01 -1.0275526165461798e+01 5.0979764880028711e+00 -3.5683366442229953e+02 4.4473777710115064e+02 -7.2873947578601133e+00 3.7234004154083618e+00 -1.1638464345983756e+01 -8.2967859540744939e+01 6.2807233772500695e+01 3.8039076225859105e+00 -1.0204013990041176e+01 7.5494740514276828e+01 -3.5329871289330913e+02 -1.5096336961700729e+01 -2.9906725805438015e+00 2.4768433824303884e+00 -4.4628997261173936e+01 9.8679425281536851e+01 -1.9319293309608696e+00 -2.3376628762783835e+00 -1.1904332732074181e+01 3.4963106224628746e+02 7.1177727428173512e+00 -2.5085697897135049e+00 4.1558702409261485e+00 1.1396794141368026e+01 8.5122439342649159e+00 -3.1754321934655660e-01 3.8186116035787236e+00 3.0857370529134829e+02 -5.5299239353780649e+01 7.9026176140432272e+00 6.8274716098102886e+00 -2.0803975444755736e+00 -1.6610497312053872e+02 1.5532049039110007e+02 -5.7496583021334580e-01 -9.1142067374033786e+00 6.8341856384763400e+02 -2.4436708632868172e+02 1.6421289271541884e+01 -7.1917947246118092e+02 
      </Row>
      <Row Index="43">
        1.7927439173662606e+01 5.4877435338735268e+01 -5.2677217446204395e+01 7.9218765634423471e+02 -1.0580138926519339e+01 2.0993328935479440e+01 -4.1228337483371433e+01 1.0813940888751413e+03 -8.0275192435914846e+00 7.2338251756518730e+00 -3.0587187702878175e+01 3.6983806811440388e+02 -3.5934514138742452e+02 1.2329857792809094e+01 -7.5183631190861888e+00 3.4127154826104743e+01 -2.1697996662053902e+02 2.5651705002169365e+01 -3.5598701051082870e+01 3.0004032979695481e+00 -8.4399712361624825e+02 -1.7715041129952442e+02 -4.5852658177650483e+00 1.3996650161556204e+01 -2.1369575183193319e+01 -6.1704811716605036e+02 3.9735962889732434e+01 2.3002872781872213e+01 -7.2781295938837502e+01 6.4004237971839757e+00 -4.4431946716141874e+02 3.8105386855968106e+00 -3.0179974653832886e+00 -2.0814869418314993e+02 -9.1867045281675473e+02 -3.2191515911763418e+00 2.8149360553212375e+01 1.5633557106988064e+01 2.5195707798486674e+02 5.0591493106392227e+02 2.1126703997904119e+00 -5.0410766039641715e+00 -5.5299239361651196e+01 1.7086042920171603e+03 -2.5165509648657544e+01 -4.3365250826441127e+01 -6.0374768511100456e+01 -5.6102118191853705e+01 -3.5293954442736839e+02 -1.7732186837259835e+01 3.5439653472680448e+01 -4.2070737908852135e+02 -7.0750318981789985e+02 -4.4726714570011907e+01 1.4231990598683924e+03 
      </Row>
      <Row Index="44">
        -7.7773197272455263e-01 -3.8799596067073594e+00 -5.6740253688487741e+00 -5.3325155437883041e+01 7.2404492789013375e-01 -1.4783128781289179e-01 -9.7964691120582472e+00 -1.0185605120255730e+01 -3.6773351068689353e-01 -7.5222643849312476e-01 2.5613065449502175e+00 5.5113090008317993e+00 1.5568123388500908e+01 3.0477256667774455e-02 5.9870405515667358e-02 2.5728618176400289e+01 -3.5306271842406431e+00 -4.7554174388788510e+00 5.3515586125907744e-01 -8.4580157491582320e-01 1.0167327994590437e+01 2.7004912668709039e+01 -1.3640419540195765e+00 -8.2075945574585418e-01 -3.2081093107344145e+01 -5.2001320802706744e+01 -1.1011831086810997e+01 -1.1475519861601118e+00 6.5679373900871667e+00 -1.3754410900388393e+01 2.8417585481553459e+01 -5.5018039408165187e-01 5.0812169536518037e-01 -3.7429387361575550e+00 -4.3021069268240637e+01 2.8142181332689660e+00 -7.5029785965449491e-01 -1.4623735579432360e+00 -4.4453026197318266e+00 -6.4915898041701212e+01 2.9275030029918164e-01 3.4774764102295608e-01 7.9026176141864699e+00 -2.5165509649820137e+01 6.0515145227696951e+00 1.3800093606176169e+00 6.7423906612977689e+00 -5.3297703710678741e+00 -1.0373530494582756e+01 1.8024334626012619e+00 -6.0393477945478935e-01 -3.6518896645977293e+01 -2.8192194762744151e+01 8.1508138166975712e+00 6.5833603406692177e+01 
      </Row>
      <Row Index="45">
        -9.1027909044390185e+00 -4.1682267895624818e+00 1.2749918297376439e+01 -3.5923213407061667e+01 1.8280150586736852e+00 -4.1241546494037493e+00 9.0564745128196478e+00 -7.2362742295781004e+00 6.9116685021825042e-01 -7.2124423671854174e+00 2.7256372388459909e+00 -1.2522559157351044e+01 -4.8990268380495309e+01 -4.0571179877475316e-01 5.0308862288376872e+00 -3.1941494706007688e+01 2.1401095072910493e+01 -2.2226989321267467e+00 1.0352658381738049e+01 -1.0335696275107207e+00 -4.9229542612065416e+00 4.9548106899655977e+00 -1.6582140715399731e+00 -9.9623626259435483e+00 8.4026606382105626e+00 -1.8340992492624537e+01 -1.9526197732260542e+00 -1.3708237157035740e+01 5.0842057893930246e+00 -1.2549028830064572e+01 -1.1751655636272631e+01 -1.2887134252759225e+00 2.2670605485847943e+00 8.8701687161315590e+00 -3.1674817449024886e+00 2.3239414935090963e-02 -1.1200608210416467e+01 -8.3597615276118731e-01 -6.0795606339806696e+00 -1.9919213108379290e+02 3.2123255217617830e-01 3.3258045053542897e+00 6.8274716015267831e+00 -4.3365250804846255e+01 1.3800093616154154e+00 1.8275903597313405e+01 4.7710684156137440e+00 -1.8767239264142187e+01 -2.0441349477099271e+02 2.3430292897121179e+00 -1.2346650455127673e+01 4.7234704522000555e+01 3.8220389859062265e+00 3.6517849061990884e+00 1.4776400750843663e+02 
      </Row>
      <Row Index="46">
        -4.5713315451792766e+00 -1.6259766399592309e+01 2.3582869108226646e+01 -1.8599405314904425e+02 1.5315227587947575e+00 3.7502183759377772e-01 -3.5768170304801373e+01 1.7959010190613981e+01 -1.7248009697989017e+00 -1.0245737424504568e+00 1.6616304719674194e+01 -2.5746532872312390e+01 3.5730389338018540e+01 2.9067570288118922e+00 1.0689447084785400e+00 6.3018012433351828e+01 -5.9918596256051615e+01 -4.4982823025178504e+00 2.7125431706100311e+00 -1.0741211170404750e+01 2.0228791419936556e+01 1.8812414354417115e+01 -3.9624848510639694e+00 -2.0097893851361377e+00 -3.6101274436364321e+01 -3.4532480517071008e+01 -1.3222274103735925e+01 -3.7275821426022588e+00 2.2214559245108376e+01 -4.5705753974097775e+01 4.0111510701466642e+01 -8.0998029644795366e-01 3.4750403305984352e+00 2.6215370880324315e+01 -1.0134065622529090e+02 4.7499801846769003e+00 -3.4583971868157715e+00 -3.0417077301674151e+00 -2.5717471265088292e+01 -1.1311051533091199e+02 2.1778614627547843e-01 8.0466620064483152e-01 -2.0803975394048564e+00 -6.0374768528021491e+01 6.7423906605650377e+00 4.7710684152372416e+00 2.3332405274837445e+01 4.3976487126919506e-01 1.5605487600649269e+02 4.3903941449511459e+00 -2.0283150853811094e-01 -6.3316824327669572e+01 -1.5633724408571747e+00 1.2967163695577746e+01 -9.2849689499156327e+01 
      </Row>
      <Row Index="47">
        1.0726128359717450e+01 -3.6446964716951697e+00 -3.6110725504018262e+01 6.3028790529884645e+01 -7.8504352526705219e+00 -3.6698633644087977e+00 -8.2758737420575073e+01 3.6141589034108699e+02 -4.1583108685606565e+00 8.7569925447580772e+00 2.3566831997050819e+01 6.0025611994036225e+01 3.0641706232873457e+02 1.2448984710616983e+01 -1.1836758693938037e+01 3.0266364189338753e+02 -7.9160438214833312e+02 5.7569299415031665e+00 -1.1888852344826706e+00 8.9896850902631176e+00 3.2627624001762092e+02 -7.5401439743259289e+01 -5.4234067895017688e+00 1.8013527086852378e+01 2.9192209377001859e+01 6.9872524031845910e+02 1.8331189245425705e+01 2.0958521575179113e+01 -1.2340378695912932e+01 1.1252275541073186e+02 5.6831881759573548e+01 6.6603438431637514e+00 -8.3353658744080654e+00 9.4747851981508688e+01 -6.7346619763946273e+02 -7.2954165042474415e+00 1.1223075754390681e+01 -4.5166946384964533e+00 -3.4888409159186409e+01 7.3435034616150460e+01 5.4826823426629634e-01 -5.6950460445419679e+00 -1.6610497311714238e+02 -5.6102118186530333e+01 -5.3297703711466475e+00 -1.8767239262862830e+01 4.3976486883659049e-01 3.4023486044356264e+02 -8.7841287230190687e+01 -7.2578926800490926e+00 8.1041356317763871e+00 -3.4896217573194735e+02 4.6958045739543616e+02 -1.9316633705999809e+01 2.2880154116944581e+02 
      </Row>
      <Row Index="48">
        1.0653982991701923e+02 -4.1877349326014519e+02 -1.0583225156659610e+03 -3.5365165467714891e+04 6.6557747273938730e+01 2.0887493753549643e+02 -5.4892768541193800e+02 -5.2294153493689373e+02 8.0115473936026319e+01 1.6401023395091761e+02 3.8167363969036614e+02 -5.7936922483113813e+02 9.0733026901427656e+03 1.4802623720286647e+01 1.4164038524660282e+02 -1.3161602344689891e+02 2.0144775733381975e+03 -5.1219428896452882e+01 -3.6690379170075175e+01 -1.2782938279906011e+02 1.3133400837015361e+03 2.5843780612393282e+04 -8.7419586461910512e+00 1.1855880803441687e+02 5.9071133775333874e+02 1.9176502222993877e+03 8.5603653844969813e+01 2.3660555081480561e+02 2.0436673711158801e+02 8.4385932745086029e+02 -5.7612206654818729e+03 -1.2040307877668965e+02 3.0505867799888375e+02 3.7442294306447729e+02 5.3268669180574361e+03 -1.1384053614852019e+02 4.7001566532911966e+01 3.8378460226216703e+01 -2.0821914523710439e+02 8.7472163082297426e+04 3.7001054046550053e+00 1.3428368415052319e+01 1.5532049864612054e+02 -3.5293956789094955e+02 -1.0373531590787024e+01 -2.0441349371522210e+02 1.5605487494022054e+02 -8.7841285086178686e+01 2.4617229364082296e+05 1.7724057082757810e+02 3.2321490206877934e+02 1.1868421662525041e+03 1.7866369067293801e+03 -2.9242160593570588e+01 -2.4834931879303433e+05 
      </Row>
      <Row Index="49">
        -2.0602800930222998e+00 -1.9894479493472090e+00 2.4699918667895417e+00 -7.8411768186533664e+01 7.3498160602250238e+00 -8.6698314506980978e-01 1.4520995130478639e+01 3.8760731213297959e+00 2.7667598125391386e+00 -1.1922534453028675e+00 9.6356437033376086e-01 -4.8489073072196831e+00 -2.0477585259445277e+01 1.2727066103678339e+00 -4.3511336902673747e-01 -2.4581114965043980e+01 -4.3273379873655813e+00 -5.3010650808929682e-01 4.3701567073125780e-01 3.7994528345080152e+00 -1.3104659444707067e-01 4.3533325110785881e+01 -2.6606234822488446e+00 -5.9443286569769782e-01 6.4679611246413060e+00 -3.4104348112729895e+01 -3.7547149034523954e+00 -1.4213127220983850e+00 4.5867821155651427e+00 -1.1072667640261670e+01 1.5999104479904872e+01 -7.2310110966366459e+00 9.2755568255336973e-01 -4.5011143664282827e-02 -2.2708263463804542e+01 -2.7856841953166054e+00 -1.0876569949126491e+00 -3.2568337094787694e+00 -6.5090799518855533e+00 -4.1656793284378182e+00 2.0667343662705440e-01 2.9635889350621270e-01 -5.7496582468354518e-01 -1.7732186853137364e+01 1.8024334618502884e+00 2.3430292906318471e+00 4.3903941441395169e+00 -7.2578926785950557e+00 1.7724057063761472e+02 8.4844716646692095e+00 -1.1589394289737243e+00 2.8004214071170868e+01 -1.5517891980468770e+01 2.7617032634336747e+00 -1.9393780892159685e+02 
      </Row>
      <Row Index="50">
        2.8326824451312405e+00 -8.2090599701791689e-01 4.7570745615731767e+00 -7.2834782546982751e+01 -1.3694642218976298e+00 7.3883068047910001e+00 -2.0321206001378187e+01 1.3791248320697377e+01 -8.8973267222438324e-01 4.4502150967302896e+00 1.0632016399781925e+00 -3.3569123644321692e+00 2.3498869893038318e+01 6.5718204881132181e-01 -3.3550921140113132e+00 4.2698992839698576e+01 -2.5090853462026189e+01 1.1158168495964418e+00 -9.4175608180742802e+00 4.6073408674985217e-02 -2.9115619996694022e+00 9.7255981325024550e+00 7.9865671482667722e-01 8.1936081493712294e+00 -1.0516532230493567e+01 4.3903395244929015e+00 7.8502064808422745e-01 6.4049109665053408e+00 -1.7218323476010937e+00 4.6786296342502283e+00 -2.7711563412955456e+01 7.5621844529531757e-01 1.7903302152478580e+00 2.1000736162188787e+00 6.2479329951734144e+00 6.0773184505450217e-01 7.3102772657445243e+00 8.0318158762045755e-01 -6.3450389271650920e-02 9.0863797223246820e+01 -1.7240627644691298e-01 -2.6537856040890002e+00 -9.1142067256579935e+00 3.5439653439480480e+01 -6.0393478094897546e-01 -1.2346650455003100e+01 -2.0283150907685243e-01 8.1041356344059636e+00 3.2321490352591638e+02 -1.1589394277111573e+00 1.3753953860417994e+01 -5.2446978400866954e+01 -1.2132048948852628e+01 -1.5718765377675519e+00 -2.5286485994448307e+02 
      </Row>
      <Row Index="51">
        -9.3851126495064818e+00 9.3170731722384517e+01 1.6136899419135625e+02 -2.9264237110642716e+02 6.6081187676107675e+01 -4.2440516890754225e+01 1.3096755657496269e+03 -7.8845008722161219e+02 6.1500943684947060e+00 -2.5034650744946703e+01 -1.8020567388968144e+02 -4.5061397477049957e+02 -1.9908881908421754e+03 -6.9140866910981913e+01 -2.3722152281889976e+01 -3.6094318404189653e+03 1.3610282319668950e+03 2.9643256675024077e+01 1.9067396752887618e+01 4.7581452407357176e+01 5.3316720961200190e+01 -6.1586107466933026e+02 1.1295989037999789e+01 1.7625556569782930e+00 2.0531013317469769e+03 7.3140139428649854e+02 7.1659735150206870e+01 -1.1972642721053035e+01 -7.8887769397988450e-01 4.6463225596690609e+02 -2.5645585920889789e+02 -4.2200747944909722e+01 -2.1459873787671434e+01 3.1423730312308908e+02 2.9777193639316465e+03 -1.9229864204939076e+01 -8.4968704592703261e+00 5.7112375136218816e+00 1.9106146108076700e+01 3.1407238820218481e+02 -4.7638755902607386e+00 1.1602106390654967e+00 6.8341856383032973e+02 -4.2070737891574390e+02 -3.6518896644677397e+01 4.7234704627948304e+01 -6.3316824401217062e+01 -3.4896217575701758e+02 1.1868420507363453e+03 2.8004213992362907e+01 -5.2446978557612965e+01 5.6479166450813864e+03 5.3968576790777922e+02 -2.7568580218450847e+01 -7.1445983413101849e+03 
      </Row>
      <Row Index="52">
        9.7400123473507847e+00 -7.4932866063754773e+00 9.5564708714650806e+01 -2.5083255877930787e+02 -1.3989472480493760e+01 -1.8770376777056299e+01 8.6035300233927956e+01 5.1521804066366167e+02 -7.4234456755946781e+00 3.8879402806305734e+00 2.3527148800551174e+01 -1.0749284951349847e+02 3.4545281811618770e+02 1.0251642699075774e+01 -3.9473213690234843e-01 -2.1867637906172422e+02 -7.5013258820801275e+02 1.8435604797256588e+01 2.2131239021898963e+01 -2.5891449419233197e+01 7.2515137153491742e+02 -2.9183251535462477e+02 -1.4160562642471859e+01 8.9627645568175467e+00 5.3567885527173166e+02 2.6116625013320117e+03 6.4671597804670228e+01 6.7067125992149386e+00 -6.0714990173382830e+00 2.5896231798121153e+02 -9.4506450962599047e+01 1.6232179764946579e+01 -4.0566486611273715e+00 3.0077420182105379e+02 -8.0454895868318999e+01 -8.3941478908509453e+00 -3.7931735776405731e+00 1.5163563242103351e+01 -7.6979100080100579e+01 7.8600863983912132e+02 3.9638464255346193e+00 -3.1914466095502121e+00 -2.4436708627893677e+02 -7.0750318991162203e+02 -2.8192194769699256e+01 3.8220390340302401e+00 -1.5633724809549676e+00 4.6958045741568731e+02 1.7866368587246709e+03 -1.5517892012369941e+01 -1.2132049022590763e+01 5.3968576872919539e+02 1.8176108569792743e+03 -3.9729778247442553e+01 -3.6374548144007931e+03 
      </Row>
      <Row Index="53">
        -2.2758482528982711e+00 -7.8234269403372423e+00 9.4017143877647413e-01 -8.8737159033342778e+01 1.1038287531747244e+00 -1.7159268284453333e-01 -1.3432243266837816e+01 -3.4262311216465378e+01 -8.9063259584639543e-01 -1.6574663881097536e+00 5.4982496847317357e+00 -3.9764487497478935e+00 1.5964155470730248e+01 -2.4060882398059213e-01 9.8101550570083873e-01 2.2771852201085323e+01 2.4129310774382304e+01 -6.7407700973211107e+00 1.5246057532344759e+00 -6.5539135462843561e+00 9.5908319992763040e+00 2.4304704626916191e+01 -2.1468663608069392e+00 -2.4398535481586379e+00 -4.1104301396310845e+01 -7.2651290608583508e+01 -1.5687412998333166e+01 -3.5353405830931042e+00 1.3134925291144071e+01 -2.7879298545376514e+01 4.1007599293820249e+01 -6.9840943130706989e-01 1.6327187614652039e+00 1.9420089890974168e-01 -2.1260737333941961e+01 5.3585097241213475e+00 -2.3678946889660466e+00 -7.3503869350507145e-01 -9.7539785846448481e+00 -1.0656628045863204e+02 5.1910777588621448e-01 8.5142399724795625e-01 1.6421289270566646e+01 -4.4726714568774128e+01 8.1508138168124020e+00 3.6517849051871138e+00 1.2967163696377931e+01 -1.9316633705871880e+01 -2.9242159613588875e+01 2.7617032640723593e+00 -1.5718765362781113e+00 -2.7568580232716357e+01 -3.9729778245541624e+01 1.3873767104540482e+01 7.6709270022920791e+01 
      </Row>
      <Row Index="54">
        -1.0552323448692914e+02 3.3422282959031872e+02 8.1064221479237312e+02 3.5708018533110619e+04 -1.2065089617125341e+02 -1.5102543229248840e+02 -7.9346262577944435e+02 1.1259026951203123e+03 -8.2838091318180886e+01 -1.4022980615426786e+02 -2.2057596525424015e+02 1.1334090080294955e+03 -7.4066498343273997e+03 4.7873182334602461e+01 -1.2960647695465013e+02 3.8606338544557802e+03 -3.2308072147415951e+03 1.0871040404439555e+01 -3.5689644210115148e+00 1.2041066952131587e+02 -1.8218468600083143e+03 -2.5002303934135474e+04 6.9227402849646751e+00 -1.1335256709421810e+02 -2.9324486879378674e+03 -4.5045843186229467e+03 -1.9667301498513552e+02 -2.2282614473643480e+02 -2.0536860734270886e+02 -1.4181921737501398e+03 6.0445870105810463e+03 1.4910291243651591e+02 -2.8295533475304967e+02 -8.5982217135082465e+02 -8.5395261631850153e+03 1.3407989622390596e+02 -2.9572493526597100e+01 -6.3067849053950340e+01 2.3551293554452423e+02 -8.8414193706912454e+04 -2.8052911233639861e+00 -1.5983523562652408e+01 -7.1917948072310537e+02 1.4231990832039155e+03 6.5833604505336552e+01 1.4776400631322758e+02 -9.2849688331807783e+01 2.2880153903504834e+02 -2.4834931864282183e+05 -1.9393780900939237e+02 -2.5286485827894649e+02 -7.1445984572810994e+03 -3.6374548615371023e+03 7.6709270988902063e+01 2.5787712637092907e+05 
      </Row>
    </InverseHessian>
  </Weights>
</MethodSetup>
