<?xml version="1.0"?>
<MethodSetup Method="MLP::MLPBNN">
  <GeneralInfo>
    <Info name="TMVA Release" value="4.2.1 [262657]"/>
    <Info name="ROOT Release" value="6.32/10 [401418]"/>
    <Info name="Creator" value="lorena"/>
    <Info name="Date" value="Mon May 19 20:54:39 2025"/>
    <Info name="Host" value="Linux wl-atoui 5.15.167.4-microsoft-standard-WSL2 #1 SMP Tue Nov 5 00:21:55 UTC 2024 x86_64 x86_64 x86_64 GNU/Linux"/>
    <Info name="Dir" value="/home/lorena/Documents/Thesis/JLAB_EIC/DVCS/TMVA_studies"/>
    <Info name="Training events" value="2000"/>
    <Info name="TrainingTime" value="2.13583898e+02"/>
    <Info name="AnalysisType" value="Classification"/>
  </GeneralInfo>
  <Options>
    <Option name="NCycles" modified="Yes">60</Option>
    <Option name="HiddenLayers" modified="Yes">N+5</Option>
    <Option name="NeuronType" modified="Yes">tanh</Option>
    <Option name="RandomSeed" modified="No">1</Option>
    <Option name="EstimatorType" modified="No">CE</Option>
    <Option name="NeuronInputType" modified="No">sum</Option>
    <Option name="V" modified="Yes">False</Option>
    <Option name="VerbosityLevel" modified="No">Default</Option>
    <Option name="VarTransform" modified="Yes">N</Option>
    <Option name="H" modified="Yes">True</Option>
    <Option name="CreateMVAPdfs" modified="No">False</Option>
    <Option name="IgnoreNegWeightsInTraining" modified="No">False</Option>
    <Option name="TrainingMethod" modified="Yes">BFGS</Option>
    <Option name="LearningRate" modified="No">2.000000e-02</Option>
    <Option name="DecayRate" modified="No">1.000000e-02</Option>
    <Option name="TestRate" modified="Yes">5</Option>
    <Option name="EpochMonitoring" modified="No">False</Option>
    <Option name="Sampling" modified="No">1.000000e+00</Option>
    <Option name="SamplingEpoch" modified="No">1.000000e+00</Option>
    <Option name="SamplingImportance" modified="No">1.000000e+00</Option>
    <Option name="SamplingTraining" modified="No">True</Option>
    <Option name="SamplingTesting" modified="No">False</Option>
    <Option name="ResetStep" modified="No">50</Option>
    <Option name="Tau" modified="No">3.000000e+00</Option>
    <Option name="BPMode" modified="No">sequential</Option>
    <Option name="BatchSize" modified="No">-1</Option>
    <Option name="ConvergenceImprove" modified="No">1.000000e-30</Option>
    <Option name="ConvergenceTests" modified="No">-1</Option>
    <Option name="UseRegulator" modified="Yes">True</Option>
    <Option name="UpdateLimit" modified="No">10000</Option>
    <Option name="CalculateErrors" modified="No">False</Option>
    <Option name="WeightRange" modified="No">1.000000e+00</Option>
  </Options>
  <Variables NVar="7">
    <Variable VarIndex="0" Expression="_mm2_eNg" Label="_mm2_eNg" Title="mm2_eNg missing Neutron" Unit="GeV" Internal="_mm2_eNg" Type="D" Min="-8.32648933e-01" Max="3.77702999e+00"/>
    <Variable VarIndex="1" Expression="_mm2_eNX_N" Label="_mm2_eNX_N" Title="mm2_eNX_N missing photon" Unit="GeV" Internal="_mm2_eNX_N" Type="D" Min="-1.27379923e+01" Max="6.32826185e+00"/>
    <Variable VarIndex="2" Expression="_mm2_eg" Label="_mm2_eg" Title="mm2_eg missing proton" Unit="GeV" Internal="_mm2_eg" Type="D" Min="-4.71607357e-01" Max="3.62626934e+00"/>
    <Variable VarIndex="3" Expression="_delta_t" Label="_delta_t" Title="Delta t" Unit="GeV" Internal="_delta_t" Type="D" Min="-1.90244830e+00" Max="1.05165792e+00"/>
    <Variable VarIndex="4" Expression="_delta_Phi" Label="_delta_Phi" Title="Delta Phi" Unit="°" Internal="_delta_Phi" Type="D" Min="-4.93853951e+00" Max="4.68485737e+00"/>
    <Variable VarIndex="5" Expression="_Pmiss_mag" Label="_Pmiss_mag" Title="Magnitude of Missing Momentum" Unit="GeV" Internal="_Pmiss_mag" Type="D" Min="1.90456472e-02" Max="1.19304931e+00"/>
    <Variable VarIndex="6" Expression="_Pmiss_perp" Label="_Pmiss_perp" Title="Transverse Missing Momentum" Unit="GeV" Internal="_Pmiss_perp" Type="D" Min="5.99980762e-04" Max="8.01529527e-01"/>
  </Variables>
  <Spectators NSpec="0"/>
  <Classes NClass="2">
    <Class Name="Signal" Index="0"/>
    <Class Name="Background" Index="1"/>
  </Classes>
  <Transformations NTransformations="1">
    <Transform Name="Normalize">
      <Selection>
        <Input NInputs="7">
          <Input Type="Variable" Label="_mm2_eNg" Expression="_mm2_eNg"/>
          <Input Type="Variable" Label="_mm2_eNX_N" Expression="_mm2_eNX_N"/>
          <Input Type="Variable" Label="_mm2_eg" Expression="_mm2_eg"/>
          <Input Type="Variable" Label="_delta_t" Expression="_delta_t"/>
          <Input Type="Variable" Label="_delta_Phi" Expression="_delta_Phi"/>
          <Input Type="Variable" Label="_Pmiss_mag" Expression="_Pmiss_mag"/>
          <Input Type="Variable" Label="_Pmiss_perp" Expression="_Pmiss_perp"/>
        </Input>
        <Output NOutputs="7">
          <Output Type="Variable" Label="_mm2_eNg" Expression="_mm2_eNg"/>
          <Output Type="Variable" Label="_mm2_eNX_N" Expression="_mm2_eNX_N"/>
          <Output Type="Variable" Label="_mm2_eg" Expression="_mm2_eg"/>
          <Output Type="Variable" Label="_delta_t" Expression="_delta_t"/>
          <Output Type="Variable" Label="_delta_Phi" Expression="_delta_Phi"/>
          <Output Type="Variable" Label="_Pmiss_mag" Expression="_Pmiss_mag"/>
          <Output Type="Variable" Label="_Pmiss_perp" Expression="_Pmiss_perp"/>
        </Output>
      </Selection>
      <Class ClassIndex="0">
        <Ranges>
          <Range Index="0" Min="-8.3264893293380737e-01" Max="2.9261479377746582e+00"/>
          <Range Index="1" Min="-1.2737992286682129e+01" Max="6.3282618522644043e+00"/>
          <Range Index="2" Min="-4.7160735726356506e-01" Max="2.6638839244842529e+00"/>
          <Range Index="3" Min="-1.5581326484680176e+00" Max="1.0516579151153564e+00"/>
          <Range Index="4" Min="-1.9796046018600464e+00" Max="1.9995166063308716e+00"/>
          <Range Index="5" Min="1.9045647233724594e-02" Max="1.1930493116378784e+00"/>
          <Range Index="6" Min="5.9998076176270843e-04" Max="8.0152952671051025e-01"/>
        </Ranges>
      </Class>
      <Class ClassIndex="1">
        <Ranges>
          <Range Index="0" Min="-2.0690326392650604e-01" Max="3.7770299911499023e+00"/>
          <Range Index="1" Min="-2.8161673545837402e+00" Max="4.6927251815795898e+00"/>
          <Range Index="2" Min="3.7680473178625107e-02" Max="3.6262693405151367e+00"/>
          <Range Index="3" Min="-1.9024482965469360e+00" Max="1.0289539098739624e+00"/>
          <Range Index="4" Min="-4.9385395050048828e+00" Max="4.6848573684692383e+00"/>
          <Range Index="5" Min="2.0678518339991570e-02" Max="9.9907064437866211e-01"/>
          <Range Index="6" Min="3.1148116104304790e-03" Max="6.2772148847579956e-01"/>
        </Ranges>
      </Class>
      <Class ClassIndex="2">
        <Ranges>
          <Range Index="0" Min="-8.3264893293380737e-01" Max="3.7770299911499023e+00"/>
          <Range Index="1" Min="-1.2737992286682129e+01" Max="6.3282618522644043e+00"/>
          <Range Index="2" Min="-4.7160735726356506e-01" Max="3.6262693405151367e+00"/>
          <Range Index="3" Min="-1.9024482965469360e+00" Max="1.0516579151153564e+00"/>
          <Range Index="4" Min="-4.9385395050048828e+00" Max="4.6848573684692383e+00"/>
          <Range Index="5" Min="1.9045647233724594e-02" Max="1.1930493116378784e+00"/>
          <Range Index="6" Min="5.9998076176270843e-04" Max="8.0152952671051025e-01"/>
        </Ranges>
      </Class>
    </Transform>
  </Transformations>
  <MVAPdfs/>
  <Weights>
    <Layout NLayers="3">
      <Layer Index="0" NNeurons="8">
        <Neuron NSynapses="12">
          2.8872493041051728e-01 5.2650696961794035e+00 3.1912218805768919e+00 -2.7066055368106806e-01 -1.8802692503612103e-01 1.2210707673800307e-01 -5.6725424026733036e+00 1.0645368498706553e+00 -1.7018775755832502e-01 -1.2658130102859662e+00 -6.3832730267431359e-01 -3.3681690494362471e-01 
        </Neuron>
        <Neuron NSynapses="12">
          -1.6400445142521585e+00 -6.0162304182536381e+00 -4.2367241060346323e+00 3.1325362571168532e-02 -7.7867704056469222e-01 2.5690891354844361e+00 7.0120370378752561e-01 2.3391425056878381e+00 -3.4414922887965049e-01 -1.2860554247229177e+00 2.8212977735751626e-01 8.5111763186763112e-02 
        </Neuron>
        <Neuron NSynapses="12">
          -5.7686643277091920e-01 5.1759578686567558e+00 4.3884923552210200e+00 -2.1392830145055601e+00 -3.8252428803076699e-01 1.0882646402096352e+00 -3.8319736115839881e-01 6.2638223960930572e-01 8.7598433961166522e-01 -5.3403772214541978e-01 1.0927652440620628e+00 -1.4926828421265453e-01 
        </Neuron>
        <Neuron NSynapses="12">
          -1.6561744203370277e+00 4.9829029335422277e+00 3.8658489907670890e-01 2.0473895789810215e-01 1.1272128158492232e+00 2.1067020327315733e+00 -1.7361678240601246e+00 1.7565891879585598e+00 -4.5967459046048315e-01 -1.5089443051058613e+00 6.0410393288991560e-01 1.2136327292641798e-01 
        </Neuron>
        <Neuron NSynapses="12">
          1.3060941711022229e+00 -7.2443183464352323e-01 2.2085435532517135e+00 3.8914944101995124e+00 -2.3520145769091556e+00 2.1232234592005955e-01 1.5283861421001352e-01 -6.2237578204492883e-01 -2.8610173349087873e+00 -8.8321834115025866e-01 1.0385287375166568e+00 4.2429572561431023e-01 
        </Neuron>
        <Neuron NSynapses="12">
          -9.0153342168530259e-01 -5.4513926156773627e+00 -4.9617464390864221e+00 3.7726723220372649e-01 3.1217320345243778e+00 -5.5714036677334844e-01 1.2356191693252233e-01 -2.8431476074922322e+00 9.2568000187023303e-01 -1.2358899339770166e-01 1.8496445791069002e-01 -1.7009112169667149e+00 
        </Neuron>
        <Neuron NSynapses="12">
          1.5925585869613819e+00 7.1906784350118391e-01 2.1819444312624285e+00 7.4485070418103105e-01 3.8437198420308533e-01 -2.5159625489391049e+00 2.4891771183386271e+00 -1.9396936845518244e+00 2.6472610667142797e+00 1.5288313316322861e+00 2.0324832814056508e+00 -7.8981474574792820e-01 
        </Neuron>
        <Neuron NSynapses="12">
          -2.2075875225882955e+00 -3.5899013370693700e-01 -7.8837760576688709e-01 -1.7817078529693557e+00 -3.9863147110128896e+00 -5.9852595894542637e-01 6.3049450434497667e-01 2.4782233168972443e+00 1.0438622176034338e+00 -2.1733746342135785e+00 -2.5041727055689602e+00 1.6434733565707642e+00 
        </Neuron>
      </Layer>
      <Layer Index="1" NNeurons="13">
        <Neuron NSynapses="1">
          8.3707898170296402e-01 
        </Neuron>
        <Neuron NSynapses="1">
          -7.9827779045348279e+00 
        </Neuron>
        <Neuron NSynapses="1">
          -5.1085281039429962e+00 
        </Neuron>
        <Neuron NSynapses="1">
          -2.4687320542129871e+00 
        </Neuron>
        <Neuron NSynapses="1">
          1.2868581610159449e+00 
        </Neuron>
        <Neuron NSynapses="1">
          -1.2920186698399039e+00 
        </Neuron>
        <Neuron NSynapses="1">
          -2.9538348673099519e+00 
        </Neuron>
        <Neuron NSynapses="1">
          -2.8895575860780185e+00 
        </Neuron>
        <Neuron NSynapses="1">
          -8.5034454284559957e-01 
        </Neuron>
        <Neuron NSynapses="1">
          1.9227771287805917e+00 
        </Neuron>
        <Neuron NSynapses="1">
          1.2083255537792363e+00 
        </Neuron>
        <Neuron NSynapses="1">
          -1.3850667729126180e+00 
        </Neuron>
        <Neuron NSynapses="1">
          -6.1289375674102808e-01 
        </Neuron>
      </Layer>
      <Layer Index="2" NNeurons="1">
        <Neuron NSynapses="0"/>
      </Layer>
    </Layout>
    <InverseHessian NElements="11881" NRows="109" NCols="109">
      <Row Index="0">
        5.2724401309908647e+05 1.1899485328165730e+02 1.9622813190828283e+03 7.6198693289939229e+02 1.2798666861410289e+04 4.6917619087568983e+02 8.4743443246356514e+02 1.9420873852592194e+04 -8.9580014252899184e+02 1.0389250162301552e+04 -2.6238709363303838e+04 -3.0044748789899877e+03 2.9627981583359200e+04 -5.8529591156921711e+01 1.1685533392435361e+03 -2.5257545680346061e+02 -1.2782961038693898e+03 1.3197420720343453e+03 -5.9035885120578584e+01 3.8589028225226855e+01 -7.6671396011454920e+02 -6.8748955362987181e+02 4.7036087461491916e+03 3.8010463313700961e+03 -2.7447501236338390e+05 -4.3720547892769090e+01 -4.9809248415008860e+03 -3.7867154617153597e+02 -2.1967756586343221e+04 3.2014021973067406e+02 -5.6698564731990598e+02 -1.1620574347882404e+04 1.4180776993004154e+03 7.5600629799330682e+03 8.3275365764187864e+03 1.1454504038534662e+03 -1.8521886484988037e+05 -2.3034156476563496e+01 -2.9820745021669536e+03 -4.3365561022333145e+02 -1.4118020177127801e+04 8.7047249610057270e+02 -3.4368666009473282e+02 -3.3829819632202152e+03 4.4284276130341323e+02 5.5188471579343914e+03 1.6044406570725270e+04 8.3330474746797495e+02 2.6369210612567018e+04 -3.7061037351328892e+01 -4.0374841955947289e+02 -1.1858566182342182e+02 -2.5089322141546490e+03 -1.1952467238560048e+03 2.0841354375084782e+00 -1.4652546660854347e+04 -5.6480436318412228e+02 1.4888288995813800e+04 4.6427487512058742e+03 5.3328409673326280e+02 3.0607877215432163e+04 -3.3521359030133290e+01 1.9702371743236017e+03 -2.2993728916411424e+01 6.3492693520673365e+03 -1.1024476636161253e+03 -3.7249878796666195e+01 1.7238684879611344e+02 -2.4233757233009362e+02 -9.3812099722928197e+03 2.0820964956757125e+04 3.8294523878132895e+02 -2.4267947471869586e+04 2.1084131797546739e+00 -4.8309456998659329e+02 7.3256302640105901e+01 2.2456942975854117e+03 -9.3066621823935850e+02 -3.7979287336923100e+01 1.8049745469166842e+03 5.3597219669772903e+02 -2.0828393735823738e+03 9.1032004731703692e+03 2.3006722254391207e+01 1.0900995197822363e+05 1.0597335275180779e+01 2.6622136446331046e+02 3.2095183223188997e+02 5.5391708614727713e+03 -4.8350500160058272e+02 8.9177969998696582e+01 6.5399774255194243e+03 4.7661817549818386e+02 4.0050129948697418e+03 1.1095659539923221e+04 -7.1835455056238698e+02 6.1965665133954564e+04 3.5406368522302671e+01 -5.8978645908679182e+03 -1.6753815201736688e+02 -3.6943563302173716e+03 1.3130391196173769e+03 -9.6088629215209892e+01 4.3364804843495085e+02 2.6161306275768578e+02 4.6628863192016550e+04 -6.3479494794779646e+04 -5.9273086458431953e+02 3.4347234475311903e+04 
      </Row>
      <Row Index="1">
        1.1899485352474710e+02 1.7575544524601138e+01 -1.0733309330866224e+01 -8.5785269974278719e+00 -6.3921763331675756e+01 1.0316694741185259e+01 -2.9284428351279850e+00 -2.0562164154893117e+02 -5.6173097467804773e+01 -1.4653989779473659e+02 -2.4282964178629982e+01 -1.0356522747109415e+02 -1.6174859318156223e+02 -6.8042643386663002e+00 6.9148034636653777e-01 -2.0472753962403929e+00 2.8640006509204767e+01 1.0735917136109745e+01 -1.1103859445542961e+00 -1.5546273396799659e+01 -8.2757835593318259e+00 -1.1302864082300786e+01 3.9964753497391587e+00 2.1358572687807246e+01 -7.9600141152655169e+01 -8.1022612071011437e+00 7.4060575803729085e+00 9.6296923071297655e+00 7.6495213188972144e+01 -2.6527963263375405e+00 5.9305873318652234e+00 2.1525619881723969e+02 5.9325115361198371e+01 1.5323005964990347e+02 3.8064098393451488e+01 1.1537138913714514e+02 3.9735544803138360e+01 -3.9031392229302186e+00 7.3389534697153564e+00 6.2719907232913448e+00 1.2018102530050726e+01 -5.2704618657137026e+00 3.0004515375179670e+00 1.4840127573265511e+02 4.3960785732957014e+01 8.1187475424107816e+01 -1.3882887794126759e+00 9.3141784009859578e+01 -2.8105807943119167e+01 -6.2998377719415266e-01 -2.9587172581938517e+00 -2.7717960522302558e+00 4.2992473094617480e+01 -4.8084769959845897e+00 -3.7921127707230051e-01 -2.2548515036050286e+01 4.6583955098712106e+00 -3.2142496026416332e+00 -1.0340572927225786e+02 -2.0930398691070199e+01 1.2385184193909049e+02 -4.2338856981955546e+00 2.8355385919973255e+00 -6.0744424118943607e-01 -4.8244898004873967e+01 9.7607227925703832e-01 -3.4431222294075168e+00 -6.3633362252095296e+01 -1.0771537057750422e+01 -2.3126946068042770e+01 -5.4305026245367330e+01 -7.5922745640448994e+00 -1.4580903434919267e+02 1.0289106945331181e+00 -2.6041228291793370e+00 1.0483182726321172e-01 1.6308817538615457e+01 -7.0469328739566359e+00 1.2780558655142116e+00 -6.2986998301545896e+00 -5.7844393851472971e+00 -8.7439079893999434e+00 -8.9662147007753646e+01 -9.2490497952114659e-01 1.1318467198791654e+02 2.6470197582527972e+00 -1.1154180927441151e+00 3.1416888967259116e-01 5.9105604753570901e+01 -1.3447943975290089e-01 -2.8402341617125104e-01 -4.5058798457497176e+01 -1.1902008108923416e+01 1.3331247623888460e+00 2.3712432889398301e+01 -2.9171880499256979e+01 1.6055546596961136e+01 5.8439764948706276e+00 -5.4723832292005277e+00 -2.2109746714998377e+00 3.2791876558069184e+01 5.5351912232956941e+00 2.0954773106527718e+00 1.6217731809288246e+01 -1.2372574420295730e+00 -8.1634232731520001e+01 1.5726658558243210e+02 5.0739437480301408e-01 9.7215071939205757e+01 
      </Row>
      <Row Index="2">
        1.9622813241428885e+03 -1.0733309336163165e+01 1.5314369571761986e+03 -2.5322309538745415e+01 -5.9233524082996053e+02 -3.4903505998098751e+01 -1.2240790258697247e+02 1.1932921402490560e+03 6.4344629112922121e+01 1.2127900003061718e+03 1.4820784265058646e+03 1.8302810135460686e+02 -1.0399611872270275e+03 -1.0603531960072687e+01 -1.3239050716031952e+02 5.2175888071725707e+00 -4.8996526691522780e+02 2.4179569218769888e+01 -1.4070891658504863e+01 -1.2054742349052590e+02 4.0278130913822451e+01 1.6987041888263991e+02 8.4133660192602554e+02 8.5603195345597470e+01 -4.7900132450307910e+02 2.9364920606126219e+01 -1.4231951295296467e+03 4.6561972197313821e+01 8.8967945720807563e+01 5.2527050960458872e+01 1.1425831907752365e+02 -9.3978620707917435e+02 -9.1608477505015429e+01 -6.1414027110534630e+02 -2.4492738216023813e+03 4.2732788405632576e+00 5.9609993744871440e+02 1.8769317813200061e+01 -1.1146182080819071e+03 2.0948313226955801e+01 6.4518935132472586e+02 5.7976755530075778e+01 7.7743806462469365e+01 -5.1275020078050829e+02 -2.0600620044073167e+01 -4.1945694763832097e+02 -1.5017021451452431e+03 -2.5433495489713656e+02 8.1592178617600939e+02 1.8218757618729513e+00 2.7609666255332428e+01 -2.7566702759188868e+01 -8.0386723020807062e+02 8.0583468485511105e+00 -1.1233352086760698e+01 -5.3406611535937941e+02 7.6354829391517654e+01 -5.7150892841270206e+01 5.0505266193788827e+01 1.5484985512899991e+02 -1.1117498267462067e+03 -9.8460104576402294e+00 7.8756208867440876e+00 -1.2631513784797963e+01 6.5993501524596707e+02 -4.6421001455789643e+01 -1.9840228505560287e+01 4.1871603574732228e+02 1.9165977645232331e+01 -5.9739222639527156e+01 6.2376496804982980e+02 2.5929741860223947e+02 -5.8322496885137707e+02 -6.0824820209294828e-01 9.0989217132720853e+01 -1.0990824378001555e+01 -1.8853971528738504e+02 -5.6204271925710032e+01 7.7163616661698038e+00 1.7377473816340955e+02 -4.7689827060006856e+01 1.2013606309370468e+02 -4.0241851309108489e+02 1.8556749589602353e+02 2.6034478045218384e+02 -4.1430441059259984e+00 3.5443503896587993e+02 -4.3874990575837867e+00 -9.2168742075845762e+02 -4.1044536725489451e+01 -1.7689545349682909e+01 1.5950854052909321e+02 -2.1233654061161907e+01 4.6399443885936211e+02 -6.9734252452650594e+02 4.1275293878283549e+02 5.3267506985120121e+02 5.7421370500119462e+00 9.9299392182499048e+01 -2.4514241497648541e+01 -6.9518209028421484e+02 3.9885992991465855e+01 1.2205622114464369e+01 6.5406557067905766e+01 -2.8617173134178667e+01 1.9630963787068501e+02 1.2476316791969193e+03 -1.4829944230497515e+03 2.7057289230251658e+03 
      </Row>
      <Row Index="3">
        7.6198693224509088e+02 -8.5785269972971125e+00 -2.5322309558711062e+01 2.0246565761600328e+02 -1.0915526329790828e+02 -1.9080334483081390e+02 -5.2551596626839554e+01 1.5050077443532632e+02 5.3659618010382474e+01 1.5897629114133185e+03 3.6914081667916889e+02 3.8649815254418982e+00 8.1227202491117225e+02 5.6885151542009735e+00 -2.7362641638936149e+00 2.8343263160751522e+00 5.7798429459583410e+01 2.6474116202744312e+01 -6.0934591958117856e+00 2.9977578621987417e+00 -9.5247765544526430e-01 4.6710279630500202e+02 -1.3378883350402424e+02 -4.6555185392193245e+01 -1.5581784082086783e+03 7.0040028998061443e-01 4.1227546853832393e+01 -1.7587411697370030e+02 -4.0209074322267924e+00 1.3393210892502577e+02 5.4203409527438829e+01 -2.3842603630911935e+02 -6.1039091656899807e+01 -1.0954241670585766e+03 2.6406081957665606e+00 -9.7866546955529294e+00 -4.4911622701820562e+02 5.5025076788993088e-01 2.5359198842817708e+01 -1.3138726863315694e+02 -3.8441484408919820e+01 1.3423882372676439e+02 3.9929764654447482e+01 -1.9199448270233324e+02 -5.0941154694654003e+01 -5.6688436796045687e+02 6.4880749597100476e+01 -7.2510375106628917e+00 -2.6967101490266941e+02 3.3836548772284480e-02 -6.5425396784756629e-01 1.4611395841150241e+00 -8.9349757738875653e+00 1.5687031274899390e+01 1.2967439495664588e+00 2.5286397710268213e+02 1.4227045114432489e+01 1.5116360884962953e+02 3.4613147869443725e+02 -2.9418891420957820e+01 6.5130026687882446e+02 3.7846466972495034e+00 -1.2413947099567569e+01 9.5370091562260129e+00 2.6176714923240350e+01 -2.3418887110557566e+01 -3.6732497730174805e+00 2.0966482106102549e+02 3.9356164257633921e+00 1.5554727377133017e+02 -4.3077929033844987e+02 9.8346799095080257e+00 -3.5662544658711954e+02 -4.1142842930506685e-02 6.7873096448636705e-01 2.2161423768360318e+00 -2.4925273497219408e+01 1.4647733889961603e+00 -4.1840575728216969e+00 6.9380476524988808e+01 -1.2226147592586941e+01 -6.8957565588824821e+01 6.2741242712505993e+02 -3.4442187623417510e+01 1.1050616328715739e+02 -1.0932522932366231e+00 -8.2626273155989942e+00 3.8654497460839984e+01 2.7475309637667920e+01 -6.1938503566491974e+01 -1.1083909893316584e+01 -4.0666884747246286e+01 1.0652262851826022e+01 3.3109608256667042e+02 -3.7165371895139288e+01 -4.3963174268797829e+01 4.5233656296310208e+01 -3.3033536337313434e+00 2.1760246476154908e+01 -1.1012313127309437e+00 1.1882007629084914e+01 2.0516250139490609e+01 -4.9769951470007312e+00 -1.3733915916289584e+02 -2.9305703623045565e+00 5.2306096710629072e+02 -4.4236126321364515e+02 6.0580115767884884e+01 2.0777908539285087e+02 
      </Row>
      <Row Index="4">
        1.2798666876602780e+04 -6.3921763327522442e+01 -5.9233524040487180e+02 -1.0915526327915104e+02 1.2790421532481241e+05 -3.8045566472710402e+02 5.8013690508340937e+02 -9.0284440422095668e+03 -1.8886728760827391e+03 1.9096119201713711e+04 1.6716499153584606e+04 1.9175447496157994e+04 -3.5658300466418041e+03 1.4548219612438892e+01 3.2656061986322889e+01 -7.4395962670231697e+01 -5.8716806395518812e+04 1.9996039916786464e+02 9.6137111699540263e+00 1.7794188201733743e+03 4.3648936706934694e+02 5.6607196804960004e+03 3.7585552709685662e+03 -8.6462999638307556e+03 1.3602614658994700e+04 1.4381625019806842e+01 4.3141860541926627e+02 9.2733209374007174e+01 -1.1723594567161187e+05 4.0784849724980040e+02 -5.0310019236418532e+02 9.8849138983341109e+03 1.7730815500203519e+03 -1.1595052407827476e+04 -2.3324966474840428e+04 -1.7672437281182585e+04 9.1859433716526382e+03 -1.2557507653423642e+01 2.6159104355323240e+02 -2.0792681430912179e+00 -8.4051436242404365e+04 6.6454976065945772e+01 -3.4936972768094881e+02 7.8715528576764009e+03 1.4131135457189805e+03 -7.4226817013183709e+03 -1.4083789438616810e+04 -1.1994788607254986e+04 1.3618067473554984e+03 4.4937482574141212e+00 2.1568530818191729e+01 3.0251693872426493e+01 4.1327213857819652e+03 -6.5170169470972507e+02 2.1604107672752615e+01 6.8421926413541396e+03 -3.3208386470862325e+02 6.5954921789287528e+03 9.4772645769581231e+03 -3.2621892596450334e+03 7.1266014619231573e+03 1.5471701732857994e+01 6.0975547152876999e+01 3.5024867328236510e+01 -8.7874804936982255e+03 -4.6670028766308207e+01 2.4817051745399059e+00 -2.6148082431793800e+03 6.9950588171583973e+01 1.2461865442369626e+03 1.2796476693949371e+03 3.4900109496333835e+03 -8.5645875907031786e+03 8.8554662064389831e+00 -5.7424493910862111e+01 2.2079084851868593e+00 2.1297393953109731e+03 -3.4871874964026134e+01 3.6297018411410107e+01 -4.3747947497866071e+03 8.9686620490407847e+01 -2.4681007897617692e+03 7.8753089350267546e+03 2.5699365302727500e+02 1.5509793211460426e+04 7.0047316261724548e+00 -1.5259454635049406e+02 3.2674353994067786e+01 5.7136318271966447e+04 2.1716701997984211e+02 9.6226622116081984e+01 -2.1606490064282239e+03 -3.5397175248217928e+02 3.3869311876448032e+03 -1.1057010480505656e+04 9.3918933836379729e+03 -9.1272613386781049e+03 -2.6115642219964926e+01 -3.2864239618387455e+02 1.5453759211240481e+00 -4.9157432292427793e+03 -1.5882474691191356e+02 -4.8220524973965029e+00 2.2327829016541846e+03 2.2661639160345416e+02 9.0683161118475327e+03 1.0761431417308355e+04 -1.1819328409896567e+04 1.5338701210445557e+04 
      </Row>
      <Row Index="5">
        4.6917619817493346e+02 1.0316694723897205e+01 -3.4903506026590165e+01 -1.9080334480448872e+02 -3.8045566533172678e+02 4.1737327907895606e+03 -9.5942899579281658e+01 5.0074958187236198e+03 -1.5594297794243903e+02 5.9749751573667554e+03 1.1096645496262320e+03 -8.2181321882675525e+02 -7.4073090069365489e+03 -5.7417091343909545e+00 6.2381220186988751e+00 -3.6672080626887841e+01 -2.0094499559666983e+02 -1.4282054829769902e+02 -8.2341688309075511e+00 1.6178370005961876e+03 3.7796066524866347e+01 -1.9691002383926386e+02 1.2284007559863464e+03 3.6324025235947465e+02 -2.5545700475868980e+03 3.1028299422644684e-01 7.7811532414244340e+01 1.7133164250866352e+02 1.6390964204944817e+03 -3.4340025307486508e+03 6.6709003821965794e+01 -3.8425746351822381e+03 1.6365030958084347e+02 -8.0040865077069720e+03 -1.6762002881122885e+03 1.1611170572489773e+03 -1.6410475395354420e+03 -1.8597342248072819e+00 4.7635819730031542e+01 9.7467761605682981e+01 7.3254077753248271e+02 -2.6037329035355424e+03 5.4571154570063051e+01 -1.8472623150969723e+03 5.8065673346562086e+01 -6.3386443871764004e+03 -3.0352272895679598e+03 1.0710334781232734e+03 -4.6657336864456593e+03 3.2350678087059670e+00 -3.1410397780721606e+00 1.0462265626233478e+01 5.9358461485586690e+02 -1.6785904169443936e+02 -1.9309623402168692e+00 6.0677542770556022e+02 -5.9370696247044847e+01 -2.0397882243469264e+03 -3.0594449512338324e+03 -2.4991400288401249e+02 7.6282288726567685e+02 -3.1760399572181957e+00 -8.0287010636671603e+00 -4.6014114003375308e+00 -6.2982098736722821e+02 3.1218008936340533e+02 -7.6917746050707940e+00 -3.9468527641492165e+02 1.0857550171811251e+01 -7.6950569481741672e+02 4.9776700224706356e+03 1.3648975925202944e+02 2.9340594187820161e+03 5.1463490479805234e+00 -1.8565288618364104e+01 3.2585776856149579e+01 6.8000204352604430e+02 4.4318988176170029e+02 4.2927313510904899e+00 -1.8573736192029530e+03 3.0996889518625274e+01 2.0595703372999301e+03 -3.5046895080245768e+03 4.0447754016732114e+02 2.9239712283190502e+03 6.6527672163788800e+00 -5.5952798616349931e+01 1.7026630746224665e+01 4.7165105895173298e+02 1.1057994070557208e+03 -1.8346043832596397e+01 1.9121299197931119e+03 1.8186870937157654e+01 1.5305324382022336e+03 2.3611736363185582e+03 -2.4217430734819214e+02 4.4236673492632153e+03 7.3519881654484402e+00 -2.2951256990294016e+02 1.7897649474030132e+01 4.3193780940685349e+02 -1.5143328975864080e+02 1.8333902465206002e+01 1.4044836983561254e+02 4.4482488341898922e+01 -9.5666461132125714e+03 6.0312435253912599e+02 -3.1955875752836334e+02 -3.9403386441459006e+03 
      </Row>
      <Row Index="6">
        8.4743443187782213e+02 -2.9284428350263569e+00 -1.2240790259907459e+02 -5.2551596626737769e+01 5.8013690513902782e+02 -9.5942899608599362e+01 1.4134809869431191e+02 -7.9532906282406429e+02 -1.2976609636584726e+00 -3.7244213624758640e+02 2.6079465168632356e+02 1.4857893987581014e+02 4.9804062468837304e+02 2.1891112479678509e-01 8.4196321629281528e+00 -9.1806227191361760e+00 -8.8703386169891900e+01 3.3196866557161698e+01 4.3825014425228392e+00 -3.5272001947690043e+01 -8.5233759242006926e+00 1.2031113232204056e+01 5.0755434912415097e+01 6.7799637452306669e+00 6.0283564514277157e+02 5.9956478849577000e-01 9.5378592830665482e+01 4.4193398592572464e+01 -4.6307351402990861e+02 9.4407749597307514e+01 -1.1798786989210137e+02 8.4623982774672845e+02 7.2694881543222891e+00 5.8942290174157142e+02 -4.6974899862242825e+02 -1.9679828445777881e+02 7.1069195822457164e+02 1.3670314504448022e-01 7.6823060963817611e+01 3.2285181620623561e+01 -3.4756742975001504e+02 6.8339531787636503e+01 -7.9765263209096759e+01 6.7683782429288215e+02 1.0041708432315460e+01 6.0862461587410053e+02 -3.0223122746629230e+02 -1.2637471537740818e+02 -2.8917327522003563e+02 -9.9180930797003075e-02 -4.7865676406081512e+00 4.0787152899213526e+00 8.0347905075987399e+01 -2.2481636454718323e+01 1.9501569830156171e+00 -6.8419452873988277e+01 -6.7008925006585329e+00 2.9337495519713690e+02 2.0904248711562047e+01 3.7695894185250282e+01 9.1449536229108480e+02 1.5019257264894237e+00 8.4558976010227358e+00 -1.2022763177414895e+00 6.9953465186941699e+00 3.4723386858724643e+00 3.1585048896813479e+00 -4.0421610647354345e+02 -5.6605162962896145e+00 9.6851279878002785e+01 2.1211102564378746e+02 -4.0698224019166020e+01 -8.9353682948680046e+02 -1.3109449432069820e+00 -1.0178963782286724e+01 6.3801705276341014e-01 8.0170250817804273e+01 -4.9494252803680943e+01 1.0718434936340282e-01 -6.0159408858506708e+01 2.8730282323633105e-01 -2.7032790306351660e+02 7.3032368985275809e+01 -1.6968778053198612e+01 7.2381298538902445e+02 -6.9117350022299995e-01 -2.2744153285285705e+01 -8.2495734391191853e+00 1.5470861412276440e+02 -2.4763817408723877e+01 2.1367498034482548e+01 -1.0041562964342799e+02 -3.0369748345276104e+00 6.7264131276094673e+01 1.1732740662481268e+02 -2.6232316480813324e+01 8.2353352015334465e+01 -2.6050680918161180e+00 -1.7475862787084406e+01 9.8578336876152850e-01 2.8094387390082545e+01 2.3852662983079384e+01 -6.7619619848174137e+00 1.0337379100233944e+02 2.1846134473921084e+00 4.6959657593567260e+02 -1.6442494829097359e+02 2.5202398932382346e+02 1.8142185245797187e+01 
      </Row>
      <Row Index="7">
        1.9420873835310464e+04 -2.0562164142736270e+02 1.1932921419466109e+03 1.5050077424899695e+02 -9.0284440348725184e+03 5.0074958196173047e+03 -7.9532906309767520e+02 1.6156386677848679e+05 1.0278822697775322e+03 2.8121177806790976e+04 1.8373823574204849e+04 2.8383989031934618e+02 1.1252893162942401e+04 1.3684678251330109e+01 5.4540312375902579e+02 4.3519085108854032e+00 5.3257706469907571e+03 -1.0370866826732110e+03 -7.4839936606498682e+01 -2.5322807028309212e+03 -7.0245899032195746e+02 -7.4503747604154614e+03 -1.2364975419488001e+04 2.2988635668392139e+03 -4.5568986719262612e+03 2.5347051324588898e+02 -2.1075284769230998e+03 -1.5891627623350240e+02 9.6275911345957502e+03 -4.3652455641786428e+03 6.0500045367280347e+02 -1.3133418645676176e+05 -8.0754094766942887e+02 -2.4410018666354459e+04 1.2352185432913366e+04 2.8139082480852999e+03 -9.9143840133764279e+03 1.7525810898224779e+02 -1.1496891449968739e+03 -8.2546488363932198e+01 1.0173058274950245e+04 -3.7130813149484543e+03 4.5833187852885550e+02 -9.3406833280143022e+04 -7.8732143667004448e+02 -2.2277717311742876e+04 8.9586481531788759e+03 3.9009936832682029e+03 8.8176952887899242e+03 -6.3570910377303003e+00 -2.8663435837388073e+02 7.3269645341955822e+01 7.9270822447455635e+02 -3.7233807447324568e+02 -4.1981574742298108e+01 -1.0555351461177635e+04 -3.4510671529839954e+01 -5.5680927802084025e+03 -6.2134519731402170e+03 -5.7800812897272408e+01 -2.3628484626583620e+04 -3.6403969914484144e+01 6.9404742482030485e+02 -2.1508846892567242e+01 -5.1162118829945694e+03 4.0108616340366473e+02 5.0311673081661468e-01 2.4286939684482142e+04 -6.3432427344811913e+01 -2.0067400327848445e+03 -8.6289890423871639e+03 -1.3786347577940360e+03 1.4778049184428739e+04 1.4047508345208310e+01 -2.4193916899690834e+02 2.6060390574476081e+01 -1.9997833473407454e+03 9.2088257691637648e+02 -2.1695442179076743e+00 7.6836973137487985e+03 1.1806863684096258e+02 3.4821715105574458e+03 4.6908061157124002e+03 2.1451210816106205e+01 1.5347235495807512e+04 -4.3931884449603203e+01 2.7150463645009182e+01 6.0355633321848430e+00 -5.0658324486897900e+03 1.7005347963866318e+03 -1.0853571441958300e+02 4.2080890136457267e+04 4.7477604462196030e+02 -3.9793834911979557e+03 -3.9666704385514122e+03 3.1579931975650152e+02 -3.5255107957872577e+04 7.6297375533622699e+01 -2.5957051834639665e+03 6.3021075683973777e+01 1.6576155627383364e+03 -1.1653708941663917e+03 6.8226736597540366e+01 4.4104904766453510e+03 -5.0969941151427250e+01 3.1324313501191191e+04 1.7210184823551142e+04 -7.7300132461727826e+03 1.6914594178579679e+04 
      </Row>
      <Row Index="8">
        -8.9580014451004899e+02 -5.6173097474048575e+01 6.4344628987677396e+01 5.3659618020195055e+01 -1.8886728761591658e+03 -1.5594297818892673e+02 -1.2976609489466755e+00 1.0278822714477551e+03 1.3165150593563012e+03 1.6627805808831033e+03 8.3680288398300047e+02 -8.3638879994412014e+02 1.7015653791423872e+03 1.8405841813114081e+00 3.3834246726394199e+00 -7.4103398605760464e+00 7.3202434543112622e+02 -6.7065462745030231e+01 -1.4566992831548403e-01 1.4229553895385470e+02 -6.0516636381522311e+01 -1.1666237269459302e+01 7.1265377561597461e+02 4.4201188015195783e+00 6.8064063802876672e+02 4.8999496940170189e+01 -4.5681892162118956e+01 -5.7382042487300112e+01 2.2084356861945348e+03 9.0905234201302846e+01 3.1745352787545862e+00 -1.0648122926589567e+03 -1.2472792917536312e+03 -1.9687567200781596e+03 -1.6039996892566412e+03 5.7711079985129368e+02 6.3812348468306482e+02 3.0690789650361488e+01 -3.2229031334568162e+01 -3.9025745245897554e+01 1.5155014609902814e+03 5.6790351563358257e+01 9.1609462035466116e+00 -6.3523932775769640e+02 -9.3366714195619693e+02 -1.2163374499984029e+03 -7.8626197673508034e+02 6.8729073780996112e+02 -1.3127057386729721e+03 -9.2412490585912410e-01 5.6250433858856885e+00 1.3850333227760286e+01 4.2036600013554107e+02 7.3383798791836568e+01 4.8123851448872301e-01 2.3532922282443613e+02 1.2355872841318032e+00 -5.9251587258413269e+02 5.5058872221762579e+02 2.0046886091196211e+02 9.6898661804340600e+02 1.9736118873929498e+00 -8.1310893017104569e+00 4.6926604799909830e+00 1.6080887747381828e+02 -5.4338802867915010e+00 -1.7147433235030807e-01 7.9004669042597726e+01 1.0029768642443616e+02 1.1095085308382329e+02 2.0099503968909344e+03 -1.2873651867913566e+01 7.5680726287974335e+02 -6.1328987305709770e+00 6.8939620382400690e+00 -6.1355210141426442e-01 5.8167746488067507e+01 3.7722835457862402e+01 -3.3656704454767739e-01 -1.1472857898715802e+02 5.3500494197867212e+01 1.6086533348339293e+02 8.1934034826408231e+02 -1.2872166053401546e+02 4.5800278649727190e+01 -1.0769630328012607e+01 4.6481889271001720e+00 8.2909462671255163e+00 -8.0827577502286647e+02 -2.7306578747252757e+01 -1.8771514896120403e+00 3.1586213621440425e+02 3.0180524767619136e+02 4.2533807061136775e+02 7.9458580477038254e+01 -8.6737702849146831e+02 2.2822801966002544e+03 -3.9257745809606255e+00 -2.0854531513113894e+00 1.4558974262617342e+01 1.7720867586259084e+02 -6.1581043841153203e+01 -6.6931733809499807e+00 -1.5487004621322893e+02 -2.4616313115262841e+01 -1.4114391702611933e+03 -2.3199545983587773e+03 1.3785983463854247e+03 -2.4478620950009044e+03 
      </Row>
      <Row Index="9">
        1.0389250134068487e+04 -1.4653989790787304e+02 1.2127899982621425e+03 1.5897629116554886e+03 1.9096119198836677e+04 5.9749751525453503e+03 -3.7244213610237995e+02 2.8121177835329396e+04 1.6627805806268007e+03 2.0036912145034227e+05 8.6044037292048984e+01 1.2562160806268851e+03 -4.7750270620171475e+04 2.4792004481129766e+00 3.6608499670473680e+02 -1.7528437969427318e+02 -2.7869139110506071e+03 2.3581691071751857e+03 -1.5545517066991877e+02 9.1252355636339635e+03 5.7583882641674404e+02 4.1966957914647690e+04 7.6736842362440666e+03 -1.5907099260892164e+03 2.0581929124267186e+04 1.5380759099220859e+02 -1.9324427926659255e+03 -1.5282074849070298e+03 -2.2110111956121800e+04 -5.3033141781705563e+03 5.1622223954618562e+02 -2.4099737573106366e+04 -2.2411866117917530e+03 -1.4598633474197230e+05 6.5858448631197971e+03 -2.1294976388190357e+03 1.0543019716846771e+04 9.7914254262155552e+01 -1.1992032380655419e+03 -1.1911157048808145e+03 -1.8993146854973354e+04 -3.2558043011728023e+03 4.3022996459064461e+02 -1.4407147891842636e+04 -1.4343493691319575e+03 -9.5596493524310645e+04 1.2011555810024427e+04 1.4282241436207341e+03 -5.2763265463190619e+03 8.3113674134362299e+00 -1.9753643610590746e+02 1.7236694035480906e+02 6.3666658103910149e+03 -1.6727437028482586e+03 -8.0285798670665827e+00 1.1341510345999453e+04 1.5913236253629881e+02 1.0286232183037484e+04 9.6482097206584276e+03 -2.8999765153904445e+03 -6.8108481943185143e+02 -6.8901298986285617e+00 6.0373597330611699e+02 9.5602149131080097e+01 -5.2718467452356999e+03 -4.0968623605674213e+02 -9.0988365850443913e+01 2.2477644919940453e+03 1.3149734207701414e+02 2.4105997974090315e+04 3.0379790105026395e+03 1.9672544546980998e+03 -6.1864058655697390e+03 -2.0295901119941604e+00 -2.8045517099526973e+02 1.6002714200114212e+01 1.7545534509154381e+03 -4.4637392195562984e+02 -5.4807496186427414e+01 -9.7791876312971799e+03 -4.7503145971981422e+02 7.1196619614596239e+02 2.4670450023870035e+04 -9.7267982691964448e+02 1.7718815211091416e+04 -2.7666733495470876e+01 -1.0066124108960808e+02 3.4074702276527387e+02 1.7294582585345983e+04 5.4312095885586052e+02 -9.6869973705235310e+01 8.5419759638897121e+03 -4.6361410613993996e+00 5.9052999814831426e+04 -8.6802243222277502e+02 -2.0770738330496724e+03 2.6066683999182391e+04 1.7866302534263674e+01 -3.1528406766685016e+03 1.5317471022652489e+02 4.4592773335065031e+03 1.6327588524809219e+03 -8.0010497701478997e+01 -6.2481413031237335e+03 -5.2208620730335639e+01 -4.0538868111801294e+03 -4.6828123927011969e+04 1.1165711629118343e+03 -1.9983380875756004e+04 
      </Row>
      <Row Index="10">
        -2.6238709345286661e+04 -2.4282964047930246e+01 1.4820784292276733e+03 3.6914081643662780e+02 1.6716499165409594e+04 1.1096645522173058e+03 2.6079465149994752e+02 1.8373823565004885e+04 8.3680288274621125e+02 8.6044024338425515e+01 2.8062175158608676e+05 1.9198334862686788e+04 7.1358851979270767e+03 8.5124327070519001e+00 3.9525514515198914e+00 -6.4124200430782381e+01 -4.0091755786972521e+03 6.1525693514332545e+02 2.2703050782167690e+01 5.2343285760423169e+02 -1.6206338228457750e+02 7.4845158571398215e+03 -3.6300179897964590e+04 -7.0755810024625380e+03 -4.7274643018841780e+03 2.8902109688262009e+01 -1.3689693943894317e+03 -4.3119758845599790e+02 -1.4344945787572700e+04 -1.8788064647653091e+03 -1.8640682272599349e+02 -2.2137117197433137e+04 -8.8223693352787166e+02 -4.6117522073748405e+03 -2.7901331445384986e+05 -1.7958978811454952e+04 -1.8350434614404563e+04 2.0118308561093542e+01 -8.9755575949180900e+02 -2.8196578339934939e+02 -9.0912377350152419e+03 -1.5182167818977032e+03 -7.3498470795326980e+01 -1.5020721566681195e+04 -4.4566911631847597e+02 -7.5593246659403667e+02 -2.0583406830149796e+05 -1.1332770218468557e+04 -1.8299828005471965e+04 -8.8030716724528357e+00 -1.2831057252400225e+02 5.0843454289263462e+01 -1.4017942587135093e+02 1.8227602809882924e+02 1.4014383401125087e+01 8.1643895110134490e+03 7.6709973725659006e+02 -1.9380309867496337e+03 1.2079245781715961e+04 -3.8752546795643866e+02 2.0137525840812741e+03 1.0625730911915332e+01 1.1181186857607756e+02 2.6591733074029200e+01 2.4552111269160519e+03 1.2006987629573630e+03 2.5747595357916637e+01 9.4803103752016705e+03 -1.4160522865684240e+02 5.1982620919984456e+03 1.4149973794536229e+04 -3.9636879645728101e+02 -2.0501841240522124e+04 -3.9597489310258496e+01 -1.2555504358421882e+02 -4.1645633468415987e+01 1.9718667508193041e+03 2.2511669241422422e+02 -5.0547862924904209e+01 5.0157479012253179e+03 -6.8629908636209530e+02 -1.1009088378064012e+03 3.2095813782810492e+04 -3.9948310610150997e+02 -7.1569315447843237e+03 -2.7160324873117247e+01 1.9438598477861353e+02 3.7804413681548709e+01 3.5566328149269757e+03 3.0627073246998310e+02 9.2918795611006146e+00 2.4610186424031745e+03 -2.2713341975712527e+02 -3.7852979167759895e+03 5.7388299045432730e+04 1.9626381744515350e+03 -2.0350680755942114e+04 1.3615211946698178e+01 -4.2270983814076806e+02 8.5231367951464790e+01 -1.0842316535456798e+03 -1.8962510571312680e+02 -8.2235498798267983e+01 -3.8472711720441798e+03 -2.2113062280437177e+02 2.0600833369866014e+03 4.2495423786762301e+04 7.1213264378111917e+03 1.9558239970022587e+04 
      </Row>
      <Row Index="11">
        -3.0044748721425276e+03 -1.0356522745418440e+02 1.8302810164450452e+02 3.8649815059493022e+00 1.9175447495769680e+04 -8.2181321819983577e+02 1.4857893983964036e+02 2.8383988466964388e+02 -8.3638879992437433e+02 1.2562160795055506e+03 1.9198334857453981e+04 1.0593765658141801e+04 3.8593383992423705e+03 2.5315162549143061e+01 -2.6252201675925164e+01 2.3972755372482300e+01 -1.3618624680289271e+04 7.8649207749462221e+01 -2.3838055370074940e+01 3.8867115985299461e+02 2.6948934797796164e+02 2.1019241745408831e+03 -3.8617437567815127e+03 -4.6884989310376432e+03 -6.1327950470226392e+02 8.8221390811365509e+01 -1.5348131171594764e+02 -2.3587081073408626e+01 -1.9133785626230678e+04 4.7980515729265517e+02 -1.3758035524575970e+02 -2.6290688613555976e+03 6.6955553543493784e+02 -3.0865182297382853e+02 -2.0028073824237716e+04 -8.5532996947892625e+03 -4.3176647784987490e+03 5.6352958147940072e+01 -1.4093302440963703e+02 -1.7495728565742681e+01 -9.2179503651624709e+03 3.0506368587924129e+02 -9.8089157429949182e+01 -1.7782186212407610e+03 6.9708372006166928e+02 1.5998092261077836e+03 -1.4516729072377204e+04 -7.4733246635260184e+03 -3.0266676511197002e+03 2.6931836793607378e+00 1.4323812106317931e+01 1.2757680882019871e+01 -5.4994217085001619e+03 -1.0050031884233189e+02 -1.9602125157543924e+00 5.4454260863375373e+02 8.8678479893916816e+01 1.5378242972930748e+03 6.8659966479239929e+03 4.0259045976609923e+02 -1.8400394138387674e+03 2.4138949020022160e+00 -5.8679783500827696e+01 8.4878441465067311e-01 2.6645090005519833e+03 3.8010806918361190e+01 2.4604040232729041e+00 3.0734895485606889e+03 -2.7553561624280391e+01 1.1889063148641335e+03 -3.7595028847140329e+03 2.0730538509816984e+02 -3.7307799829056958e+03 -6.1390914492283954e-02 3.5898711308739706e+01 -8.7711288561172420e+00 -1.2947247570211139e+03 -9.6635570742199377e+01 8.2939912654463299e+00 6.7687565403169447e+02 -6.3677998622588859e+01 -7.0734752048088103e+02 3.6603231758447382e+03 3.0721305040368179e+02 -1.8320132553543817e+02 -1.9864450920253084e+01 4.0073930384979256e+01 -2.0443176961134753e+01 2.1268915524076588e+03 -1.8334878153487918e+02 3.5262204104807608e+01 -1.1186488938956641e+03 -3.1192447856484432e+02 -1.3404011199123167e+03 -9.3385642746834912e+02 6.0714454126092278e+03 -8.5433414398280147e+03 1.6042450896667262e+00 2.2128970123959621e+02 7.0490997069850181e+00 -5.1188313517387724e+03 -1.4054870962230865e+01 -1.4207087407108299e+00 -5.5182762500799925e+02 1.6809984797883597e+01 7.5966248541729929e+03 6.9550025846985118e+03 -7.9230503769593197e+03 9.6123094966533117e+03 
      </Row>
      <Row Index="12">
        2.9627981575263220e+04 -1.6174859327084053e+02 -1.0399611902198508e+03 8.1227202525740415e+02 -3.5658300550989807e+03 -7.4073090110594276e+03 4.9804062502449335e+02 1.1252893169812800e+04 1.7015653800009750e+03 -4.7750270614937283e+04 7.1358851912009050e+03 3.8593383955085583e+03 2.5069476069679114e+05 8.0626240475549650e+01 -8.1668401361665360e+01 2.0361895335091498e+02 -1.2885766187600593e+03 4.3668497162575368e+03 -4.9809575244528361e+02 -1.2530546783851460e+03 -1.4752597116824661e+03 -2.2002966362930647e+03 -8.8817649462726513e+03 -2.8815930441094115e+03 -3.3680095435902360e+04 2.3149416861461089e+02 1.6348305059434294e+03 -6.0211058997690998e+02 1.9158632194641468e+04 6.5079768825278697e+03 -4.4281785390529080e+00 -1.4269993632434052e+04 -1.3820072038794135e+03 4.4028389202426421e+04 1.3907804615833429e+04 1.7577348079003345e+03 6.3289395821038270e+04 2.2164294304950909e+02 8.5273473128108628e+02 -6.9665837034526044e+02 1.1586695907701356e+04 5.6650672921869846e+03 -1.6424628971582138e+01 -1.4942223849448812e+04 -1.4140560095759579e+03 4.4378489488044754e+04 1.4784883313166865e+04 2.7811337245358959e+03 -9.9201791990328114e+04 -2.0474538597697805e+01 -2.5199341726572960e+01 -9.5585321837319853e+01 2.1238501879303999e+03 7.7533247921957889e+02 7.6309620952873956e+01 -2.1403085060219150e+03 3.2637265630368864e+02 7.8313797302460853e+03 1.4873758325889612e+04 -2.5439812003094703e+03 1.3623079132232891e+05 -4.1832808714464456e+01 -4.6054288182240504e+02 -4.8853878002385585e+01 -6.0364906494988472e+03 3.4820841648006262e+02 -2.6139137106385471e+02 9.1264364614356309e+03 -2.9670529372347255e+02 6.8299282752209483e+03 -8.0545555245404494e+03 -9.7486378481138900e+01 -6.0259032252356526e+04 6.3955358417072823e+00 2.9404404390935576e+02 1.8604420277603333e+02 -8.6432447894145548e+02 -3.3772024306592730e+03 -4.0539315771228104e+00 1.0808341095581543e+04 -7.6530198977835283e+01 -1.2894842296411589e+04 2.9157068852763263e+04 -1.1509904313430147e+03 3.8668406651235120e+04 -9.8079284964517115e+01 1.3131057910404962e+02 2.7016331935553285e+02 -3.9407613027167681e+03 -3.5458159131287521e+03 1.2308937841564594e+02 3.0274505503441851e+03 9.1893988745249874e+02 -1.8760956041235331e+04 -2.5165785681471789e+02 -3.8242639814223971e+03 2.6122783116350722e+04 1.1275145479127792e+02 2.5157077182012886e+03 -1.4377238625290670e+02 2.1535016773172056e+03 2.6414080894833342e+03 -9.9150451697659562e+01 -1.2156001616191240e+03 3.4985186371773004e+01 5.9746054588276493e+04 -4.1266391592459426e+04 1.3075443400957897e+03 4.6270940374734593e+04 
      </Row>
      <Row Index="13">
        -5.8529591284340540e+01 -6.8042643386300563e+00 -1.0603531963031910e+01 5.6885151540914842e+00 1.4548219613935629e+01 -5.7417091396938602e+00 2.1891112482846906e-01 1.3684678295767981e+01 1.8405841789616773e+00 2.4792003967868688e+00 8.5124327619992854e+00 2.5315162554099953e+01 8.0626240411764087e+01 7.0770545502975484e+00 -1.8947279970911144e+00 2.5987280719838385e-01 -1.4437592083663770e+01 -3.0385115769035451e+00 2.0967304904255313e+00 -1.4324103518082666e+01 4.2287610201583004e-01 1.6944997958028416e+01 -2.2962924471583818e+01 -2.4508766131166670e+01 -3.7498610213916308e+01 -3.4176076937272710e+00 1.5182496050642571e+01 -5.3204270761040320e+00 -1.6386006853848272e+01 -3.9544813025997416e-01 -8.1676805510790551e-01 -3.1992380688490087e+01 -5.4513166966523361e+00 9.4804918621726841e-01 1.0450716930019173e+00 -4.4291889762824695e+01 -3.3228874122890204e+01 -3.1262241066297483e+00 9.9459818711969916e+00 -3.7940569592590605e+00 -1.2015267046912754e+01 6.6951298703520945e-01 -3.2910533853299279e-01 -3.1668964272222858e+01 -6.6435432988035226e+00 1.5598638450433782e+01 -2.2562453068762398e+00 -4.2459652330216798e+01 5.2021842734620236e+00 5.7595113102905515e-01 8.5800686736166543e-01 7.7254362992893022e-01 -3.5169943135699064e+00 1.2632655826153911e+00 4.5624791543249898e-01 2.2500227350824868e+01 -1.0804239403145484e+00 6.0081720883324330e+00 5.8184452617536657e+01 3.3832398710205780e+00 -1.6779728175309032e+01 5.4040345112264889e+00 -3.5177206173765301e+00 3.1983250134042907e-01 5.1030197187616544e+00 1.8948714558366020e-01 3.2095734557387781e+00 2.2461084174156440e+01 3.2364180381500436e+00 8.7949778774333875e+00 6.2308989622124749e+00 7.5157503774126759e+00 3.1050224772289667e+01 -8.8464474040966956e-01 5.3997543240621226e-01 -2.1786559550762097e-01 -4.0298006665956594e+00 2.7384945433765422e+00 -2.7586998638871476e+00 1.6383007241786352e+01 5.4340405730627306e-01 -1.2886799225249717e+01 3.9756729711896014e+01 -1.4100346880902492e+00 -8.3465684707670007e+01 -7.5797604471673530e-01 -2.1775389153111324e+00 6.0347840115020623e-01 1.3883612086687407e+00 -1.3604779117843828e+00 -1.0629645837299921e+00 -8.6628318988694026e+00 1.4868592280370825e+00 -1.2481137917410191e+01 -2.9000654130564385e-01 1.5718870087503772e+01 2.7774624110475443e-01 -6.4057872511850960e+00 7.6846123310469387e+00 5.1289596920855240e-01 5.2561768603974990e-01 -2.7844640002698604e+00 -3.2897395644885328e+00 -1.8695897217236489e+01 2.9481722493962992e-01 5.4723246189229087e+01 -6.9586621858124388e+01 2.1210938485374612e+01 -8.8496473859735119e+00 
      </Row>
      <Row Index="14">
        1.1685533392659247e+03 6.9148034520185919e-01 -1.3239050717871032e+02 -2.7362641623130832e+00 3.2656061924782080e+01 6.2381220135450022e+00 8.4196321640016425e+00 5.4540312377307941e+02 3.3834246861051724e+00 3.6608499692339058e+02 3.9525512752531302e+00 -2.6252201715187585e+01 -8.1668401451245046e+01 -1.8947279966018136e+00 1.0423496990425951e+02 2.9185309137349211e+00 7.7412947946308009e+01 1.3577359982544294e+01 1.7195270633209365e+00 6.7428698286530562e+01 1.0783385112447590e+00 1.0952666778019896e+02 -4.4285871638489857e+02 2.5155240491529927e+01 8.0940620155509475e+02 9.0639703375466585e-01 -1.8289613037009360e+00 -4.0149769038596048e+00 -6.9547197029506833e+01 1.3218371154894360e+01 -1.1427963756835659e+01 -4.7751890138061526e+02 -9.9357568403634993e+00 -4.2438235098471478e+02 2.3282197584144674e+02 1.2801366499060839e+01 -1.9647060310763490e+02 4.9624990528102531e-01 4.7696341058116843e+01 4.3800338285987364e+00 -8.2057191041958220e+01 1.3781860204645639e+01 -4.9909306921226309e+00 -3.2652422248500352e+02 -1.3322240004734716e+01 -4.1103750745340949e+02 3.2048556046533270e+02 7.2475424944408019e+01 -1.4834854380041543e+02 -4.4351655440585641e-01 -2.4661502946530071e+01 5.1237556639830393e+00 1.0801165444686011e+02 1.3003347721948554e+01 -5.4942053233776278e-01 -1.0950296850540073e+02 -4.5961865403228384e+00 -5.6467013059839104e+01 -2.0684978574874202e+02 -1.4905487627453113e+01 -4.2874433445044815e+02 -8.0683391647527425e-01 8.3769373439386328e+01 2.5107753319847448e+00 -1.0206625191096984e+02 -7.0923105951891721e+00 3.0317854555127206e+00 1.3330825861527410e+02 7.1432079313339578e+00 3.8206229649727376e+01 -3.2564815561577052e+02 -2.2336974847370769e+01 -1.5933231304149891e+02 5.1434263748508791e-01 -3.7210862417571064e+01 2.0421923295789171e-01 -1.5475733368972122e+00 6.0253317578199042e+00 -1.2019838716105646e+00 -3.3689524184739909e+01 2.7066218637431447e+00 7.0051851831734837e+01 -1.1283739302355389e+02 -1.5848036462283215e+01 3.9452431277005400e+02 7.6424003972402332e-01 -5.0475399451242168e+01 -4.2109325970659288e+00 1.2829351695194339e+02 -5.5251789824066622e-01 2.2791088914925295e-01 1.3466359815734998e+02 4.5109827801171072e+00 -2.0748705651421091e+01 3.1018902563902071e+02 -3.7774576261706976e+01 4.1896700336635990e+02 1.8524719944050352e+00 -2.1369742215049726e+02 5.4845186398528654e+00 9.1417433094594031e+01 4.7946192990842746e+00 -9.6393829146508458e-02 -3.3445129256274917e+01 6.4560965688348959e-01 1.3115874557484022e+02 -1.1643297575475847e+02 4.6578705584296728e+01 3.0137491520081579e+02 
      </Row>
      <Row Index="15">
        -2.5257545687842492e+02 -2.0472753957174339e+00 5.2175888152836478e+00 2.8343263152283078e+00 -7.4395962646837233e+01 -3.6672080625623167e+01 -9.1806227201800255e+00 4.3519085443157337e+00 -7.4103398681075987e+00 -1.7528437983631625e+02 -6.4124200323948486e+01 2.3972755396592188e+01 2.0361895335049402e+02 2.5987280700591558e-01 2.9185309135663466e+00 1.4903896251626584e+01 9.9448299653401424e+00 8.2373917328618518e+00 -5.5576113938120630e-01 -1.8246070372921167e+01 9.6223087630985482e+00 -4.1596989272542473e+01 -1.6114421225648670e+02 -1.4136143945756336e+01 5.1291412829988531e+01 2.0679515041877949e+00 -1.0098807956973603e+01 -5.4379120513544166e+00 1.3691378012198902e+02 3.4927425595920312e+01 4.4262890864216224e+00 -5.6473816867282494e+01 3.8748076833473348e+00 1.2829197720506062e+02 1.1668729836949355e+02 -1.0489394896386155e+01 -2.5436532758372800e+02 1.3342699085599981e+00 -7.1058678903538395e+00 4.2814986441822471e+00 9.5363160980800032e+01 3.9260562123088313e+01 1.9438210568515990e+00 -6.9405761137279683e+01 4.8199217562100074e+00 6.1904116378118488e+01 1.8828183489051983e+02 2.5128123245787992e+00 9.1171214775821682e+01 2.7918625662428953e-01 4.9623018955056786e-01 1.7276020217310535e+00 1.8843712755476510e+01 2.1671534592515826e+01 -8.5689317890597749e-01 -1.0515860677227025e+01 -1.0380272765627474e-02 -4.2948879570676063e+01 -2.1770001629341230e+01 -1.9378712583240485e+01 -6.7894239729190076e+01 -2.3616206183442678e-01 4.0658716394690746e+00 5.9280980692149143e-01 -7.6782748503178681e+01 -4.1284648213741537e+00 1.1960333474587890e+00 8.4060564450444872e+01 3.7716738892462480e+00 1.7060082381610719e+01 -2.0947952757572551e+02 1.6019384228790329e+01 2.0326146860215982e+02 5.8872653755156823e-02 -1.3057310644956845e+00 -1.1085049929600252e+00 -4.5540041454109776e+01 -1.2556246989096168e+01 6.9506157209086661e-01 5.9722491358669998e+01 -3.5627016799627818e+00 1.3127893349257377e+01 6.5075040256142529e+01 -5.1849856255550550e+00 -1.7009182704018264e+02 -3.6997476433610677e-01 8.3718314161428298e-01 -7.7724370912457639e+00 -2.5151904706242092e+01 -1.7743352053941667e+01 1.0576890373538061e-01 -3.1052231825542755e+01 -7.4084900212627609e+00 -5.5168607863487487e+01 1.4060759644937292e+01 7.1690742299791825e+00 -1.6041100467837816e+02 1.7429145107492550e-01 -2.8691485654595374e+00 2.8237601777280927e+00 2.9697729478990723e+01 1.1396721322179854e+01 1.5568103457177056e+00 -5.1494751413366338e+00 -1.6827902817921176e+00 2.7548225535726974e+01 -9.4423970843880536e+00 -6.0773578474776933e+01 -5.8613763983124251e+01 
      </Row>
      <Row Index="16">
        -1.2782961242695665e+03 2.8640006517649578e+01 -4.8996526695378998e+02 5.7798429414089178e+01 -5.8716806391957274e+04 -2.0094499634486704e+02 -8.8703386172885629e+01 5.3257706583377076e+03 7.3202434488569270e+02 -2.7869139175801120e+03 -4.0091755635289069e+03 -1.3618624678606384e+04 -1.2885766305399138e+03 -1.4437592090268463e+01 7.7412947879892073e+01 9.9448299999741643e+00 4.2735789772484110e+04 -1.4941012819565367e+02 5.2727112767811633e+01 -2.2495815962878987e+03 -4.2468794147581923e+02 -2.9616833984380251e+03 5.2248764247733141e+02 7.7825619832554767e+03 -2.2177277893359314e+02 -1.9832381101684035e+01 3.2904794136709609e+02 -5.8478013745234421e+01 5.1481902362492387e+04 2.9790993472515515e+02 4.5289673766552376e+01 -9.5788086966783158e+02 -5.1224464436088908e+02 3.0924933419017179e+03 9.3160193029476795e+03 9.4345159901553361e+03 4.2956122264936994e+03 -1.7569394641757896e+01 3.4235567544526486e+02 -1.9748255222774134e+00 2.8959868768426000e+04 2.7402545875873636e+02 6.3387365450989691e+01 -2.2072783489811554e+03 -6.5878930266808970e+02 -7.1192661315063015e+02 6.1307594567505712e+03 8.8796109149579643e+03 5.6575694171864307e+03 -6.8785188226843275e+00 -4.0944422638521765e+01 1.3634228384560136e+00 8.9743137325932094e+03 3.8183964467853667e+02 8.4560343093398842e+00 -4.9315993099099899e+02 -7.7677880951047385e+01 -1.4484439675143717e+03 -7.7601860309592112e+03 6.4572154494700953e+01 4.4428385111706693e+03 -2.6898934909533789e+00 1.4666085128791659e+02 -1.4698791241061974e+01 -2.4581491080301748e+03 -3.6082137418701649e+01 4.3811324395150926e+01 -3.9350377296865918e+03 -1.2864510216229516e+02 -1.9909544704214818e+02 2.0889436843552685e+03 -1.6437042666624475e+03 2.4795363991981735e+03 -5.8362173462202094e+00 -7.4015685574096878e+01 5.4008334868152330e+00 1.0344008658295561e+03 -3.0105893698815485e+01 -3.9316198579630786e+01 1.3166272173711629e+03 8.0013183147394969e+01 2.8758737782328478e+02 -6.5649997707922012e+01 -1.2750111619557001e+03 -3.4293712660904494e+03 5.5913265436999637e+00 -6.2287665608019786e+01 -1.8258034052156837e+01 -1.6710733121566434e+04 -1.2134102460466003e+02 -3.7459179543027268e+01 3.2588822039102329e+03 2.4868487691397706e+02 2.2448400468181953e+03 7.7271310220834293e+03 -1.0136502230182297e+04 8.2290808805663037e+03 -3.7334820800245234e+00 -2.1321711934666789e+02 1.0022973852022403e+01 1.2974524697539551e+04 8.9653670262613787e+01 -2.0059134580501421e+01 -4.5688857698476698e+02 -6.2593441860361338e+01 -7.3076241475928173e+03 -9.8682689660599463e+03 1.7562356518265085e+04 -1.3386815921020338e+04 
      </Row>
      <Row Index="17">
        1.3197420703402631e+03 1.0735917136074480e+01 2.4179569163823089e+01 2.6474116206604361e+01 1.9996039914239736e+02 -1.4282054842747758e+02 3.3196866557101963e+01 -1.0370866818200266e+03 -6.7065462786189528e+01 2.3581691064386800e+03 6.1525693576632239e+02 7.8649207855748571e+01 4.3668497156131671e+03 -3.0385115761799035e+00 1.3577359978830343e+01 8.2373917357091209e+00 -1.4941012810788106e+02 4.4981947747343656e+02 -5.9943487418987544e+00 1.8123738447260985e+02 1.6161944773260633e+00 1.5031274374061204e+03 -9.4683516029869759e+02 -6.8354013889626358e+01 -2.1490427381584351e+02 -5.8480940636063989e+00 -3.8744098387951539e+01 -2.4581332105163540e+01 1.7657616884386334e+02 1.5428586769848621e+02 -1.5091372950641997e+01 5.6144022753605532e+02 4.7956628203468156e+01 -9.9328354034710446e+02 4.8900436548682046e+02 2.4139338578490421e+02 1.7632590050051033e+03 -1.6285335848148825e+00 -2.0271340952784993e+01 -1.1217280907200777e+01 5.2772527553805425e+01 2.5349162453091600e+02 -1.1552284839417277e+01 3.4926083247355473e+02 3.1227222421006012e+01 2.4312035238470708e+02 5.6870147715274231e+02 2.1747425221529153e+02 -1.4472579859393445e+03 -2.9650411701102308e-01 -4.0961011930646256e+00 5.5068597915680917e-01 9.8077512321874991e+00 -2.6082032351617499e+01 -5.1167023223888464e-01 -5.8425609314232275e+01 1.0069510363755994e+01 1.0884472451686804e+03 1.6292860789216635e+02 -1.1652707932818157e+02 4.2460024179083503e+03 -1.7156990443333557e+00 1.5914558062790405e+01 3.4275163139470881e+00 -4.5725544475353260e+01 4.2007594130244655e+01 -7.6972995350138209e+00 3.2391214024723740e+02 -2.6173740398121748e+00 9.6714255361693165e+02 -8.1365717269105471e+02 1.3716746183174905e+01 -2.1330007047115432e+03 1.5803449279780795e+00 -7.0903140804962579e+00 -5.1168573405714586e+00 7.7881826681692274e+01 -3.1708354987267859e+02 -2.5603284438896119e+00 2.1131930762256570e+02 -2.3956986013871557e+01 -6.9753605821828933e+02 7.1931454257472069e+02 -2.1235021316065094e+01 1.6351024420393678e+03 1.9801825331031362e+00 -1.6673998672312618e+00 -2.2452445165193584e+00 4.4549205264119834e+01 -2.2710580118695711e+02 1.1357196981376605e+00 -3.7375729602937474e+02 -1.3757115014730504e+01 1.0013097905064801e+03 4.3730743748766383e+02 -2.0568019333205706e+02 8.8252194710004460e+01 5.6196164224480336e+00 -6.4922045518448485e+01 1.8776584352363059e+00 -1.6575373609915346e+01 2.9343352883397392e+02 -4.0427387490255926e+00 -1.3695856605910365e+02 4.4490381334233344e+00 2.0980230615062374e+03 -1.2623475982523626e+03 -3.9667834920451000e+01 7.2710418291366580e+02 
      </Row>
      <Row Index="18">
        -5.9035884946336438e+01 -1.1103859445242084e+00 -1.4070891651005240e+01 -6.0934591970446395e+00 9.6137111765001464e+00 -8.2341687997943467e+00 4.3825014419821855e+00 -7.4839936736686695e+01 -1.4566992061486417e-01 -1.5545517052306889e+02 2.2703050689497786e+01 -2.3838055392568414e+01 -4.9809575245142594e+02 2.0967304902550645e+00 1.7195270636802076e+00 -5.5576113976909025e-01 5.2727112759667236e+01 -5.9943487437990370e+00 1.2717840416984194e+01 -1.7102916498581180e+01 6.4039567689743659e-01 -6.8007892163081266e+01 6.3193492107511247e+01 2.2437611837087026e+01 -1.5201163971140105e+01 -4.3007133532515134e+00 1.0663945322062913e+01 5.4855904198222945e+00 -7.4057206271588356e+01 1.5571397677939995e+01 -1.6455527169762917e+01 7.8023032545024535e+01 -2.0192499133909081e-02 6.3694311233534449e+01 -8.6330329065840488e+01 -4.3624405755674092e+00 -1.4072959102842788e+02 -3.8065330601549809e+00 1.0261015491412179e+01 3.7501587681027311e+00 -5.2162977022418993e+01 1.0070644285108358e+01 -1.0932956534768765e+01 4.8481505173051687e+01 -3.5274133923949176e+00 -4.2142541475008329e+01 -6.5408839407756744e+01 4.2439750172665098e+00 1.6278342145087481e+02 3.7647000825074539e-01 -1.7458723283936850e+00 -7.6323425702833581e-01 3.6936183926030992e+00 1.6387456277803940e+00 7.4124227683893196e-01 -1.7310208398708276e+01 -1.7061471316679495e+00 -8.2553116469802291e+01 -1.2141933481348497e+02 1.8960182020289722e+01 -1.7829879392641584e+02 2.6068624708809152e+00 1.2804812945483359e+00 -2.6661816765129270e-01 3.4658191671482484e+01 8.4019256478263560e-01 9.5895242129711136e+00 -3.0526725414198154e+01 1.7471023750147534e+00 -1.1697080642254900e+01 6.0355111678801585e+01 -2.1887591814217910e+01 2.0410950321955337e+02 -3.7193192242853801e-01 -2.2022081590876494e+00 2.9398825653270122e-01 1.4327959219574689e+01 4.3914485830991667e-01 -3.0107598441934664e+00 -1.1207793628055768e+01 8.9767380994163659e-01 4.2125699476410887e+01 -1.6634877872354627e+02 -6.8462805058021914e+00 -6.5684992123382756e+01 1.0594174669142919e+00 -3.3961747418039909e+00 -5.0191075096955462e-01 1.2327028991657627e+01 1.3498931711735866e+00 -1.6910097888659770e+00 -2.0205902184573759e+01 5.2477355457881503e-01 -8.3175179858474646e+00 -6.6647816411410759e+00 -1.8773737253055202e+01 5.1711017677504557e+01 -3.8361035995970747e+00 -5.1628163773922910e+00 -4.5338219655125211e-01 7.8999066782106553e-02 -6.8112504557123419e+00 -1.3621631662430991e+00 1.3574669956963163e+01 4.1862319261808167e-02 -3.0438221668279402e+02 2.4835712796760092e+02 8.8875646522290694e+01 -1.0458554103266462e+02 
      </Row>
      <Row Index="19">
        3.8589024792135206e+01 -1.5546273406401182e+01 -1.2054742365331185e+02 2.9977578924086785e+00 1.7794188200716453e+03 1.6178369998117348e+03 -3.5272001926253324e+01 -2.5322806981451095e+03 1.4229553881498578e+02 9.1252355621374227e+03 5.2343286106077721e+02 3.8867116029098599e+02 -1.2530546776009146e+03 -1.4324103512908561e+01 6.7428698254908298e+01 -1.8246070353129269e+01 -2.2495815956667752e+03 1.8123738458901062e+02 -1.7102916522211355e+01 3.7193290681864601e+03 1.0633732059866777e+02 2.4226490508418105e+03 -2.7330428757646587e+01 -2.9175536398453266e+02 3.5576741761009271e+02 3.7782259035279630e+01 7.7643680308121475e+01 -1.6118553486604924e+01 -1.0238025720331020e+03 -1.2667395016613439e+03 2.1019725172871684e+01 -7.1399056643786025e+01 -2.5214012545012670e+02 -9.6926231489371348e+03 -3.1207630769566167e+03 8.3087551843031315e+02 -5.3217497562520919e+02 2.5402586548443931e+01 6.6249957355860587e+01 -4.3824321717953389e+01 -4.8282867506519034e+02 -8.7744564170632827e+02 1.6744370860005027e+01 6.6088014862138152e+02 -2.2121041958295172e+02 -6.7173456681908574e+03 -2.8979111930982681e+03 5.0159673206743673e+02 -6.2016296202035737e+03 1.2010754516689037e-02 -1.6335337590711973e+01 1.3140609411851031e+01 -9.0484108984056616e+02 -1.0787323311121924e+02 -3.5993755402741954e+00 -7.4954066625634709e+01 -3.4691183908027824e+01 -6.5422364382653745e+02 1.8129343945679622e+01 -1.5567473044549115e+02 6.0682756502107463e+02 -1.0921947171619001e+01 1.8313521776222387e+01 2.0369579646138064e+01 7.9858618570693898e+02 1.0767409733485113e+02 -2.0913953296816306e+01 9.3420569453621283e+02 1.5030487825854874e+02 1.9090375938443860e+03 4.2798457594836636e+03 -1.1017191358488512e+02 8.9336779846504271e+02 4.2885934126819611e+00 -2.9448204994462170e+01 1.0961224702036546e+01 5.3423460970155497e+02 1.6211125736898438e+02 2.5769552105594617e+01 -1.9982091691554315e+03 3.5338771303001664e+01 1.4148946303728428e+03 -9.7202750419778749e+02 4.0016686978493294e+02 3.9653461981021555e+03 4.2272710915856426e-01 -8.5341248026732629e+01 3.9905277393085242e+01 1.1395160120594713e+02 3.3134351318946744e+02 5.1013815653571744e+00 -3.4152898112847879e+02 9.4861054294207392e+01 1.6501358813937479e+03 3.3541697920062215e+03 7.3824326553981493e+01 1.4873679822627660e+03 2.1968072396924104e+01 -2.7157792149205545e+02 2.0323147295871507e+01 -8.8597079117955900e+02 1.1350779334832430e+02 2.5667224865841224e+01 2.1090026783776487e+01 4.0780246002145674e+01 -2.2578848274096426e+03 -5.8997815744518757e+03 -1.1006226029571469e+03 -6.7907954294941292e+03 
      </Row>
      <Row Index="20">
        -7.6671395948641975e+02 -8.2757835578018373e+00 4.0278130958205850e+01 -9.5247766096692743e-01 4.3648936708759402e+02 3.7796066641719847e+01 -8.5233759297268961e+00 -7.0245899088932538e+02 -6.0516636372007270e+01 5.7583882656096330e+02 -1.6206338265322097e+02 2.6948934795511394e+02 -1.4752597115424451e+03 4.2287610107663098e-01 1.0783385131024970e+00 9.6223087613188856e+00 -4.2468794162883307e+02 1.6161944630857761e+00 6.4039567830181032e-01 1.0633732062065428e+02 1.0764216190059686e+02 3.5652343886730847e+02 -3.8205318682171219e+02 -1.4958981079234098e+02 -6.4312190006267849e+02 7.9052194618188985e+00 -4.3506649869740031e+01 1.1691071825931587e+00 -6.6222174444267762e+02 -8.1610651889578776e+00 -1.7192532730715193e-02 3.8611519823154651e+02 2.6392740354058297e+00 -5.7559865836268591e+02 2.0748981081070633e+02 -1.7783402809517892e+02 -8.2348222608842877e+02 4.0879860076121117e+00 -3.0213866586381645e+01 2.9469364360409784e+00 -2.2714427211442506e+02 1.6578325549332007e-01 -2.2586016306525365e+00 2.6946841233864063e+02 4.3529257539020364e+01 -3.5172090147365816e+02 -8.6200309503703181e+01 -2.5238660105987597e+02 6.6160336845679012e+01 -8.4336998027610521e-02 2.5732450543644780e-01 -5.0139275124911391e+00 -3.2006542874464714e+02 2.5856463920971535e+01 -2.0974109436995150e+00 1.7117890626423872e+02 1.8922029547153734e+01 5.4656609433268940e+01 -1.0181485047954020e+02 8.5342785992517747e+01 -2.6901032701701911e+02 -3.8158070220304680e-01 3.7173606685627716e+00 2.5174561950369156e-01 3.0579664124109678e+02 -1.8147238582151083e+01 2.0532165281981327e+00 5.7241300406405571e+01 4.0896333171049889e+01 2.1057922140055334e+02 -4.6054788673901078e+02 -3.2750223947597874e+00 4.5319938089217544e+00 2.4517191116489429e-01 1.8641563485717558e+00 -3.3669414598354996e+00 -2.6789508441212018e+01 -1.1130809773151986e+01 3.0061867701697338e+00 -1.1990957257322168e+02 -1.9828250475965255e+01 4.7525708168001614e+01 -5.7954114454941191e+02 6.6149538417171726e+01 -2.2479261033414943e+01 -9.7199919005672886e-01 8.4721623446001484e+00 -4.2472537162674566e+00 -1.3185478800230416e+02 2.7832658867573379e+00 2.0913505872200728e+00 -2.6539046618738701e+02 -5.3470804811683621e+01 1.7037008497549829e+02 5.6080280902100654e+01 2.3877326999971541e+02 -5.4486702528434421e+02 -1.7860350997677836e+00 -2.6213673029868723e-01 -3.3058360521439130e+00 -2.8067591321958014e+02 2.9351117985813207e+01 3.4163647758216937e+00 -3.6526381741095463e+01 -1.5046585791914913e-01 -4.5513154968830787e+02 1.0161082927389854e+03 -3.2649808452942472e+02 6.5235010565424346e+01 
      </Row>
      <Row Index="21">
        -6.8748956257800637e+02 -1.1302864084852533e+01 1.6987041869796940e+02 4.6710279629722032e+02 5.6607196805642379e+03 -1.9691002411302156e+02 1.2031113205082761e+01 -7.4503747566907723e+03 -1.1666237449313485e+01 4.1966957911843332e+04 7.4845158596960109e+03 2.1019241751204063e+03 -2.2002966409636206e+03 1.6944997959465599e+01 1.0952666774027020e+02 -4.1596989251856094e+01 -2.9616833985446583e+03 1.5031274373540873e+03 -6.8007892157969877e+01 2.4226490506955306e+03 3.5652343893849030e+02 1.6718903222101453e+04 -2.4926437850747316e+03 -1.8391597270548912e+03 -2.4075280441643490e+03 -6.4151854327234563e+00 -2.5367502829825878e+02 -4.5576154444762528e+02 -6.7125251357642992e+03 -4.5764931007505766e+01 1.2039059471984677e+02 2.2724382385623994e+03 -3.7469532055681105e+02 -2.9779087718200521e+04 -2.1366043629300839e+03 -1.6382486914901781e+03 1.0705041762352882e+03 2.8426806366602939e+00 -9.4130171399145240e+01 -3.5939905611927145e+02 -5.2517536040604591e+03 2.2963447613345053e+02 9.2532193419958858e+01 1.5096303611957333e+03 -1.1152123925197620e+02 -1.5772381470514025e+04 -4.5527193138534540e+02 -1.2105503754211591e+03 -8.0186204604780360e+03 1.9398844763144671e+00 -5.4086086553794040e+01 1.8399988122211113e+00 4.7717986675584712e+01 -3.6238845546956475e+02 5.6420617263711392e+00 4.0874153076369289e+03 1.9979161634226398e+02 5.4850483972542761e+03 3.5334326831378798e+03 -5.1634270780513179e+02 1.2490985575903806e+04 1.2716829741516792e+01 9.8529111524103087e+01 4.5700775061872243e+01 3.2122194826437561e+02 1.4264314386379752e+02 -5.0857475478898088e+01 3.3267018621916068e+03 6.6598204512873124e+01 8.8111440836815964e+03 -5.6747615174782786e+03 4.2831525700045665e+02 -7.9165931518093585e+03 1.1877448175650553e+00 -6.7870468767676599e+01 8.2747217776552358e+00 3.5215159962136920e+02 -8.3470814284836536e+02 -3.0421722065052087e+01 -1.4832739504864403e+03 -2.4297134446925719e+02 -2.8445130016532967e+03 5.1205043333984795e+03 -1.9819527436878207e+02 8.8697474697049493e+03 -4.1107643167901537e+00 -7.5315645784685401e+01 1.1958278640328678e+02 3.5164416047132318e+03 -6.3844434243201738e+02 -1.8887391653137350e+01 -3.5865676618912671e+03 -1.8085780909239526e+02 1.2199176312549564e+04 1.3388195313751248e+02 4.7953004327755730e+02 4.6124976590324127e+02 -5.5309743699184573e+00 -7.0451337850504171e+02 1.6563577209404883e+01 -9.2136300192157734e+01 9.9932374124543230e+02 -4.9653501397989274e+01 -3.0097041011897777e+03 -2.7321954518163626e+01 4.0022722457249042e+03 -4.9347186085983385e+03 -4.2254956100870311e+02 1.1057168497935381e+03 
      </Row>
      <Row Index="22">
        4.7036087524044215e+03 3.9964753384931750e+00 8.4133660199715086e+02 -1.3378883350739102e+02 3.7585552707540191e+03 1.2284007566394184e+03 5.0755434899550437e+01 -1.2364975424385999e+04 7.1265377590722346e+02 7.6736842412597125e+03 -3.6300179904225006e+04 -3.8617437573328684e+03 -8.8817649455624378e+03 -2.2962924471588970e+01 -4.4285871637163700e+02 -1.6114421226475821e+02 5.2248764178136696e+02 -9.4683516030723695e+02 6.3193492102950813e+01 -2.7330427934182808e+01 -3.8205318685959861e+02 -2.4926437849225035e+03 4.3190482461304724e+04 3.1153483035207751e+03 6.8159266814940393e+03 6.4172832507479347e+00 -6.8085070373166872e+01 2.4612054936345862e+02 -3.5959473544039320e+03 -8.2547584302362156e+02 -1.0157687440847079e+02 1.3668105908904188e+04 -5.7047330040539782e+02 -3.7892569724543500e+03 2.3877898246326367e+04 6.1377510698656090e+02 2.9996798384729340e+04 -2.9973885560009691e+01 -3.8161003594363171e+02 -5.4509739750594647e+01 -4.9360232205761713e+03 -1.1581296694603102e+03 -9.3427854128304588e+00 9.5684710941299381e+03 -7.9873682966353067e+02 -3.0284761209009448e+03 2.1377330245388046e+04 2.3142019462369312e+03 1.1671030003157735e+04 -1.5094873407153560e+00 2.5801242803169851e+02 -1.2480814000104594e+02 4.2350499077880540e+03 -8.2595096251503332e+02 2.3135569665853836e+01 -4.1208433933541482e+02 -3.7818990501564895e+02 -6.9021252964268558e+02 1.3112127839897539e+03 -1.3010161356282188e+03 6.4358502664214466e+03 -4.2023996082436712e+00 -4.8207695516182230e+02 -6.2103100896026575e+01 -3.3948958970242056e+03 -3.4068353952531663e+02 1.7764588480602484e+01 -5.2080710078738630e+03 3.5198420108049774e+01 -3.4920555582923257e+03 1.6643811191305420e+04 2.3021697959415683e+03 1.3811465221996148e+04 -2.5368179795881485e-01 2.2105196154073499e+02 1.5658433559188541e+02 6.1597489769953222e+02 1.2119425833617630e+02 -1.1994790866484344e+01 -3.7828204708907674e+03 2.1734489045542182e+02 -2.8932386991803469e+01 -8.3272715859767050e+02 -2.4026010533899330e+02 1.6242222044579883e+04 1.7902131549868717e+01 2.1731572385674176e+02 2.0689097488242075e+02 7.0314061889128961e+03 6.3532522870389084e+02 -3.5378728216603797e+01 -2.0614026608739423e+03 4.7566057064462137e+02 3.3126231764205377e+03 -3.3320977276301513e+04 -1.6127917796359088e+03 2.0403498156087244e+02 -4.5125562880679503e+01 1.3745810141671702e+03 -1.1188019654345095e+02 2.5852004032577211e+03 -6.5417139578201704e+02 -4.0622795578802879e+00 1.7718667633477492e+03 6.1803225007831898e+01 -3.0056981720223166e+03 4.5258887560016501e+03 -4.2048064396501172e+02 4.8980058319469363e+03 
      </Row>
      <Row Index="23">
        3.8010463295671170e+03 2.1358572683878631e+01 8.5603195289007999e+01 -4.6555185387123068e+01 -8.6462999636236200e+03 3.6324025220520309e+02 6.7799637540520052e+00 2.2988635683299985e+03 4.4201187886937987e+00 -1.5907099255803016e+03 -7.0755810010135101e+03 -4.6884989310211295e+03 -2.8815930451598197e+03 -2.4508766130334127e+01 2.5155240480261284e+01 -1.4136143939265775e+01 7.7825619836555134e+03 -6.8354013856194797e+01 2.2437611830207313e+01 -2.9175536384817678e+02 -1.4958981079760403e+02 -1.8391597268686037e+03 3.1153483033643279e+03 3.6935627722222116e+03 2.8757146794823157e+03 -6.6923992944536153e+00 -1.1811908868240405e+02 5.9249825214445764e+01 6.6310302539319282e+03 -1.1999060062156059e+02 -1.3047188858312655e+01 3.3986867400698975e+02 1.0860406764018450e+02 1.6331462370838162e+03 7.7411229397199349e+03 3.5770038808842073e+03 4.3452256511177493e+03 -1.4333752937253891e+01 -8.1370357553082826e+01 3.7377998258745080e+01 3.8011984988048125e+03 -6.9253785344594348e+01 4.4892372612595572e+00 3.3309992342537953e+02 -2.4769927057544692e+00 -1.1162924634723458e+02 5.8603248136462589e+03 2.9932316062059672e+03 4.1911800649576180e+03 5.9361984313208271e-01 1.5262759359165152e+01 -1.2697764722606340e+01 8.1676970856832577e+02 -5.2361776635436854e+01 3.3919628288695094e+00 -1.0553376693950966e+03 -3.8033589781435694e+01 -1.2642086201014718e+02 -3.9646403781270228e+03 -1.4122940245317295e+01 6.5514117601802332e+02 -5.4099647512287712e+00 2.7608272813862328e+01 -3.4872651731261097e+00 8.9063503876034270e+02 8.6818453539914699e+00 2.1318842804852864e+00 -2.2350714892431861e+03 -6.3346461325472951e+01 -8.3891890748518335e+02 1.5477940951271171e+03 8.8284971095897319e+01 1.5080931040555986e+03 7.3421210194558362e-01 7.4048459241192930e+00 9.1445611996591882e+00 6.1926308147715895e+02 2.8583689028067525e+01 -3.5310988382936781e+00 -3.6313561862549773e+02 1.8513895587005436e+01 3.1559442286902453e+02 -1.5388028780329041e+03 3.2780602782750918e+01 1.0777805511128836e+03 1.0988408521777773e+01 1.3134716580812693e+00 8.4660575965318792e+00 -2.6133837533019660e+03 1.2902721568733506e+02 -1.0980251989932725e+01 1.6879261343733197e+03 6.9886126478080868e+01 6.4752680489229647e+02 -3.3626467726318128e+02 -2.7385694725570538e+03 2.2463783013592188e+03 -6.9238221137718021e+00 -1.6243190568171448e+02 -1.0400957696616103e+01 9.2795927040339711e+02 2.2650325772561644e+00 6.1562495908295318e+00 9.7073428720883021e+02 9.1516989227072827e+00 -2.2178992239111517e+03 -7.6773747315638025e+02 2.5528442832491774e+03 -3.5015775696463347e+03 
      </Row>
      <Row Index="24">
        -2.7447501241319615e+05 -7.9600141091753954e+01 -4.7900132408003265e+02 -1.5581784082433176e+03 1.3602614667039015e+04 -2.5545700510783954e+03 6.0283564498411943e+02 -4.5568986420061410e+03 6.8064063551096478e+02 2.0581929090731341e+04 -4.7274642703689751e+03 -6.1327949652298867e+02 -3.3680095451062967e+04 -3.7498610231014887e+01 8.0940620137656902e+02 5.1291412940521994e+01 -2.2177278588289926e+02 -2.1490427395526785e+02 -1.5201163956025916e+01 3.5576741343177855e+02 -6.4312189948607659e+02 -2.4075280452404004e+03 6.8159266819113400e+03 2.8757146771284497e+03 3.7881323075257451e+05 1.4440589672381577e+02 -2.1869679365870174e+03 1.3253257738636494e+03 -1.3249808212389482e+04 2.6592479787602351e+03 -5.7805849278912478e+02 1.6619888626887056e+04 -2.1188589760983447e+02 -1.5957645079394482e+04 -2.2914097337396815e+03 -1.9370188365144368e+03 2.3930289220055920e+05 9.5113798327533033e+01 -1.0463164441707397e+03 1.1560939417798716e+03 -1.2698916829513753e+04 2.3034581157213411e+03 -3.6746235148467724e+02 1.6844164119351459e+04 -6.8263587437245894e+02 -1.3685862763033714e+04 1.1238673881633807e+04 9.3120424833595837e+02 2.4486181073502754e+04 -2.4260232031344259e+01 -3.6506002803868745e+02 1.8720570782402615e+02 5.1745871030205053e+03 -1.0342499184036201e+03 -3.4799778283238993e+01 -5.5343325697183191e+03 -7.7648653528152136e+02 4.6948542602792186e+03 9.1453492550614465e+02 -2.4233017495083623e+03 -7.3811382722476570e+04 -3.4234303968535855e+01 1.6045075775858427e+03 -8.8056017915932884e+01 -4.7206034454546207e+03 -1.1070637437871264e+03 -9.8624819637313408e+00 -1.5709083657964133e+04 -1.6954053556816120e+01 -8.6749412811493930e+03 6.0697260150818047e+03 1.3383547018460540e+03 -2.2591616482907521e+04 -2.1403660644780626e+01 -5.3163507714633897e+02 -1.1209820122686934e+02 1.3958500911121241e+03 1.2946747815652176e+02 6.4834931231469056e+01 -6.2293162420129775e+03 9.4442164502031335e+02 3.6715064778014307e+03 9.2360275796204805e+03 -3.1197167757527086e+02 -4.2128865040201956e+04 -3.8816544912852777e+01 7.0008776186270154e+00 -4.9722302511088708e+02 1.1726285685342413e+04 -3.9329698610968290e+02 1.1501936653527085e+02 3.6161159345421979e+03 9.3375700838509852e+02 -4.3579796145284490e+02 -4.7841169502655339e+03 -1.1507418464603159e+03 -1.8568307336792983e+04 4.4183845612493677e+01 -3.8679639642607362e+03 1.5938912850668612e+02 3.9006301506248165e+03 -7.4994908451129186e+02 1.1921759613839185e+01 3.6852263228436273e+03 3.3997375818414685e+02 2.4103890628057125e+04 -2.1035213829492292e+04 8.7881568714442346e+02 -1.8815619184915693e+04 
      </Row>
      <Row Index="25">
        -4.3720548046554200e+01 -8.1022612071463982e+00 2.9364920602174095e+01 7.0040029057572761e-01 1.4381625021943819e+01 3.1028297320833786e-01 5.9956478872361174e-01 2.5347051336263826e+02 4.8999496934069839e+01 1.5380759088865693e+02 2.8902109791730709e+01 8.8221390829983719e+01 2.3149416860014685e+02 -3.4176076936423554e+00 9.0639703300972574e-01 2.0679515046164343e+00 -1.9832381098144033e+01 -5.8480940623035167e+00 -4.3007133534269819e+00 3.7782259024126688e+01 7.9052194626718375e+00 -6.4151854330647353e+00 6.4172832388821917e+00 -6.6923992995774917e+00 1.4440589677289353e+02 1.5303963038182575e+01 -3.3620803451670938e+01 -2.6517071607570628e+00 2.4444599223914487e+00 -1.0973648059479046e+00 -2.4417961217185518e+00 -2.5353879721289911e+02 -4.8374837625950775e+01 -1.6633424041224032e+02 -4.1047266073290302e+01 -6.1264817971372572e+01 2.5907277899751385e+01 1.0517418064619736e+01 -2.5251447127813929e+01 -1.2701014346725517e+00 3.6500245209738011e+01 2.4139689728339819e+00 -1.0713375161959673e+00 -1.6795761487603866e+02 -3.2422720219517096e+01 -9.9735419383821863e+01 1.2840507371781086e+01 -4.0630758173997187e+01 -6.3196329561465063e+00 -3.2664138338244209e-01 1.4514844508532732e+00 2.2568735931953752e+00 -3.3676413223965284e+01 2.5364741917616236e+00 -5.3492506842115972e-01 -1.0952965124807633e+01 -3.6026939816311057e+00 -5.7075573501731149e+00 5.9586531720757790e+01 8.6836967151193676e+00 -1.3088056800868912e+02 -4.6345528918642565e+00 3.0655830281363947e+00 1.2241587770957385e-01 1.8740623131790652e+01 -1.1631131427578989e+00 -2.1653914949265385e+00 8.0959820883817883e+01 6.5788585207579766e+00 9.2675607362821779e+00 5.2147880403848070e+01 -1.9312342974235008e+00 1.3046986847593826e+02 3.8424738325345098e-01 1.8219188026476356e+00 2.1564586852353806e-01 -1.7114693220042071e+01 2.7419407404946030e+00 3.2789876284068908e+00 1.4170600366646795e+00 5.2965768196669076e+00 2.7385611737532805e+01 7.9294390075889169e+01 3.2754326007653001e+00 -2.2766010799639574e+01 -2.2912428801098548e+00 6.1651333721389170e+00 -1.5338432555013719e+00 -6.3399561093834222e+01 1.4861649264548085e+00 2.3674528481381487e+00 6.2436595073863245e+01 9.0026336354522360e+00 -7.4160697344304678e+00 -1.2067603598608628e+01 1.7730443244124523e+01 -3.0037864057331362e+01 4.6456330190013775e+00 -3.6240316812397051e+00 1.8773950057797679e+00 -2.5610954239306505e+01 -1.1775459730526436e+00 3.1850316775294250e+00 -4.9629889854464464e+00 1.0127617977001502e+00 9.6921576000808670e+01 -1.6281060440387600e+02 -4.6190838063162161e+01 -6.8239600418619503e+01 
      </Row>
      <Row Index="26">
        -4.9809248465847122e+03 7.4060575899197350e+00 -1.4231951294627434e+03 4.1227546823921884e+01 4.3141860600825748e+02 7.7811532497075291e+01 9.5378592811613089e+01 -2.1075284756626656e+03 -4.5681892312750279e+01 -1.9324427952408730e+03 -1.3689693914219461e+03 -1.5348131136103831e+02 1.6348305028656566e+03 1.5182496045661413e+01 -1.8289613210154130e+00 -1.0098807950695239e+01 3.2904794108878485e+02 -3.8744098471390316e+01 1.0663945333439635e+01 7.7643680068838876e+01 -4.3506649815961211e+01 -2.5367502863612242e+02 -6.8085070197237656e+01 -1.1811908875336613e+02 -2.1869679370600488e+03 -3.3620803458784671e+01 1.6423446570838057e+03 -5.1527921582334557e+01 2.1787452786747082e+02 -1.2123315853966778e+02 -8.2332649578037632e+01 1.5454711457701997e+03 6.7994298715090736e+01 1.3637019055056953e+03 2.2524646741063334e+03 1.5013444796050623e+01 -1.0328224971300756e+03 -2.4545011588223431e+01 1.1917273754813275e+03 -3.5496125568837357e+01 -3.3883253023674945e+02 -1.3420253519452882e+02 -6.2233669620069605e+01 8.1940096681151590e+02 3.0230587435228372e+01 1.1854691365549807e+03 9.6327565351924909e+02 1.5494716807664540e+02 -1.6351869673194597e+02 -2.5470835137177328e-01 4.3496613236954154e+01 1.7358568366809088e+01 5.5882653743814160e+02 -2.9079306844234750e+01 1.6111895348865801e+01 7.8736014026656630e+02 -5.0559712555331771e+01 1.4119741350792683e+02 2.9645079114935970e+02 -1.0478526538790902e+02 2.4316874903633338e+03 1.3668575046046664e+01 -2.1767861693543603e+02 1.1568865550213811e+01 -4.4306368887498274e+02 8.3998965350690597e+01 1.4196869474045538e+01 -3.9786536596855149e+02 -3.0797653078920913e+01 5.1300205622700901e+01 -2.6923601575958628e+02 -2.1303172281964942e+02 1.5312280111307518e+03 1.4924747593153098e-01 -7.5767777333099104e+00 1.0448446441033548e+01 1.6581314575313215e+02 5.7400497472756356e+01 -7.2899245208128693e+00 -7.5204171808906494e+01 3.0669258873653078e+01 -2.2774957970793685e+02 3.7413905427849386e+02 -1.5876285481160716e+02 -1.7623649513880414e+03 5.0995280157560439e+00 -3.4072826848923546e+02 1.4528047455964060e+01 5.5357730753495457e+02 5.6094663312858145e+01 1.4324748151070034e+01 -4.4088420189197171e+02 1.3810343539917199e+01 -4.2760565287523110e+02 -2.6557581905957989e+01 -3.6464939583784758e+02 -1.7684063143672663e+03 -1.3144663860805984e+01 3.0935527460256873e+02 1.5773031680573013e+01 4.9382325979715336e+02 -4.9084173558242469e+01 -1.3326336866594488e+01 -6.6764245071009469e+01 2.2322479258524684e+01 -5.5669016735816126e+02 -3.0928941744219446e+02 1.3637822108646437e+03 -3.0458993175842552e+03 
      </Row>
      <Row Index="27">
        -3.7867154525844944e+02 9.6296923070037863e+00 4.6561972218273468e+01 -1.7587411697390860e+02 9.2733209365749190e+01 1.7133164256365052e+02 4.4193398592530144e+01 -1.5891627665305063e+02 -5.7382042466251278e+01 -1.5282074845050947e+03 -4.3119758894664551e+02 -2.3587081127368599e+01 -6.0211058959367449e+02 -5.3204270762277561e+00 -4.0149769007567304e+00 -5.4379120530809644e+00 -5.8478013794741287e+01 -2.4581332103101886e+01 5.4855904191550362e+00 -1.6118553444255667e+01 1.1691071762115790e+00 -4.5576154444729713e+02 2.4612054938111851e+02 5.9249825228717661e+01 1.3253257737031076e+03 -2.6517071603322480e+00 -5.1527921617804552e+01 1.6287473765975500e+02 -9.0197629354625860e+01 -1.1466355230148656e+02 -4.4280643354393526e+01 2.9386238686256274e+02 6.4714631360915007e+01 1.0996519062415898e+03 5.4228644926479319e+01 3.4537221684370238e+01 7.4216543907707899e+02 -2.1765324380809017e+00 -3.7016432086827031e+01 1.1452855106289456e+02 -4.6746875062050322e+00 -1.1981713958782574e+02 -3.2473440655551137e+01 2.3015014716383877e+02 5.5472259128795876e+01 5.7346867081933306e+02 -8.3265985557638544e+01 -5.2812578673457953e+00 2.5715813868813984e+02 -4.3826505122428228e-01 8.2134198985687590e-01 -8.9095512996523958e+00 -7.2846823648311528e+01 -1.9390080802414968e+01 -1.5737781513893196e+00 -2.8451270339819894e+02 -5.5067406077984344e+00 -1.3471633793311386e+02 -3.5071000732747473e+02 4.8212529848216946e+01 -3.7978964657632150e+02 -3.1446284618997371e+00 5.3168476116660131e+00 -1.0362610136831098e+01 8.4753776952916027e+01 1.5283273675156993e+01 2.3707246610904851e+00 -2.2072904840581032e+02 -4.3355743639876252e+00 -2.2508962237710557e+02 4.6889199168727146e+02 -8.4082016368287498e+00 8.1605124975024410e+01 -1.2916511832970717e-01 3.3888912103523401e+00 -2.0865108999634092e+00 2.5976586094049800e+01 -5.5789220730901334e+00 3.1212740614603276e+00 -5.7037438304668569e+01 1.0130254041098326e+01 9.0285601885417691e+01 -7.2458768401214184e+02 4.2132152497185672e+01 9.1319031613298876e+01 1.3780385860070639e+00 1.3743113783110259e+01 -2.8004371524877094e+01 -7.8043615957280736e+01 5.4964666634611163e+01 8.5064760646271900e+00 3.7913962451905775e+01 -1.1006483360071394e+01 -3.3240743229986447e+02 -9.9103847984779591e+01 5.0805886913538963e+01 -3.0568637575001603e+01 2.5699179000935386e+00 -9.5885288524147896e+00 -4.8451577254990337e+00 -7.2340725669612851e+01 -1.8750703548816389e+01 4.0442805905467143e+00 1.4571437493376538e+02 1.4391499925362723e+00 -3.9393419306363558e+02 7.0087506326545235e+02 -8.6224667089349325e+01 1.5392985934708381e+02 
      </Row>
      <Row Index="28">
        -2.1967756590862318e+04 7.6495213178066436e+01 8.8967945540905930e+01 -4.0209073907632131e+00 -1.1723594567061512e+05 1.6390964191112550e+03 -4.6307351394031321e+02 9.6275911440905038e+03 2.2084356860494590e+03 -2.2110111959538866e+04 -1.4344945774610329e+04 -1.9133785625832494e+04 1.9158632196013801e+04 -1.6386006846371281e+01 -6.9547197032526583e+01 1.3691378013508492e+02 5.1481902365178525e+04 1.7657616899878485e+02 -7.4057206296740986e+01 -1.0238025726270862e+03 -6.6222174451167757e+02 -6.7125251355121381e+03 -3.5959473544764332e+03 6.6310302538439282e+03 -1.3249808204797126e+04 2.4444599324378293e+00 2.1787452807566069e+02 -9.0197629392345334e+01 1.2653402855342557e+05 -1.6065205225719255e+03 4.3152940952887207e+02 -1.0789502525791468e+04 -2.1010270120135247e+03 1.2054133229515195e+04 2.1369263386134757e+04 1.8877761015528573e+04 -7.9424987133359609e+03 4.9696970505370103e+01 1.6082572416515546e+02 9.0118830510634240e+01 8.2271160228455745e+04 -7.0269215891858016e+02 2.5439924727608241e+02 -7.6954501945357260e+03 -1.7622841500149530e+03 9.8890243901757058e+03 1.5780378814325060e+04 1.5583483180676891e+04 -9.6876926887128502e+03 -3.3696197456251333e+00 -7.1341732428715829e+00 4.1161936766730243e+01 1.0148815818002229e+04 8.4930663085072968e+02 -1.2705900805893179e+01 -5.9319493041423848e+03 2.0328498169486556e+02 -8.2629789092127467e+03 -8.5577144857281564e+03 -3.0302279326971620e+02 -4.1028190663385612e+02 -3.3087710885227004e+01 -8.6716322347653488e+01 -2.1313491375562016e+01 -1.1938894097634175e+04 3.2252513884502315e+02 -3.5673012187435504e+01 2.5848059661113657e+03 -2.0863830484740788e+01 -7.8246597790191254e+02 4.7703851533640318e+01 -1.9146335663572386e+03 1.3074549146822143e+04 -1.1568523773425632e+00 1.2940189580149308e-02 2.8845578254141984e+00 -2.2353113581511684e+03 -1.7784663712643663e+01 -1.3866454087533324e+01 4.3188337360742544e+03 -1.2169327571295594e+02 1.9155875801488819e+03 -2.1228742293044925e+03 -6.7223201231972644e+02 -1.4151540433734534e+04 -1.5362929160584716e+01 5.9379651064578297e+01 -1.1594721452555127e+02 -4.1981078875710737e+04 -2.9920152216925839e+01 -4.8527722970099632e+01 2.6273702951050209e+03 5.0022627681909387e+02 -3.8656264356797424e+03 1.0107706871784252e+04 -1.0352776984990594e+04 1.0959974548701706e+04 7.0064050515747681e+01 5.2865761523427705e+02 7.3312404520208247e+01 1.6938672635388175e+04 2.4088679214289368e+02 2.0102522354597568e+01 -1.9110782249990580e+03 -2.2648357469632728e+02 -1.3412934672093383e+04 -1.7932540856684245e+04 1.0472650874098497e+04 -1.1773138814023307e+04 
      </Row>
      <Row Index="29">
        3.2014021372581647e+02 -2.6527963115532280e+00 5.2527051002598455e+01 1.3393210890047325e+02 4.0784849780265358e+02 -3.4340025307002670e+03 9.4407749570141732e+01 -4.3652455635392416e+03 9.0905233997415053e+01 -5.3033141820576511e+03 -1.8788064626816340e+03 4.7980515781599541e+02 6.5079768789981317e+03 -3.9544813511865096e-01 1.3218371149900577e+01 3.4927425596811695e+01 2.9790993403446225e+02 1.5428586758526217e+02 1.5571397703918421e+01 -1.2667395022871206e+03 -8.1610650910301246e+00 -4.5764931252786219e+01 -8.2547584246660699e+02 -1.1999060074982106e+02 2.6592479757890615e+03 -1.0973648233496940e+00 -1.2123315849099697e+02 -1.1466355225352368e+02 -1.6065205237063055e+03 2.9443853674070560e+03 -8.1733961353501186e+01 3.5418897029307700e+03 -1.1516279557885264e+02 6.7038066418016042e+03 2.2120653075163718e+03 -7.7644294951898667e+02 2.5654461631696704e+03 3.8398309523040908e-02 -7.6468071051208781e+01 -6.3349689371395705e+01 -7.3533358951019261e+02 2.2374363314796301e+03 -6.5571882497892176e+01 1.7111262886516852e+03 -3.7982370152585077e+01 5.0500676953462535e+03 2.9512035768638543e+03 -7.3603859628918497e+02 3.0364004518513393e+03 -3.4863101810759956e+00 -1.6432493456956365e+00 -1.8031843550076655e+01 -4.8920175345676955e+02 1.7678246091837059e+02 1.5354491723664978e+00 -6.5766273630355136e+02 2.2401901773429472e+01 1.4588476970366028e+03 2.1065487730113441e+03 2.5066819246677915e+02 4.8551370600352129e+02 3.2276975011683140e-02 2.9531496438482542e+01 6.2802351455181515e-01 6.5680587495309067e+02 -3.0698720869590693e+02 9.8399618229600314e+00 2.2152095721813384e+02 1.6761232956483703e+01 5.1757759057145654e+02 -3.7766028683378927e+03 -1.3506729554414576e+02 -3.1272106804273526e+03 -3.3619240334428149e+00 1.1158029157465712e+01 -2.5442371095959363e+01 -4.9263439573552478e+02 -4.2346735328011175e+02 -4.6870752456136699e-01 1.5062682941247667e+03 -3.9327320327911615e+00 -1.4458848703964309e+03 2.1977918367580278e+03 -3.1399547893201031e+02 -7.4711451522474431e+02 -3.3279143201869346e+00 5.0926842547154905e+01 -1.5951282579465902e+01 -3.8236184488390529e+02 -9.3276491041741542e+02 1.8183228718613279e+01 -1.5804793172226596e+03 -1.1526796382048040e+01 -1.4253721108347536e+03 -2.0285731751264507e+03 9.7144199320967061e+01 -3.7091931941017692e+03 -5.3687147493868919e+00 1.3744194188632474e+02 -2.3125217199062984e+01 -4.1665105395478474e+02 1.7032397224190120e+02 -9.4809485383955234e+00 -2.0151213119011544e+00 -2.7687440061323663e+01 7.5895987837990388e+03 -9.8122621468227749e+00 3.4277680979819178e+02 3.0285063589189622e+03 
      </Row>
      <Row Index="30">
        -5.6698564706335037e+02 5.9305873320523679e+00 1.1425831908345685e+02 5.4203409527796836e+01 -5.0310019240024531e+02 6.6709003825402220e+01 -1.1798786989232909e+02 6.0500045354449549e+02 3.1745352811431076e+00 5.1622223949241618e+02 -1.8640682278965596e+02 -1.3758035524721032e+02 -4.4281783202126235e+00 -8.1676805505551431e-01 -1.1427963756226736e+01 4.4262890858326784e+00 4.5289673749550644e+01 -1.5091372951483208e+01 -1.6455527169726654e+01 2.1019725161313545e+01 -1.7192534284770300e-02 1.2039059469812319e+02 -1.0157687440910468e+02 -1.3047188859507649e+01 -5.7805849297622785e+02 -2.4417961219936579e+00 -8.2332649585294462e+01 -4.4280643353974924e+01 4.3152940955792019e+02 -8.1733961357897215e+01 1.2102542293394643e+02 -6.3398235717400826e+02 -7.6048960621889989e+00 -5.0586818899074888e+02 4.6781255367006816e+02 1.8942626624052645e+02 -3.8482340781668961e+02 -9.4780988143588685e-01 -6.9645362985751973e+01 -3.2470554077314759e+01 3.2097989183135383e+02 -5.9582597645653159e+01 8.2968953221885982e+01 -5.0135148902370031e+02 -4.5081458993043011e+00 -3.8719837552144963e+02 2.9254286683576754e+02 1.0969427186451898e+02 1.8447613391857976e+02 -1.5499382849470672e-01 7.0011675666905324e+00 -4.0459162768530961e+00 -7.8188711966698634e+01 1.4411225035347933e+01 -2.1996883872332091e+00 9.3821507220030981e+01 1.2785810706406409e+01 -8.8008909774418498e+01 9.9646843369684035e+01 -4.1794894314974954e+01 -3.8348872181060528e+02 -1.1176081995720908e+00 -1.1810944464366745e+01 1.3512134323606020e+00 -5.0505398075832062e+00 -1.8657859606860683e+00 -1.4318440779400778e+01 3.0465068751015497e+02 -1.5418633241637814e-01 -6.1288643789164183e+01 -2.9841088302128503e+02 5.5246485279508988e+01 3.6838795964822748e+02 9.1223037042316513e-01 1.1548877694817453e+01 -1.7908637729410941e+00 -7.1655606700095518e+01 3.6995921389248196e+01 2.0147347044923536e-01 5.6132043010023267e+01 -5.9301145744906023e+00 1.2036077649425221e+02 1.2059216620808002e+02 1.9317067931958462e+01 -4.9913413158245623e+02 4.1816444388013707e-01 2.1528353453401479e+01 9.4139375852611344e+00 -1.5032372152209948e+02 1.2622839104958198e+01 -1.7899684462766448e+01 7.7115733912411002e+01 1.9335875640363058e+00 9.3802496548962448e+00 -1.1125552461686704e+02 2.0949527268825619e+01 -1.7351501961520336e+02 3.1269130488835088e+00 2.4968859725888144e+01 -1.5322086626519944e+00 -2.9824851178773599e+01 -9.9140110680538207e+00 3.4134402520335101e+00 -9.6938763075562235e+01 -3.6115172979882173e+00 -1.4679010619984737e+01 -1.6346281028812655e+01 -2.6199457896341710e+02 1.5463458849570088e+02 
      </Row>
      <Row Index="31">
        -1.1620574319795785e+04 2.1525619867952238e+02 -9.3978620872416650e+02 -2.3842603608976350e+02 9.8849138907213346e+03 -3.8425746358102033e+03 8.4623982804334446e+02 -1.3133418646043143e+05 -1.0648122906576900e+03 -2.4099737537918110e+04 -2.2137117212482830e+04 -2.6290688677240528e+03 -1.4269993621027061e+04 -3.1992380639635698e+01 -4.7751890133225743e+02 -5.6473816849080322e+01 -9.5788085829430554e+02 5.6144022850174224e+02 7.8023032391924247e+01 -7.1399051190353930e+01 3.8611519756092849e+02 2.2724382428467848e+03 1.3668105903907446e+04 3.3986867566710345e+02 1.6619888658306601e+04 -2.5353879707876308e+02 1.5454711468014627e+03 2.9386238639335988e+02 -1.0789502516111243e+04 3.5418897033101384e+03 -6.3398235730972738e+02 1.1637317523807881e+05 1.0632675724557012e+03 2.4062215858575277e+04 -1.5200062699969858e+03 -1.2578314648637461e+03 2.4213797161135604e+04 -1.8960527752811277e+02 8.0506024976601543e+02 1.9553509534254999e+02 -1.2233675825975937e+04 2.9146053261807783e+03 -4.6788719862286905e+02 8.3560065076607832e+04 9.0354329356019434e+02 1.9579530298047699e+04 -1.4232900020280140e+03 -1.6263260109588189e+03 -2.1736040350272087e+03 3.0943383416414338e-02 2.4693256264053548e+02 -7.9897876903356234e+01 2.2209371943295159e+03 3.2212473266294802e+02 3.8508219917021052e+01 9.0471977824547794e+03 -3.2931662819282792e+01 5.3978399647000479e+03 3.9103109835575688e+03 -4.3548081366228871e+02 2.7782985205678644e+04 3.2375766485270844e+01 -4.7764650592588794e+02 -9.2256989605945492e+00 2.4294614754131162e+03 -6.8484208158333422e+02 1.5679558266420486e+00 -2.9865008793524466e+04 -6.5191322793882023e+01 -2.1418994892537908e+03 7.9058943674945194e+03 1.4762114541295371e+03 -2.0333664269800363e+04 -1.2430073258983219e+01 2.1807388211766849e+02 -5.4855432015493633e+01 2.1366971925432144e+03 -7.2121649273702963e+02 -9.2595663727475639e+00 -7.8479010860266708e+03 -4.2611874963442119e+01 -2.7296583798589677e+03 -1.9629008220797405e+03 -3.8344919986448184e+02 -1.0462593691419295e+04 5.3818018442462318e+01 5.5352024439809838e+01 -4.1600325791259500e+01 7.6570617876657561e+03 -1.1786081233721002e+03 1.0638630904286245e+02 -3.0834306261372225e+04 -3.8848028266948438e+02 7.3525390284815567e+03 -7.1682865299576042e+02 -2.3494586440519456e+03 3.9609785695866398e+04 -7.7726087689580680e+01 1.9895066250995524e+03 -9.6936504047900712e+01 9.2359694822036499e+02 7.9468507864064736e+02 -7.8120929580923757e+01 -1.1431001925899245e+03 4.7395541808823658e+01 -3.5623170185248564e+04 -1.2480936187636627e+04 9.0925994768493892e+03 -1.4460934018149534e+04 
      </Row>
      <Row Index="32">
        1.4180777010022575e+03 5.9325115366487374e+01 -9.1608477406258316e+01 -6.1039091664147286e+01 1.7730815500668468e+03 1.6365030978212155e+02 7.2694881427864857e+00 -8.0754094913806557e+02 -1.2472792917507177e+03 -2.2411866119931060e+03 -8.8223693466488112e+02 6.6955553543700171e+02 -1.3820072031590903e+03 -5.4513166985227759e+00 -9.9357568276052177e+00 3.8748076765641599e+00 -5.1224464479931328e+02 4.7956628169471514e+01 -2.0192491992304440e-02 -2.5214012558112154e+02 2.6392740441549680e+00 -3.7469532068928191e+02 -5.7047330013565079e+02 1.0860406763369024e+02 -2.1188589978625691e+02 -4.8374837631468878e+01 6.7994298593667395e+01 6.4714631378235026e+01 -2.1010270121765352e+03 -1.1516279574408691e+02 -7.6048960612353644e+00 1.0632675742030588e+03 1.3033061917616224e+03 2.4447353877854948e+03 1.6307703961577499e+03 -5.2148650454931339e+02 -4.4764086764723561e+02 -2.8488374651449412e+01 4.7511137751671519e+01 4.1879877088836061e+01 -1.5326908586851080e+03 -7.7872980917538101e+01 -9.1865438495398930e+00 6.9985221570518843e+02 9.4995327960049212e+02 1.5322293787138187e+03 8.4012060928707115e+02 -6.1186835164220304e+02 9.4091431372969237e+02 1.0399899946386792e+00 -8.0902657113618979e+00 -5.8064705917247554e+00 -3.3689130683612257e+02 -1.1561532755674847e+02 1.3922369650445034e+00 -2.8593236313527450e+02 -3.1683151211540917e+01 6.3518893738889892e+02 -5.8292877535149864e+02 -2.4851485322363442e+02 -1.2973200675766147e+03 -4.0866672099332515e+00 7.6544816465631378e+00 -7.0966636054997387e+00 -1.5082019209431095e+02 1.5658952062364051e+01 -3.2206478097243085e-03 -2.4686304253665730e+02 -1.6500780739378823e+02 -3.9209485007277044e+02 -1.9817226641414991e+03 1.0609726974384074e+01 -1.1022998111298380e+03 4.8753191076880373e+00 -7.8468422703553422e+00 7.1505382563844941e+00 2.1793926875072771e+01 -2.0961015878260522e+01 2.9298918500585813e-01 1.5326303811827711e+02 -2.1379554595854557e+00 -4.7332628342076305e+01 -5.0419339979346842e+02 1.0373495875235940e+02 -1.0075834479087018e+02 9.9131653933992165e+00 -5.1697882245560240e+00 -6.6583752695944423e+00 8.5351750109341924e+02 4.9135296640618549e+01 1.6121572282665628e+00 -2.0290230329917617e+02 -2.6165751327116197e+02 -6.6149810296294515e+02 -8.9461612170808849e+00 7.5658623584779218e+02 -1.9018610219130137e+03 8.8748818745819040e+00 1.9407472070656373e+00 -9.6946689312279002e+00 -1.0268625815202313e+02 3.5052317417850062e+01 5.5020382291688748e+00 1.9835096901631840e+02 3.6369952916290011e+01 1.5863348784119721e+03 1.9078943013305704e+03 -1.1357733729985603e+03 2.4239064520389243e+03 
      </Row>
      <Row Index="33">
