<?xml version="1.0"?>
<MethodSetup Method="DL::DNN_CPU">
  <GeneralInfo>
    <Info name="TMVA Release" value="4.2.1 [262657]"/>
    <Info name="ROOT Release" value="6.34/06 [401926]"/>
    <Info name="Creator" value="nlbucurur"/>
    <Info name="Date" value="Thu May  1 20:53:31 2025"/>
    <Info name="Host" value="Linux arch-nspawn-33111 6.13.6-arch1-1 #1 SMP PREEMPT_DYNAMIC Fri, 07 Mar 2025 20:19:00 +0000 x86_64 GNU/Linux"/>
    <Info name="Dir" value="/hdd/Documentos/Erasmus/Tesis/JLAB_EIC/DVCS/TMVA_studies"/>
    <Info name="Training events" value="2000"/>
    <Info name="TrainingTime" value="1.89304280e+01"/>
    <Info name="AnalysisType" value="Classification"/>
  </GeneralInfo>
  <Options>
    <Option name="V" modified="Yes">True</Option>
    <Option name="VerbosityLevel" modified="No">Verbose</Option>
    <Option name="VarTransform" modified="Yes">N</Option>
    <Option name="H" modified="Yes">False</Option>
    <Option name="CreateMVAPdfs" modified="No">False</Option>
    <Option name="IgnoreNegWeightsInTraining" modified="No">False</Option>
    <Option name="InputLayout" modified="No">0|0|0</Option>
    <Option name="BatchLayout" modified="No">0|0|0</Option>
    <Option name="Layout" modified="Yes">TANH|128,TANH|128,TANH|128,LINEAR</Option>
    <Option name="ErrorStrategy" modified="Yes">CROSSENTROPY</Option>
    <Option name="WeightInitialization" modified="Yes">XAVIERUNIFORM</Option>
    <Option name="RandomSeed" modified="No">0</Option>
    <Option name="ValidationSize" modified="No">20%</Option>
    <Option name="Architecture" modified="Yes">CPU</Option>
    <Option name="TrainingStrategy" modified="Yes">LearningRate=1e-2,Momentum=0.9,ConvergenceSteps=20,BatchSize=100,TestRepetitions=1,WeightDecay=1e-4,Regularization=None,DropConfig=0.0+0.5+0.5+0.5</Option>
  </Options>
  <Variables NVar="4">
    <Variable VarIndex="0" Expression="_mm2_eNg" Label="_mm2_eNg" Title="mm2_eNg missing Neutron" Unit="GeV" Internal="_mm2_eNg" Type="D" Min="-8.32648933e-01" Max="3.38111949e+00"/>
    <Variable VarIndex="1" Expression="_mm2_eNg_N" Label="_mm2_eNg_N" Title="mm2_eNg_N All detected" Unit="GeV" Internal="_mm2_eNg_N" Type="D" Min="-9.22752559e-01" Max="6.21411741e-01"/>
    <Variable VarIndex="2" Expression="_mm2_eNX_N" Label="_mm2_eNX_N" Title="mm2_eNX_N missing photon" Unit="GeV" Internal="_mm2_eNX_N" Type="D" Min="-1.27379923e+01" Max="6.32826185e+00"/>
    <Variable VarIndex="3" Expression="_mm2_eg" Label="_mm2_eg" Title="mm2_eg missing proton" Unit="GeV" Internal="_mm2_eg" Type="D" Min="-7.68935025e-01" Max="3.38438797e+00"/>
  </Variables>
  <Spectators NSpec="0"/>
  <Classes NClass="2">
    <Class Name="Signal" Index="0"/>
    <Class Name="Background" Index="1"/>
  </Classes>
  <Transformations NTransformations="1">
    <Transform Name="Normalize">
      <Selection>
        <Input NInputs="4">
          <Input Type="Variable" Label="_mm2_eNg" Expression="_mm2_eNg"/>
          <Input Type="Variable" Label="_mm2_eNg_N" Expression="_mm2_eNg_N"/>
          <Input Type="Variable" Label="_mm2_eNX_N" Expression="_mm2_eNX_N"/>
          <Input Type="Variable" Label="_mm2_eg" Expression="_mm2_eg"/>
        </Input>
        <Output NOutputs="4">
          <Output Type="Variable" Label="_mm2_eNg" Expression="_mm2_eNg"/>
          <Output Type="Variable" Label="_mm2_eNg_N" Expression="_mm2_eNg_N"/>
          <Output Type="Variable" Label="_mm2_eNX_N" Expression="_mm2_eNX_N"/>
          <Output Type="Variable" Label="_mm2_eg" Expression="_mm2_eg"/>
        </Output>
      </Selection>
      <Class ClassIndex="0">
        <Ranges>
          <Range Index="0" Min="-8.3264893293380737e-01" Max="2.9261479377746582e+00"/>
          <Range Index="1" Min="-8.9731335639953613e-01" Max="2.6076209545135498e-01"/>
          <Range Index="2" Min="-1.2737992286682129e+01" Max="6.3282618522644043e+00"/>
          <Range Index="3" Min="-4.7160735726356506e-01" Max="2.6638839244842529e+00"/>
        </Ranges>
      </Class>
      <Class ClassIndex="1">
        <Ranges>
          <Range Index="0" Min="-6.4220863580703735e-01" Max="3.3811194896697998e+00"/>
          <Range Index="1" Min="-9.2275255918502808e-01" Max="6.2141174077987671e-01"/>
          <Range Index="2" Min="-4.3600544929504395e+00" Max="5.5903105735778809e+00"/>
          <Range Index="3" Min="-7.6893502473831177e-01" Max="3.3843879699707031e+00"/>
        </Ranges>
      </Class>
      <Class ClassIndex="2">
        <Ranges>
          <Range Index="0" Min="-8.3264893293380737e-01" Max="3.3811194896697998e+00"/>
          <Range Index="1" Min="-9.2275255918502808e-01" Max="6.2141174077987671e-01"/>
          <Range Index="2" Min="-1.2737992286682129e+01" Max="6.3282618522644043e+00"/>
          <Range Index="3" Min="-7.6893502473831177e-01" Max="3.3843879699707031e+00"/>
        </Ranges>
      </Class>
    </Transform>
  </Transformations>
  <MVAPdfs/>
  <Weights NetDepth="4" InputDepth="1" InputHeight="1" InputWidth="4" BatchSize="1" BatchDepth="1" BatchHeight="100" BatchWidth="4" LossFunction="C" Initialization="F" Regularization="0" OutputFunction="S" WeightDecay="9.9999997473787516e-05">
    <DenseLayer Width="128" ActivationFunction="3">
      <Weights Rows="128" Columns="4">
        -5.963789e-02  3.099979e-01  -2.493104e-01  3.567785e-01  9.060457e-01  -4.785429e-01  2.197156e-01  -9.671097e-01  3.710860e-01  4.318827e-01  -3.924370e-02  6.134529e-01  1.218515e+00  -8.645057e-02  9.673310e-02  -3.961631e-01  1.124514e+00  -3.890737e-02  1.465189e-01  -4.729045e-01  -8.035061e-01  1.284681e-01  6.229333e-02  1.989605e-01  -4.428002e-01  3.725076e-01  -1.661284e-01  6.190906e-01  -1.375133e+00  1.004482e-01  -1.255197e-01  8.423300e-01  1.015204e+00  1.071896e-01  -4.623621e-02  -4.661786e-01  1.053395e+00  -2.345418e-01  -4.833969e-02  -1.340577e+00  -1.960946e-01  -3.315211e-01  8.430422e-02  -6.289851e-01  -2.932748e-01  5.702029e-01  -2.454268e-01  1.237351e+00  1.389379e-01  -4.260780e-01  3.371820e-01  -6.631786e-01  -6.542212e-01  -3.598198e-01  -1.112953e-01  -9.601815e-01  -3.182488e-01  7.272033e-01  1.440788e-01  9.055862e-01  5.401610e-01  -5.394110e-01  3.692135e-02  -8.752645e-01  1.749358e-01  -5.113227e-01  1.214681e-01  -4.420951e-01  -6.631279e-01  4.362440e-01  -2.040160e-01  1.154503e+00  1.470193e-01  3.136933e-01  -1.531856e-01  6.541243e-01  -6.180993e-01  5.737658e-02  -1.612676e-02  3.159971e-01  4.041556e-01  -1.618795e-01  1.124106e-02  1.515679e-01  3.264589e-01  -3.959415e-01  5.074281e-02  -5.661660e-01  7.372251e-01  1.920130e-01  8.761768e-02  -2.210431e-02  -8.091686e-01  3.367449e-01  -2.305055e-01  1.013080e+00  -5.810667e-01  5.967873e-01  3.404603e-02  9.857823e-01  -9.179420e-01  4.775014e-01  -1.271134e-01  9.505404e-01  -6.666996e-01  1.231928e-01  -4.400733e-02  9.855419e-01  -9.900634e-01  5.682915e-01  -2.581407e-01  1.258491e+00  -2.725002e-01  6.701712e-01  -1.977092e-01  1.401829e+00  -9.841681e-01  -6.974512e-02  -3.016409e-02  -2.966066e-01  -2.949369e-01  2.233926e-01  -1.267724e-01  3.590996e-01  -5.735604e-01  2.049393e-01  7.894289e-02  1.280518e+00  -9.476899e-01  -4.409040e-01  -6.994196e-02  -4.942199e-01  -9.279597e-01  4.396393e-01  6.845966e-02  1.238686e+00  -9.931881e-01  3.481314e-02  1.128008e-02  1.833595e-01  6.067725e-01  -2.499882e-01  1.099053e-01  -7.169140e-01  -2.560865e-01  -6.558281e-02  -2.122495e-01  2.402843e-01  -3.350595e-01  1.006478e-01  -1.566385e-01  -4.676418e-01  -9.381528e-01  -1.721489e-01  6.448991e-02  3.270140e-02  -1.911610e-01  -1.820279e-01  -5.818348e-02  -3.861458e-01  -4.032503e-01  8.666629e-02  9.261349e-02  -3.313189e-01  8.795104e-01  -2.767942e-01  8.659033e-02  2.356568e-01  8.465770e-01  -5.365549e-01  1.518222e-01  -1.311059e+00  -9.228161e-01  -5.687726e-02  4.438842e-02  8.694709e-02  8.316895e-01  -3.406606e-02  7.829776e-02  3.160482e-01  -3.603770e-01  8.293803e-01  -3.381034e-02  1.385860e+00  -1.156270e+00  -1.453648e-01  -1.825100e-01  -1.750362e-01  9.763923e-01  -5.059763e-01  1.640896e-01  -9.593541e-01  1.111649e+00  -1.471825e-01  1.966919e-01  -5.394243e-01  -1.067521e+00  2.157735e-01  -2.972452e-01  6.900888e-01  -6.913161e-02  -4.937776e-01  -4.000907e-02  -9.960340e-01  -7.982758e-01  1.563112e-01  1.117473e-02  5.264373e-01  -2.091643e-01  4.526345e-01  -1.150440e-01  1.082564e+00  1.028411e+00  -6.812560e-02  1.892658e-01  -3.790329e-01  7.981160e-01  -3.997704e-01  1.745354e-02  -1.190420e+00  2.620147e-01  -4.138318e-01  1.270798e-01  -1.019722e+00  -8.789287e-01  4.498509e-01  4.856887e-02  1.087102e+00  -1.154025e+00  3.607737e-02  -2.849937e-01  -8.252108e-03  9.796467e-01  1.343870e-02  2.223046e-01  1.491882e-01  -1.161318e+00  1.102144e-01  -2.613175e-01  5.261603e-02  -8.397078e-01  -3.804679e-01  -1.195965e-01  -1.930854e-01  3.872374e-01  -2.261273e-01  -1.349895e-01  -4.760917e-01  -1.098121e+00  1.994049e-01  -2.542193e-01  9.257302e-01  -1.110690e+00  3.625242e-03  -1.057232e-01  9.716273e-01  -2.981337e-02  -3.884870e-01  1.399561e-03  -8.308468e-01  9.861155e-01  -2.395274e-01  1.825152e-01  -5.742525e-01  8.789053e-01  -1.036942e-01  -2.157651e-02  -3.204455e-01  1.145252e+00  -1.954671e-01  -5.915176e-02  -1.028795e+00  -1.134976e+00  -1.012147e-02  -1.175208e-01  -8.226693e-02  -3.011423e-01  4.303192e-01  2.630829e-02  5.455636e-01  -1.102916e+00  2.037385e-01  -1.876146e-01  7.236145e-01  -8.788286e-01  3.195450e-01  -2.975341e-01  1.082616e+00  8.941826e-01  -1.238402e-01  -7.629296e-02  -7.762953e-02  7.018899e-01  -1.625932e-01  2.766263e-01  -1.778555e-01  1.212667e+00  1.941472e-01  1.179775e-02  -1.113222e-01  1.186674e+00  -3.142861e-01  3.009940e-01  -9.423651e-01  -6.609228e-01  -9.721636e-02  -5.092895e-02  2.042130e-01  -1.995365e-01  -1.579831e-01  -2.125519e-01  -3.255621e-01  1.102820e+00  1.528144e-01  4.948374e-02  -3.871510e-01  -4.182887e-01  -4.945763e-01  3.606603e-03  -2.570381e-01  9.046640e-01  -2.042130e-01  1.144340e-01  -3.258697e-01  -5.435377e-01  -2.319451e-01  -1.372292e-01  -1.668178e-01  5.774233e-01  3.384447e-01  9.967618e-02  6.265626e-01  8.916445e-01  -1.800422e-01  3.591339e-02  -1.033925e+00  -2.944725e-01  -4.764097e-01  2.123486e-03  -6.574906e-01  1.085596e+00  -2.696082e-01  4.805800e-02  -1.397137e+00  9.317594e-01  8.938453e-02  1.259209e-02  -1.880345e-01  -2.360551e-01  2.946012e-01  1.529510e-01  5.391845e-01  8.750213e-01  -6.595437e-03  2.298297e-01  -3.547178e-01  4.303204e-01  2.896170e-01  -5.657823e-02  1.587845e-01  -9.196725e-01  -2.348067e-01  -6.218956e-02  -3.677926e-03  7.018871e-01  -3.768283e-01  1.051484e-02  -9.914848e-01  9.379829e-01  -1.869586e-01  -1.070509e-02  -6.406168e-01  -1.025532e+00  2.828860e-01  -2.124729e-01  3.434782e-01  -8.684452e-01  4.440548e-01  -5.936119e-02  1.171014e+00  -8.768746e-01  -3.027612e-01  -1.841111e-01  -3.333456e-01  -1.230026e+00  4.946150e-02  -2.088124e-01  5.726962e-01  6.977642e-01  -3.449243e-01  1.500287e-01  -1.401120e+00  1.129314e+00  -3.282553e-02  2.170384e-02  -5.459747e-01  1.199487e+00  -3.271954e-01  6.486800e-02  -1.276896e+00  2.303522e-01  -5.428398e-01  1.924173e-01  -1.140764e+00  1.046657e+00  -2.638992e-01  3.878248e-02  -2.470413e-01  3.917248e-01  3.114684e-02  9.468770e-02  -3.789083e-01  -1.203365e+00  -7.819307e-02  -2.310994e-01  -3.070401e-02  5.542201e-01  -1.218618e-01  -1.072379e-01  -4.897006e-01  9.190798e-01  -3.684232e-01  3.771115e-02  -1.176620e+00  1.057460e+00  -2.565852e-01  1.512394e-01  -5.237134e-01  -9.443979e-01  2.069990e-01  -1.911439e-01  9.089500e-02  -1.284297e+00  -6.653706e-02  -2.336224e-02  9.002652e-02  1.156442e+00  -3.247896e-01  2.282861e-01  -1.269487e+00  1.074744e+00  -3.674945e-01  2.604459e-01  -4.586109e-01  1.103510e+00  -2.502347e-01  2.809630e-01  -5.246824e-01  1.009094e+00  6.501101e-03  1.806656e-01  -3.943669e-01  -1.149156e+00  -7.664038e-02  -2.656420e-02  4.310243e-01  9.937027e-01  -2.463617e-01  -3.974240e-02  -1.126243e+00  -7.109113e-02  6.757625e-01  -1.398903e-01  8.714665e-01  -9.571053e-01  -1.834155e-02  1.388684e-01  -1.076691e-01  7.968832e-01  -2.095893e-01  -3.529713e-02  -7.224234e-01  2.149115e-01  6.522058e-01  -1.341769e-01  1.037244e+00  -2.175292e-01  1.323334e-01  4.409134e-02  8.123431e-01  -7.317929e-01  4.191678e-01  -2.438697e-01  1.106136e+00  9.585679e-02  -3.641577e-01  8.354171e-02  -1.011584e-01  1.096380e+00  -3.921410e-02  1.037028e-01  -1.837559e-01  -7.467857e-01  -9.895726e-02  -6.772546e-02  -1.904127e-01  5.423169e-01  -1.376129e-01  2.519585e-01  -1.948446e-01  4.570710e-01  -3.765520e-01  1.395881e-01  -1.145707e+00  -6.547508e-01  5.662635e-01  -1.551992e-01  1.311134e+00  -6.176063e-01  7.235612e-02  -1.089649e-02  -4.589105e-01  
      </Weights>
      <Biases Rows="128" Columns="1">
        6.906706e-02  -1.828533e-01  6.528497e-02  1.953128e-01  -1.793107e-01  4.727656e-02  -1.598526e-02  -1.064246e-01  -5.616288e-02  -2.187930e-02  1.587325e-01  -1.567116e-01  -7.375968e-02  -7.477350e-02  -1.946514e-01  6.536613e-02  9.661006e-02  4.357716e-02  -1.035658e-01  -1.559118e-02  7.527637e-02  4.028228e-02  1.114668e-02  9.910077e-03  -1.566557e-01  1.428037e-01  -5.142805e-03  4.849805e-02  9.302346e-02  -1.349036e-01  2.502321e-01  -1.683635e-01  -1.091106e-01  1.523089e-02  3.310758e-02  1.366064e-02  9.900177e-02  1.148447e-01  -2.221521e-01  1.806898e-01  -1.669798e-01  -3.046809e-01  2.940563e-02  -1.593815e-01  -2.317435e-01  -5.224820e-03  -8.219819e-02  -1.239510e-01  -1.310080e-01  -5.233997e-03  -7.971384e-02  -2.960274e-02  -1.023556e-02  -1.342465e-01  -7.182162e-02  2.227016e-01  -2.890418e-02  -7.486158e-02  6.257959e-02  -2.031260e-01  -6.972467e-02  1.159474e-01  5.596896e-02  4.373834e-02  2.305452e-01  2.006056e-01  -1.233004e-01  -6.085451e-02  -3.167158e-01  -1.610438e-01  2.101690e-01  7.636356e-02  -7.162883e-02  -1.486463e-01  1.543748e-01  7.835539e-02  1.224217e-02  2.483222e-01  -1.746641e-02  5.375803e-02  -3.858221e-03  1.276636e-03  -1.478518e-01  -4.911803e-03  1.200191e-01  -7.380929e-02  1.457665e-01  -1.142442e-01  2.508440e-02  9.242678e-02  -1.955281e-01  -3.585484e-02  9.300634e-02  1.204644e-01  6.510743e-02  -1.300112e-01  1.299189e-01  -1.520049e-01  -1.251584e-02  -8.742748e-02  -2.621029e-01  -1.163769e-01  -1.367867e-01  -1.585729e-01  1.681173e-01  -2.680029e-03  -4.942507e-02  5.881000e-02  -2.797764e-01  -1.433533e-01  -1.264320e-01  -3.483178e-03  -1.172753e-01  -2.791177e-02  1.291650e-01  2.752237e-02  1.738281e-01  6.391863e-02  -2.346831e-01  -3.200852e-02  7.804119e-02  2.452188e-01  -4.456003e-02  1.255191e-01  -3.419268e-02  -1.665094e-03  9.364197e-02  1.752662e-01  
      </Biases>
    </DenseLayer>
    <DenseLayer Width="128" ActivationFunction="3">
      <Weights Rows="128" Columns="128">
        -4.733382e-02  2.841062e-01  -1.991943e-01  1.343415e-01  -4.067573e-01  2.213756e-02  -2.248711e-01  -4.354504e-01  -1.583918e-01  5.481681e-01  4.468604e-01  -2.353594e-01  1.805390e-01  -8.340134e-02  -2.701711e-01  2.774598e-01  2.155323e-01  -7.384637e-01  -1.793232e-01  -2.645846e-02  9.784779e-02  1.723225e-01  -1.934930e-01  -5.082440e-01  -5.222528e-01  -1.678832e-01  -2.076187e-01  -5.309337e-01  -6.452903e-01  1.024357e-01  -7.064680e-01  -8.692967e-01  -1.121369e-01  -3.807497e-01  -1.909029e-01  3.265142e-01  5.340666e-02  2.022176e-01  -4.063617e-01  5.268558e-01  4.377950e-02  -8.354377e-02  8.908441e-01  -3.346828e-02  -3.041789e-01  -6.931660e-01  -6.561514e-02  2.584497e-01  -3.039764e-01  -5.149403e-01  3.122714e-01  1.546928e-02  -5.215374e-01  5.715723e-02  5.738506e-01  2.389419e-01  -4.403489e-01  7.781821e-03  -1.424433e-01  -2.661725e-01  2.953459e-01  1.946437e-01  -1.657945e-01  -6.067541e-01  2.824462e-01  3.623725e-01  -3.259463e-01  3.762556e-01  -7.757879e-01  -2.066344e-01  8.299231e-02  -2.244145e-01  -7.458388e-02  -4.625625e-02  1.660921e-02  4.192940e-01  -7.856675e-02  4.586257e-01  2.946630e-01  1.769324e-01  -2.874259e-01  -4.587442e-02  -2.661654e-01  5.674021e-01  1.539339e-01  6.773677e-01  -2.966038e-01  7.295619e-02  1.569517e-01  -2.365432e-01  3.625145e-01  2.244799e-01  2.242598e-02  6.368451e-02  -2.997386e-01  2.682948e-01  -9.782437e-02  2.728952e-01  5.333638e-02  6.112385e-01  4.346042e-01  -1.531787e-01  -5.726552e-02  -1.024942e-02  2.167008e-01  5.997539e-01  2.388570e-01  1.742989e-01  -3.889479e-02  4.223907e-01  -3.869772e-01  1.393971e-01  2.625500e-02  -1.253206e-01  5.567288e-01  -2.157518e-01  3.323330e-01  5.203035e-01  -2.791875e-01  -2.083193e-01  -5.172516e-02  -2.431007e-02  -2.746655e-01  -9.299865e-02  3.426127e-01  7.203366e-01  -8.408608e-01  3.544934e-02  -1.467760e-02  5.212390e-01  -2.541443e-01  -3.388809e-01  2.462973e-01  1.639010e-01  -3.362199e-01  9.145032e-02  -1.028914e-01  2.699789e-01  1.692781e-01  -4.504848e-01  2.252139e-01  3.964873e-01  -2.399008e-01  -1.633638e-01  -4.687062e-02  -4.060936e-01  9.523699e-02  -1.420985e-01  -1.395334e-01  2.201743e-01  -2.791311e-01  -4.867985e-01  -3.821363e-01  -4.988424e-01  -2.367221e-01  -2.116153e-01  -3.620333e-01  4.337081e-01  -1.322077e-02  1.561063e-01  5.074399e-01  -2.049861e-01  6.397398e-01  5.349642e-02  -2.021789e-01  1.279015e-01  1.912575e-01  2.414484e-01  1.102019e-01  -4.423457e-01  5.834730e-01  2.487171e-01  6.703077e-02  -4.819588e-01  3.140118e-01  -7.164624e-02  4.813726e-02  7.345945e-02  2.720656e-01  1.099532e-01  -5.795831e-01  -1.297858e-01  -3.232536e-02  -2.652006e-01  -2.115526e-02  5.828602e-01  -5.595723e-01  7.900342e-01  3.604212e-01  7.520469e-02  1.088101e-01  2.177463e-02  -5.745484e-02  -1.154417e-02  -1.552063e-01  3.294004e-01  7.256622e-01  -1.589317e-01  -8.040313e-02  -8.063806e-02  1.736219e-01  1.238814e-01  -4.642245e-01  3.840312e-01  1.112606e-01  -1.878467e-01  -3.098040e-01  2.125717e-01  5.392949e-02  1.825256e-01  2.097640e-01  2.231001e-01  5.762804e-01  7.933664e-01  -1.717343e-01  -2.624590e-01  7.311884e-02  -7.607806e-02  -6.045622e-02  3.518581e-02  2.576903e-02  -4.555418e-01  -3.469698e-01  5.785119e-02  -1.688536e-02  5.872104e-01  -4.307720e-01  3.442780e-01  4.053124e-01  4.834161e-02  1.610897e-01  6.409578e-01  1.194834e-01  4.798206e-01  3.204964e-01  3.483758e-02  9.697097e-02  3.249361e-01  5.657915e-02  -1.392084e-01  9.356129e-02  2.968221e-01  1.462685e-01  -5.721533e-01  -2.123489e-02  -4.408619e-02  -3.809044e-01  4.984458e-02  -4.056126e-01  7.927255e-02  -4.630572e-02  3.351054e-01  2.410526e-01  -4.471224e-02  -4.115646e-01  -3.452252e-01  3.962296e-02  -2.239333e-01  2.750379e-01  -2.480513e-01  -2.446671e-01  2.848217e-01  -1.783738e-02  6.800053e-01  -3.148226e-01  -7.654785e-01  -1.364849e-01  -9.128524e-02  -9.920487e-02  1.694874e-02  -3.095814e-01  -6.047795e-02  1.501476e-01  4.176872e-01  4.451668e-02  3.335594e-01  -2.014570e-03  9.737296e-02  9.518704e-02  1.770125e-01  -9.602313e-02  7.641441e-02  3.236614e-01  4.226590e-01  2.937742e-01  2.441049e-01  -1.945807e-02  3.891990e-01  9.313666e-02  1.922611e-01  2.633148e-01  -2.117729e-01  -1.239121e-01  -4.818430e-02  -6.229573e-02  1.244973e-01  -2.951344e-01  1.236955e-01  -4.039014e-01  1.957881e-01  -4.781760e-02  4.156647e-01  3.666413e-03  -5.949704e-01  -5.472553e-01  3.469034e-01  -4.990971e-02  2.900390e-01  3.254550e-01  -1.150141e-01  -4.899937e-01  7.539518e-03  3.366664e-01  1.389172e-01  2.069150e-01  5.018663e-01  2.759874e-01  6.574499e-02  4.520685e-01  5.994920e-01  3.291645e-02  1.901466e-01  7.770484e-02  -1.571430e-01  2.634237e-01  3.107332e-02  -5.854718e-02  2.564327e-01  -2.355558e-01  6.635489e-03  -2.148715e-01  2.893355e-02  1.411491e-01  -4.209565e-02  -2.648685e-01  -3.344060e-02  4.049214e-02  1.839512e-01  -5.234301e-02  -4.164652e-01  2.382269e-01  -8.794608e-01  -2.320235e-02  -8.188895e-02  -2.001132e-01  2.594457e-01  4.863319e-01  -4.308762e-01  -1.460496e-01  1.574984e-01  2.599196e-01  1.224243e-02  4.467816e-01  -1.033112e-01  -1.811110e-01  -6.714140e-01  -3.009502e-02  -1.038413e-01  3.550412e-03  1.731138e-01  3.091137e-01  -3.580533e-01  -4.879084e-01  3.895063e-01  -4.607756e-02  -6.928006e-01  -1.869696e-01  -3.443113e-01  -3.908827e-01  2.824015e-01  1.358754e-02  2.117914e-01  2.915677e-04  1.820764e-02  8.576016e-02  -2.024377e-01  3.314115e-01  -7.827269e-02  4.545434e-02  -2.790870e-02  -2.691166e-01  8.569411e-02  6.295343e-01  -2.683643e-01  -1.379472e-01  -1.961816e-01  -2.333197e-01  -5.036170e-01  -1.399879e-01  1.277376e-01  3.090122e-01  5.866529e-01  -3.767227e-02  -4.969942e-01  -4.457582e-01  -1.945542e-01  -1.745037e-01  2.810798e-01  4.195229e-02  -3.734486e-01  8.371717e-02  3.454386e-01  2.500699e-01  3.393638e-01  7.821569e-02  -5.868740e-02  -2.200620e-01  2.428768e-01  2.755645e-01  1.371424e-01  8.903925e-02  3.073711e-01  -2.554914e-01  -1.155389e-01  -5.359521e-01  6.472682e-01  -2.298774e-02  2.313702e-01  -3.787597e-01  -1.143182e-01  -3.140062e-03  -3.060173e-02  7.776053e-01  -7.098532e-02  4.021764e-02  9.564240e-03  -4.244500e-01  1.590475e-01  -8.076309e-02  2.602122e-01  5.418426e-02  -2.065136e-01  5.977684e-02  1.350004e-01  1.987734e-01  2.612969e-01  6.072351e-02  -2.931806e-02  -2.338655e-01  -5.772899e-01  1.845907e-01  5.346560e-01  -6.330888e-02  7.713560e-01  3.558100e-01  -1.272867e-01  4.416963e-01  1.655201e-01  -4.352961e-01  -3.201671e-01  -1.396209e-01  1.745618e-01  6.846054e-01  2.340546e-01  1.637693e-01  2.686434e-01  -2.561691e-01  -7.708163e-02  -2.180129e-01  -7.698282e-01  1.164186e-01  -2.856501e-01  -1.081318e-02  1.035393e-01  -1.480857e-01  2.111805e-01  -2.607988e-01  -1.814517e-01  2.268703e-01  -6.458656e-01  -4.649616e-01  -6.758278e-02  -8.157977e-02  2.034684e-02  4.249140e-01  -1.722185e-01  -4.473748e-01  4.391209e-01  3.107036e-01  7.842159e-02  2.950408e-01  -7.430235e-02  -3.407349e-01  -1.560951e-01  1.528760e-01  7.467693e-02  -4.583224e-02  3.170443e-01  -2.072076e-01  -3.722965e-01  -3.080527e-01  1.420236e-01  5.343345e-01  -4.849721e-01  -1.554905e-01  -3.804548e-01  -8.054166e-02  1.860836e-01  -5.122219e-01  3.530401e-01  -1.644585e-03  -2.688060e-01  2.894205e-01  8.979172e-02  4.197255e-01  -3.759722e-01  -3.613586e-01  4.486542e-03  1.723394e-02  -2.050495e-01  -1.000202e-01  1.515818e-01  -8.712737e-02  2.209843e-01  2.301337e-01  6.824549e-01  9.542754e-02  -9.913223e-02  -4.763135e-02  -1.008097e+00  4.660594e-01  1.031958e-01  -1.682442e-01  2.536816e-01  5.910280e-02  -4.219916e-01  2.091068e-01  1.390618e-01  7.683903e-03  -1.758965e-02  3.424398e-02  -3.322457e-01  1.981170e-01  -7.087265e-02  -7.076953e-02  -1.996263e-01  1.785258e-01  -1.612221e-01  2.359886e-02  -1.318779e-01  -2.909810e-01  -3.597414e-01  4.604436e-01  8.686172e-02  -2.888578e-01  -3.507989e-01  -3.105513e-01  7.485265e-02  1.331729e-01  -1.141736e-01  -1.249260e-02  -2.027220e-02  -2.800938e-01  -1.829186e-01  1.512130e-01  -4.655280e-01  -1.443810e-01  5.276766e-02  -3.382940e-01  2.214590e-01  5.311121e-01  -2.549137e-01  -2.481508e-01  -2.587358e-01  1.020840e-01  4.148783e-01  3.034942e-01  -7.316534e-02  -3.685935e-01  -4.399036e-01  3.636299e-01  -3.047068e-01  -2.977662e-01  4.638721e-02  -1.662313e-01  -4.701508e-01  5.482030e-02  4.750970e-01  4.869487e-02  5.697597e-01  -3.684860e-01  -1.329844e-01  -1.767230e-01  -3.190616e-01  6.338793e-02  3.398196e-01  3.268543e-01  6.304547e-01  -1.321040e-02  -1.678917e-01  2.575094e-01  1.140185e-01  2.664025e-01  -1.862325e-01  2.514066e-01  2.313467e-01  -1.489237e-02  4.316446e-01  1.963707e-01  -2.066431e-01  3.310476e-01  2.049885e-01  -3.069986e-01  -1.404343e-01  2.938685e-01  -2.775547e-01  -1.554531e-01  -1.223451e-01  -4.522581e-01  1.518446e-01  5.059841e-01  3.461847e-01  -8.422125e-02  2.244966e-01  -3.303025e-02  -3.149841e-01  9.372756e-02  -2.440491e-02  4.153720e-01  -9.464934e-02  -2.501208e-01  5.198057e-01  3.578993e-01  6.842337e-01  2.739763e-01  -3.963134e-01  2.979718e-01  8.174403e-02  1.397738e-01  3.078698e-01  1.077924e-02  -6.890903e-02  -2.616972e-01  2.012431e-01  2.011536e-01  -3.215510e-02  -1.602844e-02  1.540062e-01  -3.586909e-01  1.873830e-01  5.435429e-01  -2.960202e-01  5.279890e-01  5.537043e-01  7.193994e-03  -2.307985e-01  2.768477e-01  -4.470682e-01  5.109330e-02  2.589311e-01  -1.696004e-01  4.234431e-01  -5.422494e-01  -7.005751e-01  3.213074e-01  -2.335663e-01  -4.029308e-01  3.131989e-01  1.505348e-01  4.884919e-02  1.535183e-01  -1.665724e-01  9.920103e-02  2.937975e-01  3.717461e-01  3.084863e-01  2.730494e-01  4.698526e-01  8.161293e-01  -2.308308e-01  3.115561e-01  -1.563172e-01  -5.940380e-01  3.609124e-01  -1.619172e-01  -2.764843e-01  7.594886e-02  9.726492e-02  -2.757901e-01  3.447391e-02  -3.558549e-01  -5.480786e-02  -5.240285e-01  -3.443281e-01  1.258319e-04  9.428759e-01  -4.508790e-01  -4.400482e-01  5.218058e-02  -1.275733e-01  -6.331391e-01  -9.086205e-02  6.151922e-01  -3.071385e-02  -5.523740e-01  -1.402294e-01  -7.810232e-02  -5.019399e-01  4.795468e-01  -4.475819e-01  -5.107432e-01  5.588419e-02  2.950096e-01  -2.413664e-01  -5.775779e-02  1.095409e-01  1.192373e-01  -2.717949e-02  -2.362101e-01  -9.077372e-02  -8.848064e-02  1.103043e-01  -1.420546e-01  2.052262e-01  3.228517e-01  -1.861913e-01  -1.700539e-01  -4.681066e-04  5.885798e-01  -3.449541e-01  2.582857e-01  -1.943107e-01  4.969649e-01  2.483926e-01  -2.512777e-01  -2.601155e-01  7.559392e-03  -2.533992e-01  9.519823e-02  6.202767e-02  -4.322331e-01  -1.211584e-02  7.162662e-02  3.251755e-01  6.647081e-02  -5.400057e-01  -2.231900e-01  -6.433744e-01  2.014881e-01  -4.545414e-01  -4.279332e-01  -3.805055e-01  -2.682858e-01  -5.271188e-01  3.997199e-01  -1.685877e-01  -2.856447e-01  6.298552e-02  -3.240414e-01  3.941708e-02  -2.782057e-01  -5.616533e-04  8.358855e-02  -5.046574e-01  2.454363e-01  4.268551e-01  6.169381e-02  4.368305e-02  3.148636e-01  -2.344791e-02  2.736683e-01  2.213477e-01  -4.880994e-02  -6.592802e-02  3.773038e-02  -3.790324e-01  6.525801e-02  -2.033034e-02  3.711390e-02  -2.114863e-01  2.453703e-01  3.721501e-01  -5.603172e-02  6.540354e-02  1.932166e-01  -3.125935e-01  -6.802045e-02  -1.545336e-01  2.434390e-01  7.410810e-02  7.934505e-02  -2.529823e-01  -1.393204e-01  5.896088e-02  8.087792e-02  9.787554e-02  -1.912467e-01  -1.916068e-01  -4.396356e-02  4.507364e-02  8.215278e-02  7.275159e-02  6.091861e-02  2.394031e-01  -8.981639e-02  -3.091889e-01  -6.588613e-02  -2.358349e-01  8.736289e-02  1.059108e-01  -1.823010e-01  1.725202e-01  -4.513251e-01  7.164430e-02  6.076697e-02  -8.821596e-02  -1.584297e-01  1.209271e-01  -4.024341e-01  -3.185576e-01  -7.210735e-02  -1.639793e-01  -1.279896e-01  2.680720e-01  -2.727331e-01  -3.153872e-01  9.775506e-02  -3.037656e-01  -5.182891e-01  -8.141309e-02  -6.109092e-02  -1.221472e-01  -3.221797e-01  1.107850e-01  -3.523253e-03  -5.783178e-01  2.155769e-01  -5.475050e-01  -2.034340e-01  -1.447571e-01  -1.573910e-01  -1.417059e-01  5.320583e-01  3.420716e-01  -6.255816e-03  -1.378433e-01  -2.506391e-01  1.156816e-02  1.099268e-01  -1.837005e-01  -4.356889e-01  -3.880476e-01  3.668616e-01  5.951411e-01  1.396897e-01  1.841053e-01  3.608801e-01  -1.577103e-01  1.858138e-01  -3.710034e-02  1.060254e-01  9.460545e-02  8.286224e-02  1.600617e-01  1.416925e-01  -9.930851e-02  1.204429e-01  -2.133134e-02  -4.885536e-01  -5.569953e-02  2.951188e-02  1.174169e-02  -1.014841e-02  -1.716736e-01  -3.186926e-01  -5.695971e-02  1.091298e-01  -1.587633e-01  -2.445995e-01  6.652863e-02  -5.821978e-02  -4.058506e-01  9.557478e-02  -2.729254e-01  1.296914e-01  4.254855e-01  -2.955422e-01  2.879607e-01  -3.759534e-02  1.009409e-02  2.187750e-01  -3.050458e-01  -3.121980e-02  1.190324e-01  2.778105e-01  2.675963e-01  -4.929001e-02  7.380384e-02  6.999879e-02  5.983421e-01  3.459501e-02  2.039648e-01  7.079443e-02  -2.178206e-01  2.355736e-01  3.629003e-01  -2.927096e-02  4.009668e-01  2.684195e-03  -6.900534e-03  1.560761e-01  -3.437461e-01  -1.351678e-01  -3.483657e-01  3.080153e-01  6.909643e-01  6.738329e-02  1.018946e-01  4.111519e-01  5.488211e-02  -8.378162e-02  4.143560e-01  1.893133e-01  -3.882511e-01  -2.255025e-01  4.124326e-02  -2.340406e-01  2.431821e-01  -9.798303e-02  -3.424116e-01  1.296787e-01  -2.632147e-01  -4.223601e-01  -9.402867e-01  -2.926954e-01  4.372168e-02  -3.258076e-01  -2.496524e-01  -2.444326e-01  -5.184354e-01  -2.800773e-02  7.549678e-02  -1.976353e-01  2.687777e-01  1.405960e-01  -1.575877e-01  2.175871e-01  1.418179e-02  5.833811e-01  2.834048e-01  -1.795010e-01  -2.857016e-01  -2.748182e-01  3.874820e-01  7.052298e-01  -1.979991e-01  2.638805e-01  -1.623911e-01  -3.709495e-01  1.883439e-01  4.041879e-01  3.729086e-01  -3.708421e-01  8.712196e-02  1.358316e-01  1.560427e-01  -3.052267e-02  -3.970302e-02  -5.564412e-01  -4.031225e-01  2.269581e-01  3.034308e-02  2.638684e-02  7.640896e-01  1.489446e-01  -2.406294e-01  -1.821747e-01  -5.831878e-01  1.370953e-01  -1.080233e-01  3.446285e-01  7.324347e-01  1.000662e-02  -4.226252e-02  1.818925e-01  -9.119932e-02  8.301330e-02  2.719879e-01  -2.413536e-01  6.980861e-01  2.126313e-01  1.057648e+00  4.215806e-02  4.586454e-02  7.855220e-02  8.633153e-02  -2.745297e-02  3.834610e-01  2.522460e-01  -3.585733e-01  -5.207295e-01  1.642418e-01  -4.404839e-01  4.932035e-01  -1.982910e-01  1.093197e+00  4.103118e-01  1.442143e-01  2.531530e-02  7.610523e-02  3.382134e-01  6.139104e-01  1.160385e-01  -7.544938e-02  3.150948e-01  6.877642e-01  1.148696e-01  -1.406720e-01  8.363166e-02  -4.480869e-02  8.680932e-03  -1.678968e-01  3.979820e-02  3.502970e-01  -6.452268e-02  -9.216158e-02  -2.617790e-01  6.601277e-02  2.669334e-01  -4.781110e-02  1.782357e-01  2.524012e-01  -1.889825e-01  4.425626e-01  3.115886e-01  -4.578778e-01  4.496503e-01  -2.043910e-01  -1.031618e-01  1.044942e-01  4.511993e-02  9.823415e-02  -2.590478e-01  -9.197367e-01  -2.762767e-01  -1.146157e-01  -1.205623e-01  1.206144e-02  2.589615e-02  -4.838796e-01  5.650789e-03  4.062872e-01  -1.265787e-01  -2.496706e-01  2.674057e-01  -2.938457e-02  -1.526519e-01  4.338304e-01  3.507489e-01  5.210629e-01  2.308116e-01  7.778625e-01  3.396005e-01  1.524880e-01  1.255924e-01  1.024541e-02  -3.396150e-01  3.855149e-01  3.092369e-01  -9.201213e-02  1.043609e-01  -7.704212e-02  -8.977057e-02  2.942717e-02  -4.282411e-01  -2.511425e-03  -7.871056e-01  -1.631774e-01  -4.313154e-02  3.373397e-01  -1.915745e-02  -5.708582e-01  -1.419125e-01  2.884816e-01  -2.845668e-01  7.225359e-02  4.116875e-01  -9.379663e-02  -6.701138e-01  -2.259570e-01  3.703061e-01  -3.000973e-02  5.847177e-02  -1.400126e-01  1.535822e-01  1.163469e-02  3.562719e-01  4.525798e-01  -1.580893e-01  1.640545e-01  1.355710e-01  -3.626787e-01  2.559175e-01  1.418186e-01  4.030786e-01  3.157382e-01  2.014854e-02  -8.309534e-02  -1.637350e-01  -1.328923e-01  -9.597397e-02  1.550953e-01  -1.491166e-01  -6.949802e-02  -2.774358e-01  1.045721e-01  1.371094e-01  -3.846497e-01  -1.796038e-01  -1.128224e+00  7.947296e-02  -1.278059e-02  -8.210571e-02  -5.315709e-02  -1.056344e-01  -1.736894e-01  -6.136582e-02  -5.958221e-03  7.477439e-01  -6.494298e-02  3.944331e-01  -5.688263e-01  7.007451e-02  -9.553857e-01  -3.666906e-01  1.361791e-01  -9.012126e-02  1.544025e-02  -1.711654e-01  -5.868322e-01  -1.370762e-01  1.707559e-01  -8.425004e-02  -6.349175e-01  -1.408050e-01  -1.322020e-01  -4.032377e-02  1.593605e-01  -1.312088e-01  2.644756e-01  -1.980714e-01  -5.587133e-02  1.291050e-01  2.053793e-01  6.443643e-01  -3.422437e-02  1.643598e-02  -1.811158e-01  -6.197256e-03  -4.535093e-01  6.758522e-01  -3.734135e-01  -9.807221e-02  -2.444623e-02  -4.575209e-01  9.792557e-02  -3.095579e-02  -1.182832e-01  -2.874604e-01  -8.385283e-01  1.035023e-01  4.686244e-01  4.997045e-01  -2.611982e-01  1.808494e-01  1.202442e-01  -6.757991e-01  4.810896e-01  6.281245e-02  -2.436924e-01  -7.389123e-02  2.602585e-01  -6.310604e-02  -7.736417e-02  -9.690134e-02  -4.364989e-01  -6.191467e-01  -1.656413e-01  -4.429063e-01  -7.460334e-01  -2.265923e-01  -1.799570e-01  2.205223e-01  -6.786377e-01  3.731732e-01  -3.816195e-01  1.664254e-01  3.332237e-01  1.070866e-01  2.448318e-01  9.474958e-02  1.245268e-01  -1.736396e-01  -3.341599e-01  7.532468e-01  -2.272691e-01  8.728027e-02  -1.694872e-01  3.150251e-01  1.375577e-01  4.049906e-02  -3.125701e-01  4.735380e-01  1.870365e-01  -5.281390e-01  -2.030036e-01  1.719822e-01  6.218204e-01  -2.879202e-01  4.226790e-02  -1.367204e-01  1.921843e-02  -1.375995e-01  1.013156e-01  -2.790811e-01  -4.097847e-02  4.151740e-01  7.857093e-02  -1.710572e-01  -9.102629e-02  -3.517992e-01  -2.544752e-01  1.870007e-01  -2.812817e-01  2.823020e-02  -1.595194e-01  -9.897063e-02  4.648986e-01  1.721971e-01  5.358982e-01  4.783216e-02  4.815489e-01  2.075540e-01  -9.047312e-02  -1.144279e-01  -8.153463e-02  4.878164e-01  1.163757e+00  2.209461e-03  -9.447559e-02  2.192128e-02  2.960187e-02  3.464132e-01  1.206298e-01  2.020213e-01  -9.349718e-02  -4.532678e-01  1.668818e-01  2.208842e-01  6.014135e-01  -1.419614e-01  7.369679e-01  1.796608e-01  -8.196308e-02  -1.290608e-01  -9.387533e-02  3.682803e-01  7.794067e-01  -8.077593e-02  -2.401990e-01  -4.472183e-01  4.632886e-01  1.577478e-01  -1.439220e-01  -2.565254e-01  -1.411732e-01  3.650618e-01  -3.766380e-01  3.801999e-01  1.525753e-01  -4.560208e-01  -2.088838e-01  -2.393658e-01  7.578822e-01  6.065740e-02  1.679829e-01  -1.281907e-01  3.805351e-01  -5.323062e-01  2.127524e-01  -1.367109e-01  1.936787e-01  2.226404e-01  3.545966e-01  -3.777572e-01  1.029498e-01  2.858513e-02  -6.850628e-01  1.632140e-01  -5.628974e-03  1.495218e-01  -1.614796e-01  4.606254e-02  -3.035662e-01  -1.544069e-01  -7.053690e-03  -2.096238e-03  -1.461878e-01  -3.905545e-01  -2.255538e-01  1.287748e-01  9.199743e-03  -5.078004e-02  -5.824156e-02  3.170504e-01  3.216287e-01  -1.861646e-01  2.476284e-03  -1.167216e-01  -1.496923e-01  2.103612e-01  9.482297e-02  -1.473822e-01  2.338399e-01  6.025921e-02  2.168130e-01  -2.345583e-01  -1.428011e-01  -3.497551e-01  2.642974e-01  -9.515151e-02  -4.368636e-02  2.484186e-01  -4.665149e-01  -1.026147e-01  1.186454e-01  -5.949290e-01  -7.488242e-02  2.619103e-01  -3.159538e-01  -3.090414e-01  1.519592e-01  -1.345106e-01  1.226583e-01  6.213938e-02  5.848970e-01  1.123526e-01  -4.043623e-01  6.016666e-02  -3.924735e-01  -2.318089e-01  -2.728368e-01  -5.657601e-01  -2.454071e-01  1.181030e-01  6.774076e-01  -3.006333e-01  7.509100e-02  -2.914314e-01  7.068709e-02  1.072879e-01  -4.089190e-01  -4.029492e-02  1.752642e-01  3.884670e-01  9.051122e-01  -5.568571e-02  1.690183e-01  3.231785e-01  -1.487451e-01  1.394970e-02  -2.691723e-02  -7.380518e-02  -1.545110e-01  8.246889e-02  4.127662e-01  2.600016e-01  -1.690291e-01  2.460535e-01  2.282722e-01  -2.461555e-01  -2.836287e-02  1.342247e-01  -3.285901e-02  7.322147e-02  -2.853224e-01  -3.401478e-01  -7.030082e-03  2.450403e-01  6.830853e-02  -7.937016e-02  1.949160e-01  -1.898414e-03  -3.003026e-01  -6.886962e-02  -9.047965e-03  4.358367e-01  3.296638e-01  -3.507900e-01  7.876272e-02  -5.223872e-02  2.048781e-01  1.753418e-01  -2.400650e-01  4.958973e-01  -4.678559e-02  2.830273e-01  4.069548e-02  -2.451748e-01  1.209757e-01  -1.613833e-01  7.538042e-01  -4.913858e-02  -1.341475e-01  -1.999451e-02  -9.123433e-02  -1.368680e-01  4.514346e-01  -1.072430e-01  9.318691e-02  4.503044e-01  -8.652851e-02  3.527045e-01  -1.042301e-01  -2.616334e-01  -2.163025e-01  5.342268e-01  -1.230631e-01  -5.459512e-01  1.979519e-01  -3.097610e-01  -1.389600e-01  4.997183e-01  -1.750444e-01  -2.853704e-01  4.029533e-01  -9.545728e-04  -1.436204e-01  2.008455e-01  -2.370422e-01  9.171597e-02  -1.460301e-01  3.383702e-01  2.190903e-02  -1.781522e-01  2.472753e-01  3.422562e-02  -2.238155e-01  -2.218259e-01  -1.388830e-01  -1.624758e-01  -3.745341e-03  -2.721408e-01  1.954544e-01  -2.737388e-01  3.232310e-02  -3.622125e-01  -2.612494e-01  -7.676771e-02  5.296773e-02  5.611824e-02  -4.314101e-02  2.298536e-01  3.253657e-01  -2.671760e-01  1.386535e-01  5.741273e-01  -4.088280e-01  -4.628256e-01  -1.111955e-01  5.196464e-01  5.450427e-01  6.006385e-02  -1.590705e-01  3.213145e-02  -2.503386e-01  9.972300e-02  -1.088060e-01  -2.764944e-01  -6.139807e-02  -4.000427e-01  -2.502662e-01  -3.233641e-01  4.646168e-02  5.363059e-02  3.042192e-01  -2.647736e-02  1.438748e-01  -2.604477e-01  -2.167961e-01  3.201595e-01  6.214400e-02  1.336839e-01  -1.350232e-01  -1.355096e-01  -4.019215e-02  2.584516e-01  -5.654155e-01  3.365318e-01  -3.292238e-01  1.246994e-01  -1.887394e-02  -3.306820e-01  4.903233e-01  -3.339781e-02  3.131801e-02  5.928584e-02  2.622220e-01  -1.789682e-01  2.232490e-01  1.083432e-01  -2.362140e-01  -1.134025e-01  -1.344482e-01  -4.818329e-01  -2.044255e-01  -5.067805e-02  2.873684e-01  1.404924e-01  3.416294e-01  3.023719e-01  9.914205e-02  3.206254e-01  1.884764e-01  4.432508e-01  -3.795301e-01  1.289586e-01  1.760007e-01  3.115082e-01  5.662872e-01  3.851697e-01  -3.105921e-01  1.078410e-01  -8.159877e-02  -4.142783e-01  5.382905e-02  6.236150e-01  -1.247824e-01  2.723241e-01  -2.089675e-01  2.511657e-01  -3.529879e-01  1.708104e-01  -1.133854e-02  5.173398e-01  -2.943089e-01  1.323429e-01  -4.286423e-01  4.466046e-01  4.502015e-01  5.816906e-03  -2.269790e-01  -7.594801e-02  -6.527873e-02  2.166828e-01  -1.176665e-01  -6.066169e-01  4.879939e-01  -5.066653e-01  -5.275003e-01  8.028153e-01  -3.164780e-01  -1.388636e-01  3.569963e-01  3.923475e-01  -8.248097e-02  6.626271e-02  4.413526e-02  3.752970e-01  2.037743e-01  4.024716e-01  7.294590e-01  1.600472e-01  5.359595e-01  8.490744e-01  -4.659272e-01  2.704479e-01  4.152177e-01  -9.180098e-01  7.563529e-01  -1.252293e-01  -2.655845e-01  -1.866047e-02  -2.266104e-03  1.671965e-01  -2.472442e-01  -2.664977e-02  3.428853e-02  -7.439488e-01  -1.085349e-01  4.723638e-01  8.880122e-01  -3.371787e-01  -2.199391e-01  1.042348e-01  -4.506689e-01  -3.383575e-01  2.609040e-03  6.146082e-01  9.539013e-04  -4.101211e-01  -2.754757e-01  4.315022e-01  -2.516342e-01  6.732169e-01  -4.962987e-01  -5.865170e-01  -2.659995e-01  1.565164e-01  3.831772e-03  -4.208994e-01  -2.200839e-02  1.530031e-01  -4.648806e-01  -2.158550e-01  -3.277869e-03  1.222924e-01  9.599366e-02  3.351863e-02  5.805069e-02  2.558762e-01  -4.089966e-01  -4.100842e-01  -9.973789e-02  5.994210e-01  -2.339507e-01  2.514304e-02  -2.740988e-01  6.497858e-01  -1.385022e-01  -6.035137e-01  -7.515207e-01  2.044847e-01  5.363007e-01  -8.413453e-02  4.619774e-01  -3.963085e-01  -5.332052e-02  2.066403e-01  1.480316e-01  3.448614e-01  -4.944338e-01  -1.447948e-01  -8.305187e-01  7.852575e-02  -2.959647e-01  -5.441652e-01  -4.273709e-01  -4.297707e-01  -4.074196e-01  -1.081177e-01  -6.421762e-01  -1.923133e-01  -2.057030e-01  1.113984e-03  -5.349752e-01  -6.118878e-02  1.069075e-01  -2.498844e-01  -4.049863e-01  -3.373385e-01  3.301480e-01  -2.885769e-01  -1.801529e-01  5.540904e-01  3.105584e-01  1.724810e-01  1.839570e-01  3.450120e-01  -3.096283e-01  2.237670e-01  -6.323738e-01  4.870267e-01  -2.465757e-01  2.769590e-01  -7.832566e-01  5.491747e-01  -1.019811e-01  -4.588932e-01  1.344034e-02  1.365291e-01  2.907686e-01  -4.050301e-01  -1.322714e+00  -1.082437e-01  1.198698e-01  3.671074e-02  -8.849972e-02  2.279301e-02  -5.097062e-01  1.327726e-01  5.683748e-01  -1.962204e-01  -8.509384e-03  -8.839568e-02  -9.070920e-02  -1.621866e-01  6.942675e-01  3.161557e-01  1.102996e+00  1.344781e-01  1.175217e+00  4.391813e-01  2.390390e-01  1.535017e-01  2.284542e-01  -1.678361e-01  9.311388e-01  1.233931e-01  -9.004063e-02  2.331447e-01  -2.869410e-02  -3.093775e-01  2.086475e-01  -2.836214e-01  5.919086e-02  -1.132117e+00  -2.666266e-02  -3.028256e-01  3.664150e-01  -1.145590e-02  -9.689851e-01  -5.658948e-01  4.970487e-01  -3.185425e-01  6.129741e-02  1.166185e-01  -3.047774e-01  -7.756391e-01  -9.819011e-02  8.801943e-01  -4.621191e-02  2.342385e-01  -1.086209e-02  1.651353e-01  -1.599466e-01  5.673110e-01  8.769035e-01  -1.786863e-01  -4.890592e-02  -1.848576e-01  -9.164301e-01  5.370987e-02  3.664322e-01  6.472498e-01  5.481861e-01  -3.777481e-01  -8.798875e-02  -2.414442e-01  -2.823061e-01  -1.432896e-01  2.491132e-01  -8.278789e-02  3.433481e-02  -2.469521e-01  -1.562249e-02  3.671692e-02  -5.046515e-01  -2.441854e-01  -1.637141e+00  1.353770e-02  5.393869e-02  -2.235186e-01  2.859819e-01  -1.907867e-01  -5.301554e-01  -1.898220e-01  3.153358e-01  7.146863e-01  5.701970e-03  6.837456e-01  -7.412671e-01  -2.536424e-01  -1.774433e+00  -2.960607e-01  1.121958e-01  -3.242955e-01  1.754020e-01  -4.092247e-01  -9.786759e-01  -2.947993e-01  7.622215e-03  -8.406758e-02  -1.163940e+00  -4.271317e-01  -8.455143e-02  -2.099185e-01  1.725914e-01  -4.029555e-01  1.847717e-01  1.200900e-01  -2.393030e-01  -2.127150e-02  4.755468e-02  5.447469e-01  -7.781403e-02  1.251330e-01  2.186766e-01  -5.147796e-01  -4.826105e-01  1.101534e+00  -1.778224e-01  1.434062e-02  3.517660e-01  -5.773389e-01  1.305780e-01  -2.192858e-01  7.081208e-02  -2.710913e-01  -6.862069e-02  -1.237013e-01  1.073329e-01  1.826394e-01  -2.086113e-01  3.792554e-01  -6.557178e-02  -8.262332e-01  7.757236e-01  2.888619e-01  -2.850268e-01  -4.864579e-01  -2.837157e-01  2.508623e-01  4.042988e-01  -5.559293e-02  -2.259542e-01  -6.612155e-01  -1.609420e-01  -3.109003e-01  -5.554470e-01  -6.281569e-01  4.270830e-01  -3.644991e-01  -8.895305e-02  3.635076e-01  -4.287509e-01  -4.317216e-02  1.691018e-01  2.729580e-01  2.169374e-01  -2.782021e-01  3.213187e-01  -3.337890e-01  3.017149e-01  5.145974e-01  -1.371839e-01  -1.116893e-03  -7.575677e-01  -1.076909e-01  2.593620e-01  4.027637e-02  5.241917e-02  4.306554e-01  1.245122e-01  -2.316848e-01  1.828211e-02  6.012086e-01  6.478385e-01  -4.291388e-01  2.208108e-01  1.888600e-01  1.508279e-01  1.313349e-01  1.883779e-01  -3.066892e-01  2.921525e-03  3.624794e-01  6.499270e-01  -4.064426e-01  6.427791e-01  2.064044e-01  -4.942603e-01  -7.868402e-02  -2.275431e-01  2.222252e-01  -2.343076e-01  -6.516661e-02  4.566050e-01  3.313221e-02  8.646844e-02  -1.522011e-01  2.753566e-01  5.212402e-02  3.984165e-01  -1.446128e-01  1.410513e-01  1.469422e-01  2.447855e-01  -1.044620e-01  -4.665264e-01  2.121640e-01  4.189337e-01  4.405856e-01  -1.973068e-02  2.549264e-01  -3.992038e-01  3.463508e-02  -1.792029e-02  2.741193e-01  5.158602e-01  1.136532e-01  6.151052e-01  1.363405e-01  9.060734e-02  5.061202e-02  3.213844e-01  2.232543e-01  5.549119e-01  6.453766e-01  8.199298e-03  -1.667806e-02  -9.874032e-02  1.210703e-01  2.761930e-01  -4.569823e-01  1.033725e-01  4.374869e-01  -2.094307e-02  -1.120428e-01  -1.660353e-02  -5.327801e-01  1.102619e-01  -4.348082e-02  -2.780674e-02  -3.489507e-01  -1.032208e-01  1.634197e-01  2.706082e-01  -4.881288e-01  5.605969e-02  -3.174791e-01  3.641808e-01  -1.136972e-01  -6.678925e-01  -7.435922e-02  4.241245e-01  -3.198466e-01  4.724404e-01  -1.598394e-01  5.181376e-03  4.834685e-02  -3.513566e-01  3.243309e-01  7.236983e-01  -3.468037e-01  -2.166756e-01  1.403445e-01  -2.039511e-01  -4.257503e-01  1.754275e-01  -2.328322e-01  -1.269093e-01  -5.597008e-01  3.930990e-02  -3.291702e-01  -6.152973e-02  1.022664e-01  -1.767777e-01  -7.788761e-01  1.049158e+00  -2.544899e-01  -2.200727e-02  1.040460e+00  -1.644290e-01  4.201765e-01  1.266241e-01  -1.763999e-01  2.291948e-01  6.209028e-01  2.489312e-02  4.719423e-01  -1.279565e-01  1.178258e-01  5.390831e-01  -1.814332e-03  -7.388448e-01  7.181306e-01  -1.274319e-02  -1.366792e-01  4.202822e-01  6.003827e-01  4.555772e-01  -2.355312e-01  -1.123892e-01  1.806425e-01  -1.152778e-01  6.313642e-02  6.524726e-01  -7.095404e-01  9.183828e-01  5.584130e-01  -1.432940e-01  1.385032e-02  5.999939e-02  -5.900979e-02  -2.743423e-01  -1.575640e-02  6.783482e-02  8.812169e-01  -7.690886e-02  -4.162763e-02  -8.274709e-02  -1.377969e-01  -4.252934e-01  -6.193368e-01  -2.918450e-01  1.749468e-01  1.185780e-01  -5.695190e-01  4.005227e-01  -2.616867e-01  2.819578e-01  -2.334601e-01  -1.096635e-01  2.841866e-01  3.315877e-01  -7.946008e-01  1.721424e-01  -4.565358e-01  -3.194879e-01  7.179294e-01  1.599075e-01  -4.828200e-01  -9.943561e-02  9.195631e-03  1.096323e+00  3.393639e-01  5.964231e-01  -2.140742e-01  8.255473e-02  7.201899e-01  1.562898e-01  -1.048240e-02  1.053458e+00  -2.676932e-01  8.550069e-02  -1.898925e-01  1.719965e-01  1.242366e+00  6.134139e-02  -1.021486e-01  -2.546709e-01  -1.777887e-01  2.524826e-01  -2.862080e-01  -4.813950e-01  -6.138930e-02  -2.330735e-01  -2.943959e-01  -2.623197e-01  1.378983e-01  2.190049e-01  -4.280542e-01  1.499138e-01  -1.845354e-01  1.486346e-01  -1.505808e-01  7.709668e-03  -8.150861e-02  2.841069e-01  -3.653335e-01  2.845595e-02  -3.791378e-02  1.969349e-01  -1.069571e-01  9.453466e-03  -4.266858e-02  1.711636e-01  4.977990e-02  -1.929089e-01  -6.187663e-03  3.195709e-01  -8.730592e-01  4.127277e-01  3.112439e-01  -3.427111e-01  -1.746059e-01  -2.152473e-01  1.596175e-01  2.484445e-01  6.461653e-02  -3.816443e-01  -5.567380e-01  -3.294969e-01  -2.237059e-01  -6.294878e-01  -5.131488e-01  -5.082183e-02  -9.808772e-02  -2.196869e-01  9.651944e-02  -3.131481e-01  -1.461491e-02  3.646168e-01  2.215326e-02  1.307829e-01  3.160952e-01  3.686483e-01  -2.337802e-01  -8.835567e-02  4.608173e-01  -2.364689e-02  -1.785226e-01  -4.595517e-01  1.497886e-01  9.493174e-02  6.249526e-02  1.966687e-01  4.382650e-01  -3.335913e-01  -6.020567e-01  6.877328e-02  5.899818e-01  4.732008e-01  -6.471534e-01  -4.970677e-02  -1.620269e-01  -2.956854e-03  9.423352e-03  -1.812975e-02  9.732855e-03  -3.467005e-02  1.005324e-01  7.586281e-01  -8.734303e-02  3.829557e-01  -3.117386e-01  -4.044689e-01  9.301332e-02  -2.029141e-01  2.371508e-02  1.380766e-01  -4.276897e-01  5.553601e-01  2.173029e-01  3.697543e-01  -1.912971e-01  3.282196e-01  3.719170e-01  4.075409e-01  -3.870735e-01  -6.602851e-02  4.017230e-01  8.455440e-01  -6.013774e-02  -3.684168e-01  2.179931e-01  -4.864751e-01  3.265527e-01  2.507782e-01  2.590546e-01  -2.892298e-01  -5.580701e-01  -1.853709e-01  -5.755156e-02  4.737852e-01  9.069322e-02  6.477146e-01  2.177871e-01  5.024748e-02  2.665946e-01  1.206395e-01  2.304217e-01  7.422332e-01  4.538633e-01  1.028606e-01  -4.741163e-02  3.997470e-01  2.601792e-01  6.449288e-02  -1.335037e-01  1.497962e-01  3.061338e-01  -5.623914e-01  -1.658850e-01  1.511093e-01  1.545743e-02  -3.726684e-01  -2.496886e-02  1.780608e-01  1.595774e-02  1.941698e-01  -2.090296e-01  3.804430e-01  -3.424791e-01  1.089331e-01  -1.053954e-01  3.710507e-01  -3.049280e-01  2.039548e-01  7.502513e-02  -2.127599e-01  -8.326291e-02  -4.991145e-01  5.207746e-02  4.925805e-01  2.677148e-01  2.592033e-03  8.139697e-02  1.519497e-01  6.661868e-02  3.573852e-01  1.775188e-01  -1.626241e-01  -8.791128e-02  -1.030491e-01  1.035194e-02  1.845248e-01  1.807768e-01  -2.828680e-01  -1.398754e-01  -1.895650e-01  -2.309394e-01  -4.901540e-01  -2.654197e-01  1.360589e-02  -9.853358e-02  -8.024597e-02  -1.378564e-01  -1.160076e-01  -1.670291e-01  2.231905e-01  1.747609e-02  1.720201e-01  2.806569e-01  8.516090e-02  2.803635e-01  -1.782803e-01  2.277810e-01  -9.897399e-02  1.676274e-02  1.294165e-02  7.809375e-02  2.559241e-01  2.119119e-01  -5.160817e-02  3.647074e-01  -1.919380e-01  -1.317786e-01  3.132517e-01  3.670143e-01  1.584850e-01  -2.055381e-01  -2.439879e-01  1.556973e-01  2.070605e-01  -5.714282e-02  -1.117371e-01  -1.176353e-01  -4.781127e-01  -4.444640e-02  -1.376462e-02  1.553573e-01  4.676649e-01  -1.216282e-01  -1.762263e-01  -2.203830e-01  -1.413288e-01  4.490912e-02  1.574994e-01  2.249892e-01  3.773592e-01  -5.077814e-02  -6.659658e-02  1.984852e-01  2.167943e-01  5.810997e-03  -8.348436e-02  -1.062192e-01  1.566502e-01  9.881844e-02  7.661206e-01  1.627385e-02  -1.125320e-01  2.452570e-01  -1.824012e-01  -4.620533e-02  2.111458e-01  2.891927e-01  -1.510249e-01  -6.223360e-02  -9.099803e-03  -1.164087e-01  4.952478e-01  1.016970e-01  4.751947e-01  2.074203e-02  -8.690609e-02  8.944658e-02  2.591537e-01  -2.559202e-01  3.895450e-01  1.883518e-01  -6.990124e-02  1.866984e-01  1.420305e-01  4.113755e-01  5.093357e-02  -1.707787e-02  -6.042648e-02  4.121054e-02  -2.758881e-01  2.686409e-01  1.262698e-01  -1.242749e-01  -2.625536e-01  -2.319489e-01  -7.485734e-02  8.094600e-02  -6.693207e-03  5.178344e-02  1.528638e-01  -1.091803e-01  4.431016e-01  -9.149840e-02  5.355111e-01  6.947456e-02  1.339072e-01  7.799984e-02  2.000938e-02  -7.614039e-02  -1.533982e-01  1.717416e-01  5.020527e-01  6.344048e-01  -1.278137e-01  2.853906e-01  6.469648e-02  -6.191790e-02  2.703165e-01  1.475840e-01  -2.301742e-01  3.229279e-02  -9.887600e-02  3.526860e-02  5.997024e-02  6.312504e-02  -3.176106e-01  -2.769580e-01  -7.146926e-02  -3.210140e-02  -5.526153e-01  -1.685757e-01  -2.954192e-02  -1.574176e-01  1.292494e-01  4.770669e-02  -3.575889e-01  -2.767387e-01  2.197166e-01  1.953051e-01  1.855031e-01  4.907020e-01  1.509912e-01  1.802349e-01  -1.222260e-01  4.744734e-01  1.161693e-01  -2.261513e-01  -2.686718e-01  2.442179e-01  -7.579975e-03  6.898690e-02  -1.268624e-01  3.782483e-01  1.760664e-01  -2.395024e-01  1.051779e-01  4.714591e-01  2.812502e-01  -2.440405e-01  2.123737e-01  -1.925985e-01  -6.469301e-02  -2.349240e-02  -1.590423e-01  -2.894405e-01  4.963185e-02  1.237545e-01  -1.175507e-01  -5.757762e-02  2.563263e-01  -1.940740e-01  -2.459321e-01  2.939196e-01  -2.523046e-01  1.226830e-01  -3.526119e-01  -1.212000e-01  2.953346e-01  7.939434e-04  2.940766e-01  9.593595e-02  2.329603e-01  1.527889e-01  -1.086939e-01  -2.087084e-01  1.149245e-01  4.720466e-01  8.284366e-01  -6.589393e-02  -4.668736e-02  8.420585e-02  -1.007306e-01  6.113962e-02  1.656557e-01  1.013341e-01  -5.748662e-02  -5.111065e-01  -2.390508e-01  -4.760266e-01  4.186111e-01  -3.360938e-01  5.096502e-01  1.986981e-01  -4.611628e-02  -9.791542e-03  4.683739e-03  1.679475e-01  4.800878e-01  -7.456917e-02  -7.434104e-02  5.042884e-01  3.842866e-01  9.066879e-02  -3.380683e-02  -1.196440e-01  -5.024312e-01  1.746647e-01  -7.581246e-02  1.075659e-01  -1.502901e-01  -1.358629e-01  -5.430442e-02  -3.183627e-01  1.979468e-02  2.132911e-01  1.702367e-01  5.626415e-02  4.086827e-01  -4.484877e-01  2.032839e-02  -2.247166e-01  4.653595e-01  -8.051449e-01  -3.861279e-01  1.904748e-01  1.229543e-01  -1.517467e-01  5.671847e-01  -1.490850e-01  -5.548123e-02  1.472671e-01  -2.175062e-01  5.047858e-01  5.789443e-01  -5.446613e-01  6.172838e-02  2.546899e-01  -2.077468e-01  2.352514e-02  1.615168e-01  -1.562136e-01  3.137498e-01  -2.846010e-01  -2.642781e-01  1.925993e-02  -3.098117e-01  -1.399261e-01  -2.079562e-01  -5.205694e-01  7.228489e-01  -1.927267e-01  1.421275e-01  5.668948e-01  -2.442496e-01  4.260523e-01  9.095184e-02  -7.579308e-02  -5.734208e-02  5.680907e-01  -1.366291e-01  2.591279e-01  -2.980544e-01  6.762828e-02  5.251662e-01  -8.451075e-02  -4.431817e-01  7.402572e-01  -3.116829e-01  -1.304931e-01  5.312190e-02  5.439945e-01  -5.547373e-02  -7.045273e-01  -1.939622e-01  4.445519e-01  6.981862e-02  -6.458687e-02  5.420576e-01  -6.562559e-01  5.607728e-01  3.155716e-01  -2.629938e-01  2.366009e-04  4.052678e-01  2.399910e-01  -9.094521e-02  -2.985002e-02  2.928556e-01  5.400056e-01  -2.365908e-01  -2.230160e-02  -2.395984e-01  -5.812826e-02  1.161241e-01  -3.353850e-01  5.062978e-01  2.203322e-01  -5.490839e-02  -4.800074e-01  2.268992e-01  -1.790447e-01  9.114729e-02  -3.442213e-02  -7.384180e-02  4.567692e-01  1.059356e-01  -5.370261e-01  -1.265853e-01  -1.190793e-01  -1.702203e-01  4.105086e-01  -5.009539e-02  -3.418791e-02  -1.568978e-01  5.895380e-02  3.871514e-01  1.011009e-01  4.011165e-01  -3.690055e-01  2.272077e-02  5.834908e-01  2.382579e-01  3.773787e-01  6.570718e-01  1.376813e-02  1.364829e-01  -1.002958e-01  2.794552e-01  1.768506e-01  1.913140e-01  1.830822e-01  -6.990200e-02  8.376636e-02  3.455583e-01  -1.505348e-01  -3.893589e-01  2.819626e-01  -1.104412e-01  -2.561353e-01  -1.388882e-01  -1.382576e-01  2.733428e-02  -3.491580e-01  1.492278e-01  -1.659270e-01  2.277338e-01  -1.156880e-01  -1.699879e-01  -3.338485e-01  -2.132753e-01  2.790260e-01  3.036628e-01  2.067480e-01  -2.578823e-01  -1.951484e-01  -7.362190e-01  1.564323e-01  2.684579e-01  -7.060885e-02  1.593783e-01  2.321225e-01  2.578330e-02  1.930450e-01  8.597653e-02  -4.384767e-02  -1.224162e-01  7.022326e-02  -2.052936e-01  6.489702e-02  1.775291e-01  1.659867e-01  -2.287394e-01  4.594308e-01  1.748550e-01  -2.572903e-01  -2.117313e-01  -1.851090e-01  1.643434e-02  -3.340074e-02  4.368586e-02  -1.605710e-01  -2.473480e-01  2.161932e-02  6.615267e-02  -2.201315e-01  5.821457e-02  -3.840468e-02  -1.154061e-01  -5.544020e-03  -5.105693e-02  1.505372e-01  -1.234165e-01  2.284687e-01  1.360855e-02  -8.567826e-02  2.988976e-01  3.393259e-01  -3.073289e-01  1.917217e-04  -1.432859e-01  -1.200970e-02  4.483392e-01  1.443156e-01  -2.179980e-02  -1.917785e-01  -5.332543e-01  -2.748649e-02  1.280629e-02  -7.766018e-02  -4.713605e-02  -6.121094e-01  -4.804857e-01  -1.467688e-01  -1.705894e-01  3.187320e-02  3.388885e-02  3.341256e-01  -1.481635e-02  -2.184600e-01  -2.743608e-01  1.452815e-01  1.025015e-01  3.583695e-01  3.325435e-01  -8.996683e-02  2.685585e-01  1.803468e-01  -1.136129e-01  6.984850e-03  -2.003753e-01  1.490565e-01  1.517252e-01  5.006776e-02  8.757528e-01  2.745862e-03  1.724603e-01  3.130721e-02  1.018386e-01  -3.631952e-01  1.430552e-01  2.406713e-01  -2.788051e-01  -1.474366e-02  2.122998e-01  -3.508033e-01  4.534457e-01  1.770136e-01  5.611486e-01  4.289604e-01  2.320310e-01  -9.546213e-02  -3.520581e-01  -1.338138e-01  4.520196e-02  3.883936e-01  -1.528168e-01  -2.388957e-01  6.037624e-01  3.974196e-01  4.261486e-01  5.608914e-01  -5.473863e-01  -8.134099e-02  -2.657075e-02  -7.776430e-02  -1.075158e-04  -1.845802e-02  -1.496722e-01  -4.665023e-01  9.474392e-02  1.922101e-01  -8.244370e-02  -5.802056e-02  2.913865e-01  -1.319605e-01  -1.297916e-01  -3.821628e-01  -3.384988e-02  1.006158e-02  4.085848e-01  -4.281761e-02  1.068168e-01  1.447453e-03  -8.734561e-01  1.868003e-01  2.868941e-02  2.228732e-01  2.431433e-01  3.047694e-01  -4.613836e-01  1.434562e-01  5.607745e-02  3.581860e-04  -3.540407e-01  -4.281089e-01  -4.844983e-02  3.864111e-02  -1.344635e-01  -2.072043e-02  -3.636718e-01  2.686132e-02  1.168151e-02  -1.994089e-01  -2.761222e-01  -2.879758e-01  -2.440076e-01  4.912441e-01  2.879562e-01  -4.960615e-01  9.126294e-02  -4.748360e-02  -1.412022e-01  -1.305543e-02  2.026550e-01  -3.411234e-02  -2.710744e-01  3.996914e-02  -1.529244e-01  5.693658e-02  -2.755496e-01  -1.801320e-01  9.996659e-02  -5.710278e-01  3.934596e-01  3.152083e-01  -1.699062e-01  -7.639374e-02  7.074243e-03  -1.120504e-01  -2.041520e-01  2.818822e-01  6.481218e-02  -8.737676e-02  -4.744752e-01  2.879713e-01  -4.354935e-01  -2.731660e-01  -4.667993e-02  -3.006137e-01  -5.415588e-01  -9.703249e-02  4.518098e-01  -3.449512e-01  7.716163e-02  7.602499e-02  -2.203490e-01  -1.648574e-02  -2.916236e-01  -3.127325e-02  1.689257e-01  2.885327e-01  5.795152e-01  -9.767943e-03  -1.909013e-01  2.511653e-01  -1.302364e-01  2.198158e-01  -1.732018e-01  6.595996e-02  3.890204e-01  1.277782e-02  5.652085e-02  1.968071e-01  -2.048366e-01  1.905887e-01  -8.578362e-02  -2.011560e-01  9.322735e-02  9.519870e-02  3.524939e-03  -5.841625e-02  -3.845724e-02  -2.364245e-01  2.269258e-01  5.948921e-02  -3.090278e-02  -2.171360e-01  2.780930e-01  -3.229519e-02  -1.475936e-01  -5.802567e-02  1.324968e-01  2.021795e-02  -4.046119e-01  -2.221929e-01  1.541841e-01  -8.520740e-02  1.362585e-01  1.505907e-01  -3.986349e-01  8.315012e-02  -8.319443e-02  5.134858e-01  1.200985e-01  -8.339467e-02  -3.379517e-02  -3.882635e-01  -7.409621e-02  -9.327073e-02  -5.644482e-02  2.295170e-01  2.254889e-01  -3.053387e-01  1.223488e-01  1.947969e-02  4.747470e-03  -6.116848e-02  -3.450310e-01  -6.875935e-02  5.925935e-02  2.783255e-01  5.454363e-01  -3.628053e-01  -3.485759e-01  -3.372903e-02  -2.137983e-01  4.541229e-02  4.900783e-02  -2.356383e-01  -9.031853e-02  1.549816e-01  1.407543e-01  -8.246010e-03  2.994730e-01  -2.775769e-02  -5.439937e-02  -2.017892e-01  1.574187e-01  -3.122757e-02  1.297376e-01  1.215374e-01  1.998599e-01  3.387645e-01  2.082529e-01  -4.311411e-02  1.988468e-02  3.732719e-01  1.770565e-01  1.248872e-01  -2.095387e-01  1.658137e-01  1.223364e-01  3.255612e-01  -1.883330e-02  2.253036e-01  1.643087e-01  -1.849346e-01  2.347314e-01  -1.565231e-01  -9.300236e-02  2.025427e-01  -3.593480e-01  -3.943661e-01  3.431233e-01  1.004499e-01  -1.526435e-02  -9.698202e-02  -4.754613e-01  -1.226706e-01  1.402338e-01  4.263012e-02  5.751889e-01  -1.046532e-01  4.644088e-01  2.712606e-01  -4.890410e-02  2.716560e-01  4.383400e-01  1.369955e-01  -1.297413e-01  1.340094e-01  -2.452380e-01  3.805004e-02  -1.179948e-01  7.808195e-02  2.090880e-01  -1.331777e-01  -4.271139e-01  -4.117628e-01  -5.839576e-01  1.064056e-01  -1.133098e-02  -3.985486e-01  2.810310e-01  -6.937226e-02  7.868098e-02  2.878213e-02  -2.425607e-01  1.345480e-01  -5.721942e-01  -1.068804e-01  5.766531e-02  -3.852246e-01  -1.332815e-01  5.098898e-01  -8.810160e-02  -2.840795e-01  1.864351e-01  3.426597e-02  1.019589e-01  2.343851e-01  -2.435036e-01  -3.947923e-01  -3.692932e-01  -1.889454e-02  -1.587978e-01  -3.771617e-02  1.990121e-01  -1.276224e-01  -1.238233e-01  -4.515528e-01  3.183486e-01  5.229581e-02  -1.931568e-01  -3.310610e-01  -4.796646e-01  -2.612106e-01  5.608050e-01  -2.440503e-01  5.066130e-03  -6.019163e-02  -6.298915e-02  2.037541e-02  1.790835e-01  3.047191e-01  -2.302070e-01  -2.423216e-01  2.464180e-01  -2.284587e-01  -5.077027e-02  3.562872e-02  -4.273790e-01  -9.977894e-02  -1.266842e-01  -6.633267e-02  1.610354e-02  1.654192e-01  -7.602946e-02  -1.658823e-01  -1.909793e-01  1.439262e-01  9.051324e-02  -1.314875e-01  -1.348481e-01  -1.235681e-01  -1.334151e-01  2.249877e-01  2.531512e-01  -3.889399e-02  -1.070547e-01  1.264746e-01  -2.973863e-01  2.040989e-01  7.264268e-02  2.296499e-02  -6.605853e-02  1.366065e-01  -2.355312e-01  -9.943508e-02  -2.006329e-01  -4.607547e-03  -2.013169e-01  3.688634e-01  1.231822e-01  -1.270339e-01  -2.793344e-02  -9.888865e-02  -1.121074e-01  -5.260469e-02  -1.937739e-01  -2.737688e-01  -7.517475e-02  -3.041565e-01  -1.570547e-02  -2.984429e-02  -8.329939e-02  4.289913e-01  -5.744800e-02  -1.380471e-01  2.260631e-01  5.491116e-01  -3.848205e-01  -2.246170e-01  -1.887101e-01  6.614474e-05  3.305977e-01  -1.574082e-01  5.249241e-02  2.595798e-02  -2.551148e-01  2.970311e-01  -1.545067e-01  -1.006180e-01  -6.617427e-02  -3.084975e-01  -1.387330e-01  8.531194e-03  6.501083e-02  2.994239e-02  4.207360e-02  -2.547094e-01  1.639727e-02  -4.226114e-02  -1.674871e-01  9.981277e-02  -1.000919e-02  1.507345e-01  4.780923e-01  -1.232029e-01  2.113669e-02  2.247354e-01  -9.738819e-02  7.867672e-02  -1.727581e-01  1.496301e-01  1.590238e-02  -9.192909e-02  3.241738e-02  1.128829e-01  5.370134e-02  4.266283e-02  -8.376179e-02  -2.680115e-01  8.822425e-02  -9.008531e-02  -4.549618e-02  -2.088126e-01  4.570444e-02  -1.021206e-01  1.354239e-02  1.294876e-01  -2.933327e-03  1.850173e-01  2.166409e-01  -1.031324e-01  4.089577e-02  -2.503151e-01  -2.960461e-01  2.499570e-01  -2.075235e-01  1.125283e-01  3.810013e-01  2.128925e-01  3.156353e-01  6.707777e-02  -1.365142e-01  -5.492971e-02  1.789403e-01  -8.551403e-03  1.004148e-01  7.331359e-02  -7.919590e-02  -1.509796e-01  -1.825587e-01  1.112137e-01  -6.118448e-02  1.765965e-01  -8.522760e-02  1.517783e-02  2.777085e-02  -9.337372e-02  2.477359e-01  2.913866e-02  6.241792e-01  3.632480e-01  -3.469144e-01  -1.549768e-01  -1.136276e+00  2.228148e-01  3.312607e-01  2.084302e-01  1.024804e-01  -2.411533e-01  -4.479055e-01  -4.920090e-02  3.110251e-01  -7.578869e-02  -2.712833e-01  -1.252000e-01  -1.637468e-01  5.374386e-02  -6.221994e-02  3.668474e-01  -9.508412e-02  2.825350e-02  -4.310287e-02  -2.946103e-01  -2.399482e-01  -1.294299e-01  -4.005851e-01  1.248240e-01  -2.575904e-01  -5.302355e-01  -2.212201e-01  -1.903931e-01  3.425606e-01  1.290617e-01  5.588223e-02  -2.501298e-01  -1.425247e-01  -2.639638e-01  3.663119e-02  4.116059e-01  -4.222024e-01  -9.399100e-02  -2.853655e-02  -3.884527e-01  3.524835e-01  4.392634e-01  -3.359901e-01  8.546934e-02  -1.931709e-01  -7.312172e-02  3.570614e-01  3.868431e-01  1.200908e-02  -2.569690e-01  -5.235215e-01  5.385066e-01  -6.354219e-01  -2.806586e-01  -6.298821e-02  -5.664940e-01  -5.845338e-01  -2.133714e-01  4.576794e-01  -1.146620e-01  4.549550e-01  -3.129444e-01  -5.869363e-02  -1.334358e-01  -2.861799e-01  2.202323e-02  2.239591e-01  7.854588e-01  5.661413e-01  -2.065343e-01  -1.417615e-01  7.186844e-01  -3.235759e-01  4.642423e-01  -1.974311e-01  2.126539e-01  1.209689e-01  -1.628038e-02  5.851480e-01  2.135971e-01  -1.662451e-01  3.646435e-01  2.104567e-01  -3.381194e-01  2.507907e-01  4.381029e-01  -2.919738e-01  -2.766415e-01  -4.165416e-01  -4.129122e-01  -5.562631e-02  2.219118e-01  4.317803e-01  -2.197300e-01  2.932834e-02  3.812866e-03  -4.006053e-01  1.135605e-01  4.163575e-01  3.273106e-01  -3.333041e-01  -6.381540e-01  4.989078e-01  3.474438e-01  5.144097e-01  3.277964e-01  -9.350318e-01  3.671978e-01  1.186942e-01  1.431271e-01  1.483440e-01  7.256952e-03  3.292573e-02  -2.985361e-01  1.251534e-01  2.688178e-02  -1.771413e-01  1.521333e-01  1.994982e-01  -2.909249e-01  1.167820e-01  1.688282e-01  5.245641e-01  -1.690176e-03  1.893887e-01  8.855525e-02  -3.013948e-01  7.855675e-02  1.871004e-01  4.524336e-01  2.940368e-02  -1.944328e-01  3.760079e-01  -7.500554e-02  -1.684528e-01  5.879133e-01  -2.967586e-01  -2.102742e-01  -2.191072e-01  2.788240e-01  9.247198e-02  1.032046e-01  -2.021060e-01  2.193753e-01  -1.400862e-01  2.116080e-01  -3.838540e-01  -1.036539e-01  1.908830e-01  2.958570e-02  7.589317e-02  -2.415004e-01  1.659178e-01  1.906301e-01  8.478457e-03  -3.477877e-01  -4.585533e-02  -1.458160e-01  -1.771071e-01  -9.307303e-02  -1.674210e-01  2.491337e-02  3.966726e-01  8.302953e-03  -1.621922e-02  2.696044e-01  2.671954e-02  -1.701714e-01  7.194033e-02  3.386338e-01  7.569610e-02  -1.957363e-02  -6.766008e-02  3.325284e-01  8.555946e-02  -1.523337e-01  -2.383202e-01  -2.907036e-01  -1.761954e-01  2.032402e-01  3.200999e-01  -1.810171e-01  4.628661e-02  -2.496878e-02  -1.220463e-01  -4.522744e-01  -1.986383e-01  1.950073e-01  2.740014e-01  4.151373e-01  1.472496e-01  -5.886351e-01  -1.757197e-01  5.144423e-01  5.015683e-01  -1.010545e-01  -6.748018e-02  -1.196028e-01  -3.307414e-01  3.585178e-01  -1.415830e-01  1.964369e-01  -2.727161e-01  1.956260e-01  -4.036631e-02  -2.223819e-01  2.865982e-01  -1.826018e-01  3.152269e-01  -6.356466e-02  -4.610392e-02  1.030590e-01  1.395074e-01  4.391595e-02  -2.799972e-01  -8.371727e-02  2.022167e-01  -4.284432e-01  8.664127e-02  2.523555e-01  3.235655e-01  1.164309e-01  2.175555e-01  1.983248e-01  -3.568926e-02  -1.189523e-01  1.797334e-01  2.395367e-01  -2.746279e-01  9.905455e-02  2.435485e-01  1.277281e-01  4.729080e-02  3.079050e-01  -3.241178e-01  -1.855589e-01  8.554574e-02  -3.555069e-01  -1.136056e-01  5.455623e-01  4.016541e-02  3.372942e-02  -2.151720e-01  2.835550e-01  -1.490536e-01  -1.190397e-01  -3.294357e-01  2.708365e-01  -4.337566e-01  7.663021e-02  4.260426e-01  -1.982510e-01  3.446206e-01  -3.563307e-02  7.863450e-02  -2.210136e-01  3.239334e-01  -6.511776e-02  -3.099236e-02  3.434043e-01  -3.257466e-01  2.929565e-01  2.209315e-01  -6.677826e-01  5.101364e-01  1.260153e-01  -4.171718e-01  -1.067103e-01  -8.228554e-02  2.068626e-02  3.903180e-01  -1.134121e-01  -2.626700e-01  -4.277745e-01  -5.082397e-01  -2.571383e-01  -2.723736e-01  -7.415934e-01  1.315304e-01  -5.335914e-02  -1.207935e-01  3.101458e-01  -3.486663e-01  -1.851308e-02  2.022572e-01  4.865538e-03  -8.912537e-02  -2.277746e-01  4.390819e-01  1.250634e-02  4.435986e-02  7.086276e-01  4.799768e-02  1.223108e-02  -6.859931e-01  2.202384e-01  -9.062974e-02  3.528703e-02  2.043858e-01  2.542869e-01  1.769351e-01  -2.572905e-01  5.672546e-02  5.367126e-01  4.997303e-01  -4.176122e-01  2.756101e-01  -6.505029e-01  3.073763e-01  2.161530e-01  2.177387e-01  -2.191040e-01  -6.526522e-02  2.448619e-01  2.357470e-01  -2.482230e-01  3.230506e-01  -1.848938e-01  -3.654011e-01  -9.616774e-02  7.876109e-03  8.760211e-02  2.708139e-01  4.079228e-02  1.734825e-01  1.867383e-01  1.432534e-01  -2.972497e-01  3.579812e-01  5.581526e-02  3.045481e-01  -1.315496e-01  1.059632e-01  2.282057e-01  2.503399e-01  1.362941e-01  -4.676028e-01  -4.415242e-02  2.428633e-01  2.629943e-01  2.398680e-01  2.698740e-01  -3.544154e-01  -5.152361e-01  2.524567e-01  -1.389563e-02  2.912592e-01  2.897140e-01  4.100468e-01  -5.250547e-02  2.566676e-01  -2.378066e-02  6.807487e-02  1.324191e-01  4.036203e-01  2.461301e-01  1.566291e-01  -2.418966e-01  3.189853e-01  3.621166e-01  2.691131e-01  -1.072513e-01  -1.160822e-01  4.938600e-01  -3.788713e-01  -3.188058e-01  3.138570e-01  -5.148424e-01  -1.937123e-01  7.417300e-02  -6.500193e-02  -2.864536e-01  -5.504752e-02  -7.479152e-02  2.201970e-01  -4.452600e-01  3.011810e-01  6.026147e-02  -2.633046e-01  -1.787615e-01  1.109897e-01  -3.653197e-01  1.087284e-01  9.852710e-03  -5.733327e-01  -3.792156e-01  1.932583e-01  4.992603e-01  -6.895073e-01  1.237287e-01  -3.708634e-02  -1.750885e-01  2.876408e-02  6.152740e-02  1.048084e-01  -5.869897e-01  2.841811e-01  4.939864e-02  1.165154e-01  -6.812316e-02  -2.481641e-01  -2.167412e-01  5.515290e-01  -1.945764e-01  2.107087e-01  -2.976475e-01  -8.781434e-02  4.905442e-01  -4.214894e-01  5.800881e-02  3.871069e-02  3.205751e-01  3.283352e-02  -4.490330e-02  5.022166e-01  1.714247e-01  4.104654e-01  1.097292e-01  -7.512069e-01  -4.278443e-02  1.993479e-01  -4.855672e-01  1.351893e-01  5.223969e-01  -4.478931e-01  -2.017064e-01  -1.632967e-01  -3.102299e-01  9.823539e-02  -2.700688e-01  -3.346707e-01  1.682280e-01  3.517373e-01  4.999636e-02  -5.907762e-02  3.149928e-01  -3.624612e-02  -1.436570e-01  4.907517e-02  1.105481e-01  -2.517790e-02  2.122655e-01  5.384084e-01  -5.273638e-01  -2.147822e-01  -1.155852e-01  -2.334629e-01  4.492913e-01  -1.278955e-01  -3.416129e-01  -2.155584e-01  7.474831e-02  6.382186e-02  2.330179e-01  3.051603e-01  -9.320280e-02  -1.668222e-01  1.546030e-01  9.710152e-02  -5.336616e-01  -2.445122e-01  1.824566e-01  -3.263147e-01  5.885415e-02  -3.410962e-02  1.835102e-01  2.154220e-01  5.816704e-02  -1.649785e-01  -6.653173e-02  5.626701e-01  1.997020e-01  8.223364e-02  3.376215e-02  3.412077e-01  -5.496824e-01  -2.790579e-01  -2.619654e-01  -8.545743e-01  -2.802798e-01  -7.958598e-02  1.084379e-01  -5.209048e-01  2.501685e-02  1.134896e-01  2.629311e-02  -2.624452e-01  -3.900336e-01  9.026255e-03  -7.074426e-01  -3.986354e-01  2.260907e-01  -3.348349e-02  7.415919e-01  -1.342293e-01  -2.196643e-01  -1.083674e-01  -2.276322e-01  1.226823e-01  -2.005862e-01  2.982509e-01  7.503007e-03  4.431364e-01  -1.512076e-01  9.223898e-01  1.232104e-01  -2.836071e-01  -1.662811e-01  -4.242606e-01  -1.574010e-01  9.189048e-02  1.425068e-02  5.767357e-01  -2.492830e-01  -9.474359e-02  1.424134e-01  -2.384422e-01  -2.123571e-03  7.661818e-02  -2.026336e-01  -1.565335e-01  -8.032587e-02  -4.092538e-02  -6.557845e-02  2.244862e-01  -5.381031e-02  6.244265e-02  -9.152649e-02  2.651251e-01  -2.077034e-01  2.200255e-01  1.330340e-01  2.933528e-01  2.971836e-02  1.868136e-01  -1.466445e-01  6.586491e-03  3.083207e-01  9.999676e-02  2.536061e-01  -2.652913e-02  -9.856375e-02  1.378453e-01  1.507461e-02  -6.658280e-02  1.194282e-01  5.100654e-02  -6.772187e-02  3.714967e-01  -7.569353e-02  -7.449886e-02  2.598992e-01  -9.573565e-02  -4.127631e-01  2.641730e-01  -5.724586e-02  4.280122e-02  -2.833045e-02  -2.442936e-01  -3.435878e-01  -5.126835e-02  2.368889e-01  6.440339e-01  -5.041483e-02  3.096062e-01  7.056931e-02  3.189084e-02  3.865769e-01  3.766841e-01  -1.244079e-01  -3.466635e-01  4.035874e-02  -4.226238e-01  2.166584e-01  6.505785e-03  2.206975e-01  2.401408e-01  4.592933e-02  -2.096273e-01  -3.650982e-01  -4.058921e-01  6.860396e-02  7.575966e-02  -2.992601e-01  -1.590341e-02  -1.846641e-01  1.020331e-01  -1.207065e-01  -3.216206e-01  8.188890e-02  -3.583070e-01  -2.217634e-01  1.292215e-01  -3.199320e-01  1.121386e-02  3.111269e-01  1.011180e-01  -8.236358e-02  1.096382e-01  2.492057e-01  -1.308569e-01  1.601869e-01  2.773674e-02  -3.783745e-01  -4.203401e-01  -2.181624e-01  -1.471472e-01  -1.043455e-01  3.148222e-01  2.345171e-02  -3.760873e-01  -4.382114e-01  2.546481e-01  1.618509e-01  -1.063559e-01  -3.933400e-01  -3.740673e-01  -2.728657e-01  5.568105e-01  -2.016254e-01  -2.095869e-02  -1.011100e-01  -2.090754e-01  -7.973899e-02  1.161666e-01  2.229756e-02  -1.695624e-01  -8.728486e-02  7.317942e-02  -1.816398e-01  -1.743056e-02  2.020833e-01  -3.999378e-01  2.640862e-01  -6.267840e-02  -3.521045e-01  1.122585e-01  -1.617719e-01  3.224264e-01  2.900968e-01  3.443147e-01  -2.283104e-01  -2.014583e-01  2.575001e-01  5.174276e-02  1.983931e-02  1.381784e-01  -1.048934e-01  1.402615e-01  1.625545e-01  -1.156681e-01  -1.895227e-02  2.495870e-01  -2.630947e-01  -5.178206e-02  -6.699190e-02  -8.599018e-02  -3.502489e-01  6.936045e-02  -2.985420e-02  1.781844e-01  -2.381250e-01  4.887608e-01  2.617770e-01  9.879737e-03  1.983449e-01  -1.826423e-01  2.961831e-01  -8.469653e-02  4.095926e-01  2.082763e-01  2.063542e-01  1.967415e-02  5.401508e-02  3.064040e-02  1.584941e-01  1.594017e-01  -3.894513e-02  -3.324184e-01  5.479533e-01  -6.866792e-02  -3.398485e-01  3.041151e-01  3.286018e-01  1.818280e-01  -1.642355e-01  -3.609638e-01  2.866014e-01  6.564461e-02  -1.532036e-01  5.324022e-01  -2.725098e-01  -3.702780e-02  1.331648e-01  -1.843284e-01  2.169445e-01  2.031550e-01  1.790497e-01  4.693120e-02  8.105188e-02  1.034416e-01  -2.157024e-02  -3.251746e-01  1.721187e-01  2.588894e-01  -3.047283e-01  -1.296212e-01  -9.932088e-02  -1.452550e-01  -1.569319e-02  1.190199e-01  -5.057418e-01  2.191217e-01  -3.789933e-01  8.155648e-02  -2.324670e-01  -1.967891e-01  4.261051e-01  1.295782e-02  1.251598e-01  -3.823757e-01  2.442211e-01  2.564030e-02  -3.646781e-02  -1.185523e-01  2.214019e-03  1.711091e-01  -3.021198e-02  -1.722895e-01  3.572097e-01  4.964280e-01  -3.323374e-01  -1.745834e-01  -1.335951e-01  -6.189545e-03  -2.691543e-01  4.391968e-02  -1.350514e-01  -2.981791e-01  -1.305591e-01  2.055126e-01  -3.435190e-01  -1.004620e-01  -1.675029e-01  -3.247942e-01  -5.112402e-01  5.197045e-01  -1.115671e-01  -1.272506e-01  2.278474e-01  -2.286526e-02  -4.589569e-01  2.023801e-01  3.638063e-01  3.055839e-01  -6.497544e-02  3.451038e-01  -1.155912e-01  1.587506e-01  -3.761844e-01  4.189398e-01  -2.034913e-01  3.667769e-01  -4.780876e-01  -4.844485e-01  -2.930383e-02  8.922454e-02  -5.456947e-02  -2.639350e-02  -1.999765e-01  -8.537245e-02  6.514103e-01  -3.400081e-02  2.618316e-02  7.601340e-01  -7.203122e-01  2.324941e-01  1.093760e-01  -4.285718e-01  -2.302896e-01  -1.768923e-02  1.981594e-01  2.453627e-02  -2.274835e-01  -2.202484e-01  -3.385366e-01  -2.802038e-01  -4.165021e-01  -3.830562e-01  -8.941094e-01  5.583304e-01  -2.274147e-03  -2.504201e-01  8.149102e-01  -5.326768e-01  9.727854e-02  1.015162e-01  -1.609829e-02  1.830000e-01  1.137442e-01  2.127805e-01  8.043342e-02  4.894626e-02  7.799947e-01  1.942889e-01  -3.666756e-01  -6.538310e-01  3.431454e-02  7.119649e-02  -8.759961e-02  2.933736e-01  5.097486e-01  1.488068e-01  -4.051279e-01  1.411194e-01  5.461573e-01  1.513694e-01  -4.724835e-01  2.651361e-01  -5.713532e-01  -3.683246e-02  3.460316e-01  1.858319e-01  -2.950450e-01  -4.343450e-01  1.978051e-01  1.038635e-02  -2.389321e-01  1.901520e-01  2.616830e-01  -1.914006e-01  -1.095761e-01  -3.951932e-01  -1.953633e-01  -3.624896e-01  -1.732936e-01  2.680127e-01  1.629776e-01  -1.512698e-01  -3.312052e-01  -1.249224e-01  -8.163401e-02  1.262386e-01  -5.491928e-01  2.825866e-01  3.989072e-01  5.523790e-01  -1.513014e-01  1.289320e-01  -2.130627e-01  -3.106102e-01  -2.008586e-02  2.031455e-01  1.588813e-02  -1.499130e-01  -3.482815e-01  3.937230e-01  1.678735e-01  7.370099e-01  -7.817288e-02  4.304103e-02  6.622558e-01  1.596125e-01  2.821018e-01  4.728032e-01  -9.451675e-02  4.042543e-01  3.582801e-02  4.714051e-01  4.401857e-02  2.744646e-01  2.906063e-01  -3.270192e-01  -1.679816e-01  5.533345e-01  -7.566149e-02  -2.136907e-01  3.912576e-01  4.426040e-01  -3.668233e-01  -4.248770e-01  -2.847308e-01  1.140253e-01  -4.174102e-01  1.462223e-01  -1.765227e-01  4.260003e-01  -5.524305e-01  4.525090e-01  2.691992e-01  -5.311679e-01  3.601708e-01  6.234037e-01  -6.841378e-02  2.043792e-01  1.281596e-01  -4.001973e-01  3.097837e-02  -1.455108e-01  -9.714444e-02  6.919456e-03  -3.066223e-01  -3.228041e-01  -1.428531e-01  1.585892e-02  9.915064e-02  2.853882e-01  -3.120930e-01  -7.276630e-02  1.434997e-01  1.739344e-01  3.360908e-01  1.831328e-01  -9.110800e-02  3.035905e-01  1.398252e-02  2.563400e-02  2.965585e-01  -3.730792e-01  3.779642e-01  -1.358660e-01  -1.469649e-01  1.825573e-01  -1.853817e-01  2.603684e-01  3.726459e-01  6.675289e-02  8.224797e-02  2.007359e-01  -1.933337e-01  1.215178e-01  4.395336e-02  -4.035919e-01  -1.744437e-01  1.625414e-01  -4.376447e-01  -6.051005e-02  1.180517e-01  8.938033e-02  -6.264514e-02  -9.140065e-02  -1.322973e-01  4.918646e-01  -2.700855e-01  2.324397e-01  -2.324590e-02  -3.254620e-01  2.331970e-01  -6.826476e-01  -8.595964e-02  2.533482e-01  -1.157769e-01  -2.644239e-01  4.510284e-01  2.913081e-01  -1.638779e-01  -2.047441e-01  -6.505345e-01  -7.309322e-02  -2.429005e-02  9.082473e-02  1.925953e-01  -2.452005e-01  1.548192e-01  -3.794545e-01  1.062232e-01  3.356954e-01  2.821282e-01  -1.208216e-01  -1.105300e-01  -1.908763e-02  -4.848181e-02  8.628716e-02  -6.046943e-02  -2.359038e-01  3.069619e-01  1.514466e-01  -1.149462e-02  6.340316e-03  -1.713307e-01  -1.247242e-02  8.722860e-02  -1.445555e-01  1.753420e-01  -2.491767e-01  9.494308e-02  -5.281543e-01  3.513790e-01  -1.419199e-01  -5.486307e-01  -8.713804e-02  -2.101714e-01  -5.866340e-01  1.435886e-01  -2.996931e-01  -1.159077e-01  1.728568e-01  -3.694788e-01  6.227596e-03  -1.393352e-01  1.155836e-01  -2.035422e-01  -1.817052e-01  3.591197e-01  1.150459e-01  3.041274e-01  7.123663e-02  5.863449e-02  1.990089e-02  3.982954e-02  8.870881e-01  3.455107e-02  1.577953e-02  -1.526001e-02  5.462830e-02  4.600046e-01  1.569244e-01  9.079923e-02  -4.509744e-01  -7.551939e-02  -2.376646e-01  -3.497400e-01  2.498581e-01  9.081590e-03  1.919375e-01  -3.048498e-01  -1.864768e-01  2.945433e-01  -4.254485e-01  -7.149196e-02  1.559438e-02  -1.094446e-01  2.506203e-01  1.180992e-01  1.148996e-01  -3.119626e-01  -3.621547e-03  -2.051989e-01  8.598007e-02  -1.901138e-01  1.609943e-01  -1.354678e-01  6.599986e-01  -1.080923e-01  5.196393e-01  -2.477652e-01  2.270842e-02  1.178096e-01  -2.828211e-01  -8.392984e-02  1.957503e-01  3.589154e-01  -3.034308e-03  9.779123e-03  4.278411e-01  3.783439e-01  2.553333e-01  4.211903e-01  -7.342904e-01  -1.493625e-01  -1.338372e-02  -4.513018e-01  1.744579e-01  3.188969e-01  -6.111061e-01  -4.661610e-01  1.762523e-01  -4.653651e-02  1.992978e-01  -2.454524e-01  -4.118144e-01  -2.291729e-01  1.467440e-01  3.441247e-01  3.849280e-01  6.561176e-02  3.294182e-02  1.172028e-01  1.652341e-02  2.759557e-01  5.163511e-02  3.960103e-01  1.333084e-01  -4.164797e-01  -1.509180e-01  2.720006e-01  8.049705e-02  5.008850e-01  1.714451e-01  -6.174619e-01  -4.752020e-01  1.845582e-02  4.765884e-02  1.304547e-01  2.259381e-01  -4.774615e-02  1.376781e-01  -1.696257e-01  2.731119e-01  -3.111878e-01  -3.082213e-01  1.135157e-01  -3.801756e-02  -7.267642e-02  -6.784412e-02  -1.637275e-01  -6.430837e-02  -2.952058e-01  -7.291266e-02  -4.465821e-01  6.219382e-01  4.478417e-01  -1.295043e-01  2.460088e-01  -3.656954e-02  -3.795182e-01  -3.918282e-01  -1.157953e-01  -7.221122e-01  -2.261615e-01  -1.363567e-01  2.062789e-01  -3.353758e-01  -4.980161e-01  4.502382e-01  2.532192e-01  -4.831647e-01  -3.523017e-01  -2.598079e-01  -3.022256e-01  4.074053e-01  7.981389e-02  2.552366e-01  4.746600e-01  -3.631050e-01  -2.104350e-01  -2.280728e-01  -4.327827e-02  -1.968883e-01  -2.225530e-01  5.205641e-01  -2.141070e-01  2.250940e-01  1.743394e-01  8.810143e-01  2.112078e-03  -9.855111e-02  -2.769221e-01  -3.676466e-01  -1.417566e-01  1.470731e-01  -8.533130e-02  3.473197e-01  -3.246025e-01  -5.342819e-02  4.334613e-01  -5.474238e-02  3.255603e-01  2.857787e-01  -5.034817e-01  2.505307e-01  2.140303e-01  -1.898032e-01  -2.742679e-01  7.142343e-02  -2.094222e-01  1.929241e-02  -2.400348e-01  6.477192e-02  -7.601065e-02  -3.811788e-01  -4.077528e-02  -7.003151e-02  -1.993778e-01  7.197746e-02  -3.683255e-01  -2.939962e-01  4.080284e-01  -2.264959e-01  -3.146890e-03  3.096059e-02  -5.479877e-02  1.078159e-01  8.933327e-02  3.591100e-01  -1.860964e-03  -8.054078e-03  1.932303e-02  2.614461e-01  -1.681300e-01  -5.184643e-01  3.597695e-01  -1.452472e-01  -1.977328e-01  3.101804e-02  1.018715e-01  5.133387e-02  -2.087181e-01  -7.562456e-02  3.421912e-01  1.044138e-01  2.555661e-02  2.048362e-01  -3.086876e-01  2.580701e-01  2.697720e-01  9.475444e-02  5.700538e-02  2.484704e-01  2.542431e-01  -1.911401e-01  -6.519166e-02  1.751734e-01  -4.606299e-02  -1.924966e-01  4.255468e-02  -9.885748e-02  -1.573905e-01  -1.177525e-01  -2.526523e-01  -1.293789e-01  1.893765e-01  1.200817e-01  -3.438338e-01  3.260170e-01  -2.728866e-01  2.969985e-01  -2.462395e-01  6.027422e-02  6.122736e-02  1.355428e-01  -2.092644e-01  1.274743e-01  -1.989928e-01  -2.935334e-01  1.700145e-01  -8.625423e-02  -8.099622e-02  1.214619e-01  -2.552918e-01  8.583772e-02  1.167897e-01  2.892488e-01  1.078212e-02  1.144547e-01  -7.714435e-02  2.594483e-02  -4.154738e-02  2.897241e-01  9.399584e-04  2.129919e-01  -2.644853e-01  1.332948e-01  -4.033153e-02  2.115033e-02  -1.067503e-02  -1.849170e-01  -1.251648e-01  9.069317e-02  -1.404794e-02  -1.672073e-01  3.184059e-01  -2.119954e-02  -2.036144e-01  -1.675009e-01  -8.896023e-02  3.620395e-02  -2.713948e-01  9.590747e-02  -7.904245e-02  1.021465e-02  -4.644150e-02  -8.805124e-02  3.450774e-02  7.574745e-01  -9.792291e-02  9.709257e-02  1.534389e-01  -5.705490e-02  -3.493188e-01  -5.874906e-02  8.448122e-02  1.017775e+00  1.539910e-01  -1.481901e-01  1.391086e-03  -2.235811e-01  2.121588e-01  4.604793e-01  2.935422e-02  -6.448730e-01  9.873245e-02  3.735974e-03  -1.898295e-01  1.880920e-01  1.319735e-01  -3.177923e-01  -2.414192e-01  -3.278554e-01  -2.482346e-02  -5.594470e-01  -1.392017e-01  -6.590330e-02  -4.196144e-01  -8.622603e-02  1.459198e-01  -2.089747e-01  -3.973849e-02  2.908037e-01  3.951002e-02  3.762255e-02  1.473563e-01  7.095297e-02  2.410422e-01  -9.894441e-02  6.466752e-01  -8.735192e-02  1.052497e-01  -5.463054e-02  -4.720773e-01  3.597175e-01  2.756174e-01  1.360585e-02  1.480600e-01  -6.669810e-02  -2.435417e-01  -9.426829e-02  6.008781e-01  1.335413e-01  -2.748438e-01  2.398995e-01  1.856648e-01  6.666637e-02  1.596173e-01  -2.963259e-02  -1.791648e-01  -1.280673e-01  3.051718e-01  -3.150642e-01  1.832206e-02  4.122363e-01  8.010418e-02  -4.807329e-02  -3.412185e-01  -1.568442e-01  3.159169e-01  3.112404e-02  2.952096e-01  4.060208e-01  -1.961301e-01  -1.772376e-01  3.008171e-01  1.222179e-01  8.563909e-02  2.710224e-02  8.535298e-02  6.291524e-01  -3.099186e-02  1.580824e+00  1.898124e-01  1.110260e-01  -9.612747e-03  -2.679403e-01  2.266230e-01  4.108902e-01  1.017912e-01  -6.622877e-02  -3.976463e-01  -1.410599e-01  -1.835147e-01  3.018900e-01  6.222287e-02  8.840540e-01  1.264325e-02  1.001020e-01  1.808221e-01  4.602945e-01  3.096851e-02  8.257774e-01  5.417567e-03  1.272075e-01  -4.428893e-01  4.529241e-01  2.417727e-01  -9.721105e-03  -2.515385e-01  -1.866730e-01  -2.141851e-02  -6.013399e-01  5.811690e-02  1.637353e-01  -3.237005e-02  -1.222756e-01  -6.212479e-01  -2.188355e-01  3.779843e-01  8.120177e-02  2.215099e-01  4.056090e-01  -7.070120e-01  -1.349311e-02  -2.503645e-01  1.872040e-01  2.337347e-01  5.188903e-01  3.398042e-01  -1.402504e-01  -3.547490e-01  -1.561463e-01  3.734461e-01  4.089852e-02  -4.687209e-01  -8.071524e-03  -1.313849e-01  -7.131992e-02  4.250856e-01  4.229655e-01  -1.148483e-01  -1.642965e-01  1.123570e-02  -3.079641e-01  1.158407e-01  1.716123e-01  3.985998e-01  1.449810e-01  3.999849e-01  3.594876e-01  -1.057973e-01  -1.352191e-01  -4.515953e-01  1.633102e-01  -5.256590e-01  -7.142009e-02  -3.976306e-02  2.533809e-01  -2.408339e-01  1.429261e-01  -2.874097e-01  -2.478563e-01  -4.276190e-03  -1.315621e-01  -8.796301e-02  1.276870e-01  1.124546e-01  -3.276094e-01  2.729179e-01  -4.117586e-01  -4.526064e-02  3.081172e-01  5.771134e-01  -2.220253e-02  2.240503e-01  -1.970208e-01  1.974303e-01  8.123215e-02  4.030546e-02  1.549531e-01  -1.300231e-01  1.068613e-01  3.034557e-01  4.056263e-01  -3.482807e-01  -1.608874e-01  -4.476880e-01  -1.272029e-01  -7.859366e-02  -4.103906e-02  -6.253162e-02  7.353545e-01  6.708950e-01  2.625197e-01  -5.284122e-01  -2.346592e-01  1.590453e-01  7.591680e-01  -1.589484e-01  1.270534e-01  -1.615557e-01  2.672802e-01  3.584358e-01  3.359200e-01  -7.870658e-02  -1.026096e-01  1.082988e-01  4.428196e-01  9.802975e-03  7.535731e-01  -6.262152e-02  -1.772966e-01  -1.083664e-01  2.338156e-01  5.814345e-02  3.568379e-01  8.203065e-02  -1.758479e-01  -2.529185e-01  3.355977e-02  -1.987785e-01  -1.012077e-01  9.033384e-02  1.001227e+00  2.809506e-01  4.209907e-01  3.392450e-01  2.220614e-01  -2.262010e-01  1.740566e-01  3.488614e-01  -1.207105e-01  -1.693420e-01  3.349312e-01  2.593457e-01  -2.232945e-01  4.247772e-01  -2.187030e-02  -2.496741e-01  -1.121876e-01  -2.740429e-01  -8.292420e-03  3.276039e-01  3.415963e-01  -3.880479e-01  -4.998395e-02  4.344880e-01  -8.752324e-03  1.176758e-01  -3.881721e-03  7.864249e-02  -4.627673e-01  4.522105e-02  6.530928e-02  -2.690868e-01  -3.037107e-02  -3.279483e-02  -2.283077e-02  -1.371595e-02  4.182112e-01  -8.600899e-02  -1.557320e-02  -8.075260e-02  -2.699144e-01  7.573014e-02  1.988711e-01  -5.319067e-02  -7.471517e-02  -1.244345e-01  -3.139284e-01  3.519244e-02  8.360180e-02  -1.386082e-01  -5.093977e-02  -1.932665e-01  7.030844e-02  -6.408706e-02  4.662034e-02  -4.882270e-02  -1.902837e-02  1.063971e-01  3.220529e-01  -4.159694e-01  -1.324095e-01  7.589453e-02  2.002746e-01  -9.526714e-02  9.452067e-02  1.230298e-01  5.098911e-02  -8.786716e-02  -7.819157e-02  -6.886204e-03  6.679004e-02  2.334152e-02  8.619671e-02  -3.305834e-01  1.159543e-01  3.735597e-02  -9.941057e-02  -5.247512e-02  3.517407e-02  -8.383442e-02  6.345674e-02  -2.686412e-01  -3.506754e-01  -4.159591e-02  1.100224e-01  1.155707e-01  1.934913e-01  -1.210014e-01  -5.499605e-02  2.134793e-02  -6.934958e-02  2.812153e-02  -5.642583e-02  -2.586464e-01  1.170261e-01  -1.051186e-01  -1.802952e-01  8.703718e-02  -1.152108e-01  4.999099e-02  2.597269e-01  -3.014072e-01  1.797479e-01  -7.556583e-02  1.278119e-01  9.151644e-02  -2.412229e-01  -1.195440e-01  1.269881e-01  2.324891e-02  6.057879e-02  -1.622639e-01  -5.576823e-02  7.919297e-02  -7.720542e-02  -2.676652e-02  -5.871755e-02  7.805149e-02  3.020911e-01  1.649708e-01  6.641731e-02  -1.918799e-01  2.252733e-01  1.468004e-01  -1.400931e-01  1.299978e-01  -3.917715e-02  1.097622e-01  -8.656870e-02  -2.496786e-01  -1.516328e-01  -1.173418e-01  3.218756e-01  -1.613214e-01  -1.279448e-01  -3.324964e-01  3.033313e-01  9.939365e-02  -1.222378e-01  -1.623638e-01  -2.614614e-01  -1.549380e-01  2.057283e-01  7.131116e-02  -2.673578e-03  1.416586e-01  7.860032e-02  3.058764e-03  -1.373195e-02  9.714133e-02  -7.128763e-03  -1.010033e-01  1.102967e-01  -7.999644e-02  -7.565937e-02  3.704412e-01  3.535294e-01  -3.992186e-01  5.659332e-01  -5.844963e-01  -6.233837e-01  1.927096e-01  3.473200e-01  -2.546409e-01  2.278387e-01  -2.689914e-01  1.003511e-01  9.238189e-02  -2.756175e-01  2.643748e-01  4.342954e-01  -6.029898e-01  4.133608e-01  2.578768e-01  -6.192517e-01  -1.449362e-02  -1.934879e-01  -1.995899e-01  1.591336e-01  -3.813441e-01  -2.484615e-01  7.493687e-02  -3.757843e-01  -2.550107e-01  -3.683917e-01  -8.492578e-01  4.786045e-01  -1.862909e-01  4.851227e-01  7.561224e-01  -4.904940e-01  2.446459e-01  2.676599e-02  -2.298321e-01  -9.720810e-03  2.694967e-01  -4.239858e-02  4.093414e-01  -2.930744e-01  3.661534e-01  4.212568e-01  -2.851421e-01  -6.966177e-01  6.048915e-01  8.514343e-02  -5.687492e-02  5.883518e-02  5.171283e-01  1.599786e-01  -5.541750e-01  2.895972e-02  4.636739e-01  3.490004e-01  -1.161099e-01  4.264043e-01  -7.679526e-01  6.330342e-01  5.976371e-01  2.027303e-02  -3.336458e-01  -2.106692e-01  1.115215e-01  -2.839467e-01  -7.053537e-02  5.460506e-01  5.713058e-01  -2.847071e-01  7.139316e-02  -3.366228e-01  1.506167e-01  -9.735747e-02  -6.913805e-01  1.554553e-01  4.139226e-01  3.348454e-02  -5.797556e-01  1.527548e-01  -2.179139e-01  4.849758e-01  -5.395716e-01  7.664678e-02  1.426193e-01  2.711247e-01  9.022851e-02  1.965505e-01  -2.593395e-01  -5.438972e-01  -1.385348e-02  -5.281015e-02  -2.229566e-01  -2.169257e-01  -4.542983e-01  4.870806e-01  1.153772e-01  7.692716e-01  -8.075823e-02  1.035993e-01  7.083188e-01  3.494465e-01  4.927483e-01  2.864224e-01  -1.698243e-01  -9.096817e-02  1.138812e-01  3.110158e-01  -2.448573e-03  3.431842e-01  5.674001e-01  -1.555993e-01  3.199319e-01  5.573385e-01  2.270534e-01  -6.669737e-01  2.749465e-01  4.277773e-01  -4.203745e-01  -2.936480e-01  -2.519321e-01  -3.837592e-01  -3.339273e-01  3.994280e-02  -9.773706e-03  6.623027e-01  -5.148944e-01  2.596735e-01  -1.264131e-01  9.771533e-02  1.401325e-01  6.941752e-01  2.286414e-01  -2.170027e-01  -5.066899e-02  -1.143430e+00  7.746446e-02  3.517610e-01  1.400470e-01  7.340916e-02  1.332839e-01  -4.624825e-01  1.715214e-01  6.972613e-02  -3.623245e-02  -1.815093e-01  -8.536316e-02  -1.862897e-01  8.866870e-02  2.230729e-01  1.452591e-01  -5.873476e-02  1.082872e-01  8.352305e-02  -5.465181e-02  -4.674975e-01  -2.266823e-01  -4.319418e-01  3.250052e-01  -5.974855e-02  -4.358258e-01  -1.354199e-01  -3.522690e-01  2.071417e-01  -2.791554e-02  -7.358330e-02  -2.441997e-01  -7.157099e-02  -2.166035e-01  2.081953e-01  8.047759e-02  -4.798487e-01  -3.402547e-01  2.273701e-01  -6.221749e-01  2.747580e-01  2.182400e-01  -4.480399e-01  -6.789179e-02  -1.497944e-01  -2.069679e-02  2.881693e-01  3.059795e-01  1.958319e-01  -2.435757e-01  -6.711569e-01  5.322877e-01  -6.287965e-01  -4.660648e-01  -4.250900e-02  -5.704931e-01  -3.221026e-01  -4.388458e-01  5.574415e-01  -3.758958e-02  4.628146e-02  -4.558236e-01  2.210351e-01  -9.741642e-02  -5.551767e-01  -4.422294e-02  3.978384e-01  5.173200e-01  5.326370e-01  -2.366801e-01  -1.306814e-01  6.507383e-01  -3.230709e-01  2.411967e-01  -1.944551e-01  8.879845e-03  1.212509e-01  -3.274544e-02  2.565247e-01  2.307822e-01  2.115830e-02  3.569938e-01  2.620581e-01  -3.195690e-01  1.065259e-01  3.129393e-01  -1.673102e-01  -7.588051e-02  -3.050081e-01  -3.592010e-01  9.388903e-02  6.772232e-01  4.036306e-01  -3.515234e-01  3.537256e-02  1.643163e-02  -5.357103e-01  1.434380e-01  1.706330e-01  2.410461e-01  -4.400471e-01  -3.641820e-01  5.068936e-01  1.854887e-01  4.645919e-01  2.761960e-01  -7.282696e-01  2.751888e-01  4.444394e-04  4.169479e-03  3.088061e-01  -1.509559e-01  9.531711e-02  -2.191736e-01  3.948444e-01  9.862722e-02  -1.406242e-01  2.136039e-01  1.061255e-01  -4.448925e-01  3.112915e-03  -5.481705e-02  1.074607e-01  6.824287e-03  -4.728509e-02  6.120646e-01  -4.997248e-01  1.824909e-01  2.501110e-01  3.836496e-01  -1.055835e-01  -2.396974e-01  7.199256e-01  -2.207344e-01  3.526620e-02  2.491828e-01  -3.108926e-01  -7.566746e-03  3.540933e-01  5.290217e-01  8.832238e-02  -4.599744e-02  -2.761792e-01  8.696268e-02  2.510134e-01  3.834888e-01  -5.015689e-01  1.410194e-01  -1.095017e-01  2.599968e-01  -2.011542e-02  -3.587118e-01  4.115467e-01  1.929967e-01  -1.845521e-01  -4.354844e-01  -9.059212e-02  -5.466401e-02  -6.474038e-01  3.416798e-01  -6.885892e-01  8.182215e-02  8.049057e-01  -2.146388e-01  -3.126360e-02  6.470919e-01  9.124106e-02  2.042430e-02  1.635546e-01  6.281590e-01  7.085717e-02  3.200267e-01  -1.209222e-01  6.380621e-03  4.215231e-01  1.125887e-01  -4.183386e-01  -1.795890e-01  -1.803814e-01  1.382270e-01  2.001211e-01  2.006883e-01  -1.667236e-01  -5.695221e-02  -1.490883e-02  -6.425057e-01  -7.655337e-01  4.893646e-01  2.452379e-01  1.697410e-01  2.880853e-01  -5.477335e-01  -8.411594e-02  7.022737e-01  2.126496e-01  -1.135047e-01  -4.402128e-01  -3.846090e-01  -6.366968e-01  6.080411e-03  -7.797675e-02  7.854291e-02  -5.851875e-02  2.831660e-01  1.533168e-01  -7.475492e-02  1.397646e-01  -1.322364e-02  2.658590e-01  -1.993649e-01  -1.509164e-01  2.961569e-03  -2.670538e-02  7.950372e-02  -1.783859e-01  -3.164236e-01  3.008970e-01  -1.853456e-01  1.784512e-01  4.502937e-01  1.772049e-01  1.202712e-01  6.917098e-01  3.167248e-01  -1.944085e-01  7.751893e-02  5.241669e-01  1.755955e-01  -2.224479e-01  -1.005160e-02  3.826597e-01  5.023167e-01  -3.035410e-01  5.084226e-01  -1.982309e-01  -1.335805e-01  -5.328749e-02  -5.760352e-01  9.607446e-02  4.269080e-01  7.621953e-02  6.421208e-02  -3.472052e-01  5.036665e-01  -3.021235e-01  -1.417243e-01  -4.185288e-01  1.530919e-01  -1.023870e+00  -2.224776e-01  5.629386e-01  -6.209791e-01  -3.655735e-01  1.036788e-01  -4.990765e-02  -1.013365e-01  7.087085e-01  -2.618550e-01  2.953732e-01  6.221330e-02  -2.757565e-01  1.620466e-01  6.124786e-01  -4.512818e-01  -1.639931e-01  2.047816e-02  2.775750e-02  3.012252e-01  2.864164e-02  -2.046483e-01  -4.982942e-02  -4.948681e-01  -1.199166e-01  -7.702163e-02  -9.349508e-02  -1.336420e-01  -2.371760e-01  -4.445851e-01  5.434684e-01  -3.882833e-01  2.620173e-01  7.487977e-01  -2.255724e-01  9.038318e-02  -6.942701e-02  -2.985596e-01  -7.518037e-02  4.383911e-01  -1.843400e-01  2.214619e-01  -2.973287e-01  8.346799e-02  3.783137e-01  1.348151e-01  -5.793902e-01  7.119694e-01  -1.028019e-01  -1.690416e-01  2.025439e-01  8.091415e-02  1.739012e-01  -5.452756e-01  8.914681e-02  6.502113e-02  -4.697487e-01  1.176966e-01  4.668164e-01  -7.363122e-01  5.189990e-01  4.159125e-01  -3.809581e-01  1.347450e-01  6.919306e-02  7.709351e-02  -6.553923e-01  2.641001e-01  1.034612e-01  4.199723e-01  -2.762741e-02  -2.657242e-01  -1.673478e-01  4.566692e-02  -2.130573e-01  -3.896090e-01  5.262171e-02  1.642756e-01  -3.704436e-01  -2.299614e-01  1.596753e-01  -2.923315e-01  1.104807e-01  -8.696414e-02  -2.155869e-01  3.298605e-01  3.040668e-02  -2.588320e-01  1.646527e-01  -2.343989e-01  -5.625812e-01  2.529130e-01  1.628104e-01  -9.811190e-02  -5.693222e-02  1.178489e-01  6.512577e-01  1.026939e-01  3.235187e-01  -4.380215e-01  -1.763348e-01  5.814433e-01  -9.731773e-02  2.522800e-01  7.050516e-01  -2.817484e-01  2.995978e-02  -2.033031e-01  2.905602e-01  8.050517e-01  -1.201112e-02  -2.964146e-02  -3.828760e-01  -1.711668e-01  2.647254e-01  -7.058603e-02  -3.388894e-01  9.440981e-02  1.468880e-01  9.915718e-02  7.702281e-02  -5.518494e-02  -3.935827e-03  -1.077745e-01  1.356481e-01  -2.545255e-01  1.899084e-01  -4.582560e-01  9.198876e-02  -1.052371e-01  -6.851710e-01  -1.571629e-01  -2.031566e-01  -2.327008e-01  1.318763e-01  -6.069285e-02  -1.901099e-01  -4.250079e-01  -1.884613e-01  3.323784e-01  -5.594243e-01  2.005885e-01  -1.002967e-01  -2.422485e-01  2.385328e-01  2.035070e-02  6.865083e-02  -5.104413e-01  1.118048e-03  9.338377e-03  -1.600657e-02  -5.032698e-02  -1.611883e-01  -1.534796e-01  1.564230e-01  -5.640128e-02  9.503163e-02  8.200397e-02  1.231094e-01  2.991637e-01  -1.020102e-01  -3.601350e-01  -3.220475e-02  1.837635e-02  -6.758229e-02  -8.239899e-02  4.330117e-01  -1.874642e-03  2.035772e-01  -9.928718e-02  -4.915189e-01  1.073992e-01  -9.036646e-02  -2.677664e-01  -1.514599e-01  7.339575e-03  9.720539e-03  -3.670534e-01  2.431596e-01  -6.088721e-02  5.261139e-02  -1.286912e-01  -1.885056e-01  -4.462759e-02  -9.596316e-02  2.997134e-01  1.292310e-03  -9.588303e-02  -2.989436e-01  -5.409295e-03  -6.105459e-03  -4.822063e-02  -3.617528e-02  1.888224e-01  -1.245758e-01  -1.207789e-01  -3.415670e-01  -2.746112e-01  -1.782586e-01  5.671541e-01  2.537394e-01  -4.062188e-01  -4.350763e-01  -7.397266e-02  9.335025e-02  4.974015e-02  1.378958e-01  -1.643771e-01  1.084089e-01  -1.434745e-01  9.715369e-02  -1.750537e-01  -3.944843e-01  1.742616e-01  -3.816800e-01  1.503696e-01  6.023305e-02  4.642699e-02  9.302904e-02  -1.270411e-01  -2.049154e-01  -6.913475e-02  3.593110e-01  4.593692e-01  1.458628e-01  1.497555e-01  3.296912e-02  -3.070131e-01  -5.659747e-01  -1.080811e-01  -6.022848e-01  1.150464e-02  1.792351e-02  2.667193e-01  -2.923990e-01  -3.155866e-01  4.078752e-01  -1.125953e-01  -2.879503e-01  -5.248283e-01  -2.151390e-01  -2.071600e-01  3.586046e-02  3.657920e-02  1.534510e-01  5.852339e-01  -8.468483e-02  -3.445645e-01  9.249174e-03  -3.251007e-01  1.194254e-01  -2.463726e-01  3.468026e-01  -1.809620e-02  3.941061e-01  1.889200e-01  7.644509e-01  2.297292e-03  -4.450594e-02  2.544958e-01  -2.122335e-01  -3.304711e-01  1.022782e-01  5.553722e-02  4.717965e-01  -1.809287e-01  -1.818986e-01  -4.524752e-02  -4.665601e-01  3.126099e-01  -1.320241e-02  4.824746e-03  -1.222515e-01  4.908732e-02  5.768971e-02  -2.441732e-02  8.025774e-02  -9.014897e-02  4.128948e-03  -8.079604e-02  3.970856e-02  -3.927675e-02  2.262292e-01  1.175596e-01  3.911787e-01  3.780953e-01  3.194438e-01  3.407720e-01  -1.771109e-01  2.533164e-01  3.204881e-01  2.315573e-01  1.221672e-01  1.190007e-01  1.748757e-01  6.950478e-02  1.278195e-02  -2.184029e-02  -1.557533e-01  -1.117357e-01  2.627421e-01  -5.017056e-02  8.712920e-02  1.953470e-01  -2.189299e-01  -1.675192e-01  1.077367e-01  9.999080e-02  2.433051e-01  1.857395e-01  -3.534685e-01  -2.486970e-01  -1.805943e-01  1.517012e-01  -8.391486e-03  1.839568e-01  2.994843e-01  7.052119e-03  9.645790e-02  3.973955e-01  2.060587e-01  1.922312e-02  1.590323e-01  -2.596845e-02  5.753451e-04  7.978413e-02  1.159577e-02  9.558535e-02  2.181489e-01  -1.257736e-01  -6.530002e-02  1.368074e-01  -4.438943e-01  1.653540e-01  1.840330e-01  -4.394345e-01  4.632518e-02  -2.930430e-01  2.432092e-01  7.690413e-02  -1.883992e-01  6.931134e-02  -6.700126e-01  -1.907301e-01  -2.686825e-01  -1.117598e-01  -1.246616e-01  3.390524e-01  -6.083084e-02  -2.904762e-01  1.960830e-01  1.300814e-01  8.389243e-03  1.552684e-01  -1.879066e-01  -6.357079e-03  -7.248750e-01  3.592817e-02  -2.927487e-01  4.109659e-02  1.774651e-01  -1.996157e-01  -3.888635e-01  -3.862548e-01  2.364804e-01  4.840576e-02  -3.954907e-01  -4.373480e-01  -4.836255e-02  -1.475046e-01  4.491107e-01  9.890046e-02  6.837875e-02  -1.430790e-01  -1.516997e-01  -2.483468e-01  -1.984663e-02  7.973339e-02  6.431107e-02  -2.064044e-01  2.228324e-01  -2.075807e-01  7.373437e-02  2.518612e-01  -3.500623e-01  2.420201e-01  -5.592253e-01  2.274094e-01  9.647243e-02  -5.065427e-01  4.039289e-01  3.714109e-01  4.332603e-01  -1.804697e-01  -1.832599e+00  -1.509337e-01  -2.411915e-01  -1.274165e-01  -2.942112e-01  2.513217e-01  -5.028486e-01  -3.163198e-01  6.918134e-01  -3.099610e-01  1.857126e-01  -2.094573e-02  -2.156533e-01  -2.017446e-01  6.410496e-01  5.790541e-01  5.684989e-01  5.310494e-01  1.647686e+00  3.363141e-01  9.950541e-02  -1.763095e-01  2.146545e-02  -3.991526e-01  6.465643e-01  2.009629e-01  -1.427594e-01  -1.488740e-01  -1.034802e-01  -1.225042e-01  -4.500270e-02  -4.514402e-01  -5.509389e-03  -1.386344e+00  -2.221069e-01  -3.962157e-02  2.646701e-01  -2.827093e-01  -8.243541e-01  -3.865107e-01  4.743712e-01  -7.811161e-01  6.370991e-02  5.832416e-01  -2.946354e-02  -5.816398e-01  -2.405243e-01  5.246872e-01  6.760082e-02  9.746236e-02  -1.247195e-01  1.531855e-02  -9.821066e-02  1.778381e-01  1.126759e+00  -1.870629e-01  1.117284e-01  4.060864e-02  -7.652060e-01  2.997300e-02  3.211811e-01  4.367009e-01  4.798712e-01  2.703795e-01  1.045303e-01  4.600234e-02  -2.824256e-01  1.842337e-01  2.079858e-01  7.245968e-02  -3.433070e-01  -3.058159e-01  1.404213e-01  2.389074e-01  -8.786257e-01  -2.847862e-01  -1.701576e+00  2.149453e-01  2.013006e-02  2.912678e-02  -6.601462e-03  -3.112568e-01  -5.055656e-01  -4.949148e-01  5.172960e-01  8.813291e-01  3.011397e-01  2.756597e-01  -7.084487e-01  -2.882560e-01  -1.387620e+00  -1.088672e-01  1.716917e-01  -2.621537e-01  3.585274e-01  2.936567e-02  -1.056120e+00  -7.948380e-02  8.199022e-02  1.595975e-01  -1.110125e+00  -5.259156e-01  -1.434595e-01  2.236714e-01  5.804300e-02  -6.349728e-01  3.280940e-01  -9.727866e-02  1.143557e-01  6.207363e-02  3.967597e-01  1.213514e+00  8.149037e-02  -3.315627e-01  -5.889126e-02  -3.483264e-01  -3.215493e-01  7.170735e-01  -2.086097e-01  -2.960819e-01  2.873256e-01  -4.005982e-01  3.244607e-01  2.517191e-01  1.186188e-01  -8.525129e-02  -6.566031e-01  3.313218e-01  4.209196e-01  8.906192e-02  -3.830438e-01  -5.030545e-03  4.137375e-01  -3.966044e-01  8.405863e-02  -7.053462e-02  -4.540190e-01  1.425130e-01  7.552128e-02  -9.050774e-03  2.277194e-02  2.993928e-01  -1.566715e-01  -2.692589e-01  -8.134385e-02  -2.952206e-01  -8.199065e-01  -9.387799e-02  1.714513e-01  -8.786777e-02  -6.406943e-01  2.683671e-02  -4.226504e-01  2.555805e-01  7.940669e-02  -7.324176e-02  2.418416e-01  -8.970971e-02  3.533981e-01  3.115567e-01  -2.661461e-01  6.046299e-01  2.732108e-01  2.144689e-01  -3.913150e-01  5.567840e-01  -7.260510e-02  2.311815e-01  -4.507626e-01  5.593477e-01  2.895163e-01  -4.357163e-01  1.291722e-01  3.717597e-01  4.204245e-01  -3.852165e-01  -1.286108e-01  -1.583732e-01  -1.581892e-01  1.924089e-01  1.109818e-01  -2.194987e-01  -6.475999e-01  6.320234e-02  -2.610613e-01  7.306097e-02  1.071102e-01  9.249998e-03  -8.938929e-02  -5.742567e-02  -2.300986e-01  2.058701e-01  3.452976e-01  2.819960e-01  4.248191e-01  -4.069133e-04  -1.468175e-01  -2.760639e-01  -4.609820e-02  -7.939278e-02  -1.267432e-01  -1.808351e-01  1.874475e-01  5.174824e-02  8.186534e-01  -1.627559e-02  5.762159e-02  -6.302987e-03  3.138572e-02  -8.748394e-02  2.410449e-01  -2.795268e-02  1.298937e-01  -3.775500e-01  5.422654e-02  1.400386e-02  7.877102e-01  -1.174937e-01  6.030664e-01  8.338246e-02  -1.336393e-01  -3.097582e-02  2.049425e-02  5.036749e-01  7.769727e-01  1.815399e-01  -5.914496e-03  -3.408271e-01  5.188832e-01  7.264815e-02  6.600541e-01  2.268292e-01  6.788708e-02  2.724825e-01  -9.832145e-02  3.580123e-01  1.801425e-01  -1.161105e-01  7.429352e-02  -2.107636e-01  5.417172e-01  4.430189e-03  -2.421613e-02  -2.158708e-01  1.666643e-01  -9.246644e-01  -2.323570e-02  -1.302929e-01  -3.063008e-01  -1.369819e-01  -5.951658e-02  -3.215527e-01  1.860360e-01  -1.462176e-01  -2.128641e-02  -3.430569e-01  -9.712537e-02  5.591422e-01  -5.660387e-01  2.194591e-02  1.278277e-01  -3.280624e-01  2.307491e-01  -9.961464e-03  -2.095549e-01  -6.183868e-03  3.405746e-02  -2.255309e-01  2.604393e-01  -2.474777e-01  -1.368094e-01  -1.400047e-01  4.751700e-01  -7.994621e-02  4.656060e-02  -1.472083e-01  4.019699e-01  3.947909e-01  -2.877450e-01  -8.499125e-02  1.718578e-01  1.725411e-01  3.826347e-02  -8.008593e-02  4.729402e-01  -1.319998e-01  4.434780e-01  9.444208e-02  -5.429504e-01  2.044789e-02  1.681499e-01  -5.607229e-01  -1.806263e-01  -1.817974e-01  -1.445807e-01  -3.910054e-01  1.675994e-01  6.611592e-02  6.353464e-03  -1.292132e-01  -1.999306e-01  -1.409833e-01  -7.143088e-02  3.685722e-03  -5.288211e-02  -1.600226e-01  4.689968e-02  -1.810655e-02  2.406203e-01  5.069568e-02  -6.076529e-02  -2.299112e-02  5.110710e-01  -3.298377e-01  -7.942870e-02  -8.355116e-02  -1.815190e-01  3.610238e-01  3.781697e-02  -7.999735e-01  -2.089332e-01  2.492445e-01  -8.605719e-02  1.286003e-01  3.695240e-01  -3.655418e-01  1.569564e-01  -3.631112e-01  -1.582476e-03  -1.115419e-01  7.982553e-02  2.906798e-01  -1.039008e-01  1.211878e-01  -1.697411e-01  4.515028e-01  1.524610e-01  1.140700e-01  -1.151797e-01  -2.851762e-01  3.533995e-01  3.123988e-01  -7.578798e-02  3.590546e-01  -1.152291e-01  -2.790689e-01  -4.566500e-01  -1.848813e-01  -5.590076e-01  -1.696872e-01  2.668838e-01  3.285343e-01  -3.342772e-01  -1.473403e-01  2.751228e-01  8.885507e-02  -2.011025e-01  -4.850300e-01  -2.103237e-01  -2.275488e-01  3.875485e-02  -1.716110e-02  -6.825031e-02  2.140986e-01  3.582157e-02  -4.199778e-01  -1.930867e-01  -1.562120e-01  