<?xml version="1.0"?>
<MethodSetup Method="MLP::MLP">
  <GeneralInfo>
    <Info name="TMVA Release" value="4.2.1 [262657]"/>
    <Info name="ROOT Release" value="6.32/10 [401418]"/>
    <Info name="Creator" value="lorena"/>
    <Info name="Date" value="Tue May 20 12:59:19 2025"/>
    <Info name="Host" value="Linux wl-atoui 5.15.167.4-microsoft-standard-WSL2 #1 SMP Tue Nov 5 00:21:55 UTC 2024 x86_64 x86_64 x86_64 GNU/Linux"/>
    <Info name="Dir" value="/home/lorena/Documents/Thesis/JLAB_EIC/DVCS/TMVA_studies"/>
    <Info name="Training events" value="2000"/>
    <Info name="TrainingTime" value="1.30610552e+03"/>
    <Info name="AnalysisType" value="Classification"/>
  </GeneralInfo>
  <Options>
    <Option name="NCycles" modified="Yes">600</Option>
    <Option name="HiddenLayers" modified="Yes">N+5</Option>
    <Option name="NeuronType" modified="Yes">tanh</Option>
    <Option name="RandomSeed" modified="No">1</Option>
    <Option name="EstimatorType" modified="No">CE</Option>
    <Option name="NeuronInputType" modified="No">sum</Option>
    <Option name="V" modified="Yes">False</Option>
    <Option name="VerbosityLevel" modified="No">Default</Option>
    <Option name="VarTransform" modified="Yes">N</Option>
    <Option name="H" modified="Yes">True</Option>
    <Option name="CreateMVAPdfs" modified="No">False</Option>
    <Option name="IgnoreNegWeightsInTraining" modified="No">False</Option>
    <Option name="TrainingMethod" modified="No">BP</Option>
    <Option name="LearningRate" modified="No">2.000000e-02</Option>
    <Option name="DecayRate" modified="No">1.000000e-02</Option>
    <Option name="TestRate" modified="Yes">5</Option>
    <Option name="EpochMonitoring" modified="No">False</Option>
    <Option name="Sampling" modified="No">1.000000e+00</Option>
    <Option name="SamplingEpoch" modified="No">1.000000e+00</Option>
    <Option name="SamplingImportance" modified="No">1.000000e+00</Option>
    <Option name="SamplingTraining" modified="No">True</Option>
    <Option name="SamplingTesting" modified="No">False</Option>
    <Option name="ResetStep" modified="No">50</Option>
    <Option name="Tau" modified="No">3.000000e+00</Option>
    <Option name="BPMode" modified="No">sequential</Option>
    <Option name="BatchSize" modified="No">-1</Option>
    <Option name="ConvergenceImprove" modified="No">1.000000e-30</Option>
    <Option name="ConvergenceTests" modified="No">-1</Option>
    <Option name="UseRegulator" modified="Yes">False</Option>
    <Option name="UpdateLimit" modified="No">10000</Option>
    <Option name="CalculateErrors" modified="No">False</Option>
    <Option name="WeightRange" modified="No">1.000000e+00</Option>
  </Options>
  <Variables NVar="8">
    <Variable VarIndex="0" Expression="_mm2_eNg" Label="_mm2_eNg" Title="mm2_eNg missing Neutron" Unit="GeV" Internal="_mm2_eNg" Type="D" Min="-8.32648933e-01" Max="3.77702999e+00"/>
    <Variable VarIndex="1" Expression="_mm2_eNX_N" Label="_mm2_eNX_N" Title="mm2_eNX_N missing photon" Unit="GeV" Internal="_mm2_eNX_N" Type="D" Min="-1.27379923e+01" Max="6.32826185e+00"/>
    <Variable VarIndex="2" Expression="_mm2_eg" Label="_mm2_eg" Title="mm2_eg missing proton" Unit="GeV" Internal="_mm2_eg" Type="D" Min="-4.71607357e-01" Max="3.62626934e+00"/>
    <Variable VarIndex="3" Expression="_delta_t" Label="_delta_t" Title="Delta t" Unit="GeV" Internal="_delta_t" Type="D" Min="-1.90244830e+00" Max="1.05165792e+00"/>
    <Variable VarIndex="4" Expression="_delta_Phi" Label="_delta_Phi" Title="Delta Phi" Unit="°" Internal="_delta_Phi" Type="D" Min="-4.93853951e+00" Max="4.68485737e+00"/>
    <Variable VarIndex="5" Expression="_Pmiss_mag" Label="_Pmiss_mag" Title="Magnitude of Missing Momentum" Unit="GeV" Internal="_Pmiss_mag" Type="D" Min="1.90456472e-02" Max="1.19304931e+00"/>
    <Variable VarIndex="6" Expression="_Pmiss_perp" Label="_Pmiss_perp" Title="Transverse Missing Momentum" Unit="GeV" Internal="_Pmiss_perp" Type="D" Min="5.99980762e-04" Max="8.01529527e-01"/>
    <Variable VarIndex="7" Expression="_strip_Ph_P" Label="_strip_Ph_P" Title="photon Momentum" Unit="GeV" Internal="_strip_Ph_P" Type="D" Min="2.00011635e+00" Max="9.80960464e+00"/>
  </Variables>
  <Spectators NSpec="0"/>
  <Classes NClass="2">
    <Class Name="Signal" Index="0"/>
    <Class Name="Background" Index="1"/>
  </Classes>
  <Transformations NTransformations="1">
    <Transform Name="Normalize">
      <Selection>
        <Input NInputs="8">
          <Input Type="Variable" Label="_mm2_eNg" Expression="_mm2_eNg"/>
          <Input Type="Variable" Label="_mm2_eNX_N" Expression="_mm2_eNX_N"/>
          <Input Type="Variable" Label="_mm2_eg" Expression="_mm2_eg"/>
          <Input Type="Variable" Label="_delta_t" Expression="_delta_t"/>
          <Input Type="Variable" Label="_delta_Phi" Expression="_delta_Phi"/>
          <Input Type="Variable" Label="_Pmiss_mag" Expression="_Pmiss_mag"/>
          <Input Type="Variable" Label="_Pmiss_perp" Expression="_Pmiss_perp"/>
          <Input Type="Variable" Label="_strip_Ph_P" Expression="_strip_Ph_P"/>
        </Input>
        <Output NOutputs="8">
          <Output Type="Variable" Label="_mm2_eNg" Expression="_mm2_eNg"/>
          <Output Type="Variable" Label="_mm2_eNX_N" Expression="_mm2_eNX_N"/>
          <Output Type="Variable" Label="_mm2_eg" Expression="_mm2_eg"/>
          <Output Type="Variable" Label="_delta_t" Expression="_delta_t"/>
          <Output Type="Variable" Label="_delta_Phi" Expression="_delta_Phi"/>
          <Output Type="Variable" Label="_Pmiss_mag" Expression="_Pmiss_mag"/>
          <Output Type="Variable" Label="_Pmiss_perp" Expression="_Pmiss_perp"/>
          <Output Type="Variable" Label="_strip_Ph_P" Expression="_strip_Ph_P"/>
        </Output>
      </Selection>
      <Class ClassIndex="0">
        <Ranges>
          <Range Index="0" Min="-8.3264893293380737e-01" Max="2.9261479377746582e+00"/>
          <Range Index="1" Min="-1.2737992286682129e+01" Max="6.3282618522644043e+00"/>
          <Range Index="2" Min="-4.7160735726356506e-01" Max="2.6638839244842529e+00"/>
          <Range Index="3" Min="-1.5581326484680176e+00" Max="1.0516579151153564e+00"/>
          <Range Index="4" Min="-1.9796046018600464e+00" Max="1.9995166063308716e+00"/>
          <Range Index="5" Min="1.9045647233724594e-02" Max="1.1930493116378784e+00"/>
          <Range Index="6" Min="5.9998076176270843e-04" Max="8.0152952671051025e-01"/>
          <Range Index="7" Min="2.0404675006866455e+00" Max="9.8096046447753906e+00"/>
        </Ranges>
      </Class>
      <Class ClassIndex="1">
        <Ranges>
          <Range Index="0" Min="-2.0690326392650604e-01" Max="3.7770299911499023e+00"/>
          <Range Index="1" Min="-2.8161673545837402e+00" Max="4.6927251815795898e+00"/>
          <Range Index="2" Min="3.7680473178625107e-02" Max="3.6262693405151367e+00"/>
          <Range Index="3" Min="-1.9024482965469360e+00" Max="1.0289539098739624e+00"/>
          <Range Index="4" Min="-4.9385395050048828e+00" Max="4.6848573684692383e+00"/>
          <Range Index="5" Min="2.0678518339991570e-02" Max="9.9907064437866211e-01"/>
          <Range Index="6" Min="3.1148116104304790e-03" Max="6.2772148847579956e-01"/>
          <Range Index="7" Min="2.0001163482666016e+00" Max="8.3269901275634766e+00"/>
        </Ranges>
      </Class>
      <Class ClassIndex="2">
        <Ranges>
          <Range Index="0" Min="-8.3264893293380737e-01" Max="3.7770299911499023e+00"/>
          <Range Index="1" Min="-1.2737992286682129e+01" Max="6.3282618522644043e+00"/>
          <Range Index="2" Min="-4.7160735726356506e-01" Max="3.6262693405151367e+00"/>
          <Range Index="3" Min="-1.9024482965469360e+00" Max="1.0516579151153564e+00"/>
          <Range Index="4" Min="-4.9385395050048828e+00" Max="4.6848573684692383e+00"/>
          <Range Index="5" Min="1.9045647233724594e-02" Max="1.1930493116378784e+00"/>
          <Range Index="6" Min="5.9998076176270843e-04" Max="8.0152952671051025e-01"/>
          <Range Index="7" Min="2.0001163482666016e+00" Max="9.8096046447753906e+00"/>
        </Ranges>
      </Class>
    </Transform>
  </Transformations>
  <MVAPdfs/>
  <Weights>
    <Layout NLayers="3">
      <Layer Index="0" NNeurons="9">
        <Neuron NSynapses="13">
          -4.2266746708529446e-01 3.9473814977181103e+00 -7.6641889485409273e-02 4.2781258517039786e+00 -1.7143828844444344e+00 -1.7352718867138033e+00 -5.4427725132465543e-01 5.7858871219797701e+00 -1.0023564991652285e+00 3.2067567510154049e-01 -1.8080524488362566e+00 -1.4938889449005324e+00 -1.2773902552566621e+00 
        </Neuron>
        <Neuron NSynapses="13">
          -2.1970699652371404e+00 -7.5190572776769271e-01 1.4748458199991281e+00 -6.3738421621468619e+00 1.3330366484566132e+00 8.5834243874758787e-01 1.7133554613089785e+00 -1.2578320456615644e+00 2.9568565490106655e-02 1.6567762511470459e+00 4.3872569535866657e-01 -1.9461969343439214e+00 1.8978330654750343e-03 
        </Neuron>
        <Neuron NSynapses="13">
          3.6207616934271756e+00 5.0201602579005800e-01 -1.0220022762046059e+00 6.1472791797181427e+00 1.6448944489168427e-01 1.4243898959261647e+00 -4.7551659265447632e-01 7.7001421583449514e-01 3.4212608578552522e-01 1.3236048339367115e+00 -1.6897086461867543e+00 1.3738338968277124e+00 -1.4447896092474917e+00 
        </Neuron>
        <Neuron NSynapses="13">
          2.0140114234051474e+00 7.9487796592178625e-02 -3.3450035638310316e-01 5.9127334562175280e+00 1.3288773551465887e+00 -1.9294928431668226e-01 -1.9976983569406954e+00 3.6024661036411052e+00 -5.2239866122010237e-01 1.6401268479903293e+00 1.3188434605683419e+00 1.7004306301613461e+00 1.4038251218514317e+00 
        </Neuron>
        <Neuron NSynapses="13">
          -2.5045661988955668e+00 2.4099957766950342e-01 2.2125261005339311e-01 2.2933586779951368e-01 -1.5787307355606544e+00 -1.0969123233442368e+00 6.4135802957495414e-01 -2.4905485840052669e-01 -4.0191447852102433e+00 4.5998428274207470e-01 -6.3767603892954083e-01 3.4814258399714032e-01 1.8975176470159851e+00 
        </Neuron>
        <Neuron NSynapses="13">
          -1.5773436824593874e+00 -2.7468375192178822e+00 -2.0640833720634348e+00 -5.7554665614886256e+00 -1.0935921293245046e+00 -1.1884931922673918e+00 -8.3397520936107439e-01 1.8793234212193228e+00 1.1806530916055491e-01 2.0526507093269353e+00 -2.9350390375956239e-02 -2.7135301059360519e+00 -1.7741262866992733e+00 
        </Neuron>
        <Neuron NSynapses="13">
          5.3473727288787010e-01 8.4798418038856926e-01 1.9810346599893800e+00 1.1772108228574092e+00 1.6021864054532311e+00 -3.3210292891651555e-01 -5.2168373303874936e-02 -2.6471808799582424e+00 -4.8975242338213382e-01 -1.2409976870909596e+00 -1.6309231853603152e+00 -1.0672159378983159e+00 -3.1550722015517541e-01 
        </Neuron>
        <Neuron NSynapses="13">
          8.1129848610544855e-02 6.8542355697360891e-01 -2.7095759375145052e+00 3.8314641057076426e-01 1.3097256521091780e+00 -1.9802066514772008e+00 -1.7225785238608349e+00 3.1051722195903347e-01 -1.0027393952213262e+00 -1.0790180117024979e+00 -1.1283299904265058e+00 4.8871748847484597e-01 1.5205855167349966e+00 
        </Neuron>
        <Neuron NSynapses="13">
          -5.4313813735658908e-03 1.0312722422203462e+00 6.3719327342465626e-01 -2.1068450442066192e-01 -2.2846946623815634e-01 8.1193251899194041e-01 -2.0998249608629096e+00 4.9562667874393562e-01 8.7099578927305987e-01 2.5084321085542194e-01 -1.6014867087291680e+00 1.7860957921790190e+00 5.3591877767327689e-01 
        </Neuron>
      </Layer>
      <Layer Index="1" NNeurons="14">
        <Neuron NSynapses="1">
          -3.9668983997210776e+00 
        </Neuron>
        <Neuron NSynapses="1">
          2.8775774936843490e+00 
        </Neuron>
        <Neuron NSynapses="1">
          -1.9490795131283039e+00 
        </Neuron>
        <Neuron NSynapses="1">
          -9.5254028961748798e+00 
        </Neuron>
        <Neuron NSynapses="1">
          1.0515541793741006e+00 
        </Neuron>
        <Neuron NSynapses="1">
          -1.5413970799155383e+00 
        </Neuron>
        <Neuron NSynapses="1">
          1.8418741347960605e+00 
        </Neuron>
        <Neuron NSynapses="1">
          5.2119466856233689e+00 
        </Neuron>
        <Neuron NSynapses="1">
          2.5598899789807716e+00 
        </Neuron>
        <Neuron NSynapses="1">
          -3.0092714837283148e+00 
        </Neuron>
        <Neuron NSynapses="1">
          -6.3641375014380519e-01 
        </Neuron>
        <Neuron NSynapses="1">
          -3.5436777690688697e+00 
        </Neuron>
        <Neuron NSynapses="1">
          9.4087559315079017e-01 
        </Neuron>
        <Neuron NSynapses="1">
          -1.1538469870497465e+00 
        </Neuron>
      </Layer>
      <Layer Index="2" NNeurons="1">
        <Neuron NSynapses="0"/>
      </Layer>
    </Layout>
  </Weights>
</MethodSetup>
