<?xml version="1.0"?>
<MethodSetup Method="MLP::MLP">
  <GeneralInfo>
    <Info name="TMVA Release" value="4.2.1 [262657]"/>
    <Info name="ROOT Release" value="6.32/10 [401418]"/>
    <Info name="Creator" value="lorena"/>
    <Info name="Date" value="Tue May 20 17:47:12 2025"/>
    <Info name="Host" value="Linux wl-atoui 5.15.167.4-microsoft-standard-WSL2 #1 SMP Tue Nov 5 00:21:55 UTC 2024 x86_64 x86_64 x86_64 GNU/Linux"/>
    <Info name="Dir" value="/home/lorena/Documents/Thesis/JLAB_EIC/DVCS/TMVA_studies/02_Sebastian_variables+Ph_P"/>
    <Info name="Training events" value="2000"/>
    <Info name="TrainingTime" value="6.97953233e+02"/>
    <Info name="AnalysisType" value="Classification"/>
  </GeneralInfo>
  <Options>
    <Option name="NCycles" modified="Yes">600</Option>
    <Option name="HiddenLayers" modified="Yes">N+5</Option>
    <Option name="NeuronType" modified="Yes">tanh</Option>
    <Option name="RandomSeed" modified="No">1</Option>
    <Option name="EstimatorType" modified="No">CE</Option>
    <Option name="NeuronInputType" modified="No">sum</Option>
    <Option name="V" modified="Yes">False</Option>
    <Option name="VerbosityLevel" modified="No">Default</Option>
    <Option name="VarTransform" modified="Yes">N</Option>
    <Option name="H" modified="Yes">True</Option>
    <Option name="CreateMVAPdfs" modified="No">False</Option>
    <Option name="IgnoreNegWeightsInTraining" modified="No">False</Option>
    <Option name="TrainingMethod" modified="No">BP</Option>
    <Option name="LearningRate" modified="No">2.000000e-02</Option>
    <Option name="DecayRate" modified="No">1.000000e-02</Option>
    <Option name="TestRate" modified="Yes">5</Option>
    <Option name="EpochMonitoring" modified="No">False</Option>
    <Option name="Sampling" modified="No">1.000000e+00</Option>
    <Option name="SamplingEpoch" modified="No">1.000000e+00</Option>
    <Option name="SamplingImportance" modified="No">1.000000e+00</Option>
    <Option name="SamplingTraining" modified="No">True</Option>
    <Option name="SamplingTesting" modified="No">False</Option>
    <Option name="ResetStep" modified="No">50</Option>
    <Option name="Tau" modified="No">3.000000e+00</Option>
    <Option name="BPMode" modified="No">sequential</Option>
    <Option name="BatchSize" modified="No">-1</Option>
    <Option name="ConvergenceImprove" modified="No">1.000000e-30</Option>
    <Option name="ConvergenceTests" modified="No">-1</Option>
    <Option name="UseRegulator" modified="Yes">False</Option>
    <Option name="UpdateLimit" modified="No">10000</Option>
    <Option name="CalculateErrors" modified="No">False</Option>
    <Option name="WeightRange" modified="No">1.000000e+00</Option>
  </Options>
  <Variables NVar="6">
    <Variable VarIndex="0" Expression="_mm2_eNg" Label="_mm2_eNg" Title="mm2_eNg missing Neutron" Unit="GeV" Internal="_mm2_eNg" Type="D" Min="-8.32648933e-01" Max="3.77702999e+00"/>
    <Variable VarIndex="1" Expression="_mm2_eg" Label="_mm2_eg" Title="mm2_eg missing proton" Unit="GeV" Internal="_mm2_eg" Type="D" Min="-4.71607357e-01" Max="3.62626934e+00"/>
    <Variable VarIndex="2" Expression="_delta_t" Label="_delta_t" Title="Delta t" Unit="GeV" Internal="_delta_t" Type="D" Min="-1.90244830e+00" Max="1.05165792e+00"/>
    <Variable VarIndex="3" Expression="_delta_Phi" Label="_delta_Phi" Title="Delta Phi" Unit="°" Internal="_delta_Phi" Type="D" Min="-4.93853951e+00" Max="4.68485737e+00"/>
    <Variable VarIndex="4" Expression="_theta_gamma_X" Label="_theta_gamma_X" Title="Angle missing photon - photon out" Unit="°" Internal="_theta_gamma_X" Type="D" Min="2.15963442e-02" Max="1.79985771e+01"/>
    <Variable VarIndex="5" Expression="_strip_Ph_P" Label="_strip_Ph_P" Title="photon Momentum" Unit="GeV" Internal="_strip_Ph_P" Type="D" Min="2.00011635e+00" Max="9.80960464e+00"/>
  </Variables>
  <Spectators NSpec="0"/>
  <Classes NClass="2">
    <Class Name="Signal" Index="0"/>
    <Class Name="Background" Index="1"/>
  </Classes>
  <Transformations NTransformations="1">
    <Transform Name="Normalize">
      <Selection>
        <Input NInputs="6">
          <Input Type="Variable" Label="_mm2_eNg" Expression="_mm2_eNg"/>
          <Input Type="Variable" Label="_mm2_eg" Expression="_mm2_eg"/>
          <Input Type="Variable" Label="_delta_t" Expression="_delta_t"/>
          <Input Type="Variable" Label="_delta_Phi" Expression="_delta_Phi"/>
          <Input Type="Variable" Label="_theta_gamma_X" Expression="_theta_gamma_X"/>
          <Input Type="Variable" Label="_strip_Ph_P" Expression="_strip_Ph_P"/>
        </Input>
        <Output NOutputs="6">
          <Output Type="Variable" Label="_mm2_eNg" Expression="_mm2_eNg"/>
          <Output Type="Variable" Label="_mm2_eg" Expression="_mm2_eg"/>
          <Output Type="Variable" Label="_delta_t" Expression="_delta_t"/>
          <Output Type="Variable" Label="_delta_Phi" Expression="_delta_Phi"/>
          <Output Type="Variable" Label="_theta_gamma_X" Expression="_theta_gamma_X"/>
          <Output Type="Variable" Label="_strip_Ph_P" Expression="_strip_Ph_P"/>
        </Output>
      </Selection>
      <Class ClassIndex="0">
        <Ranges>
          <Range Index="0" Min="-8.3264893293380737e-01" Max="2.9261479377746582e+00"/>
          <Range Index="1" Min="-4.7160735726356506e-01" Max="2.6638839244842529e+00"/>
          <Range Index="2" Min="-1.5581326484680176e+00" Max="1.0516579151153564e+00"/>
          <Range Index="3" Min="-1.9796046018600464e+00" Max="1.9995166063308716e+00"/>
          <Range Index="4" Min="2.1596344187855721e-02" Max="1.7998577117919922e+01"/>
          <Range Index="5" Min="2.0404675006866455e+00" Max="9.8096046447753906e+00"/>
        </Ranges>
      </Class>
      <Class ClassIndex="1">
        <Ranges>
          <Range Index="0" Min="-2.0690326392650604e-01" Max="3.7770299911499023e+00"/>
          <Range Index="1" Min="3.7680473178625107e-02" Max="3.6262693405151367e+00"/>
          <Range Index="2" Min="-1.9024482965469360e+00" Max="1.0289539098739624e+00"/>
          <Range Index="3" Min="-4.9385395050048828e+00" Max="4.6848573684692383e+00"/>
          <Range Index="4" Min="3.9427787065505981e-02" Max="9.1860609054565430e+00"/>
          <Range Index="5" Min="2.0001163482666016e+00" Max="8.3269901275634766e+00"/>
        </Ranges>
      </Class>
      <Class ClassIndex="2">
        <Ranges>
          <Range Index="0" Min="-8.3264893293380737e-01" Max="3.7770299911499023e+00"/>
          <Range Index="1" Min="-4.7160735726356506e-01" Max="3.6262693405151367e+00"/>
          <Range Index="2" Min="-1.9024482965469360e+00" Max="1.0516579151153564e+00"/>
          <Range Index="3" Min="-4.9385395050048828e+00" Max="4.6848573684692383e+00"/>
          <Range Index="4" Min="2.1596344187855721e-02" Max="1.7998577117919922e+01"/>
          <Range Index="5" Min="2.0001163482666016e+00" Max="9.8096046447753906e+00"/>
        </Ranges>
      </Class>
    </Transform>
  </Transformations>
  <MVAPdfs/>
  <Weights>
    <Layout NLayers="3">
      <Layer Index="0" NNeurons="7">
        <Neuron NSynapses="11">
          1.3656391970913575e+00 1.6478082406366832e+00 4.4787719265054715e-01 1.2392569933903324e+00 -2.1098663286813069e+00 -1.3751295709460618e+00 -1.0152292395277913e+00 2.9836331463462136e+00 -1.4796755242955899e+00 -5.4677145549189132e-01 -1.1514471028799347e+00 
        </Neuron>
        <Neuron NSynapses="11">
          -5.6366457307529749e-01 -1.1456567600083563e+00 -1.2484034186532020e+00 -1.8218610164700744e-01 4.5175514240636350e-01 -4.8655747347959444e-01 2.1991004443488307e+00 9.0674242847971029e-02 1.3178752759947436e+00 2.9537873576244517e-01 -5.3042584852337316e-01 
        </Neuron>
        <Neuron NSynapses="11">
          2.9746747013809656e+00 -6.9615862031039577e-01 -8.2988840074293324e-01 -1.1340865159659006e+00 1.7591088240449426e+00 -1.1074260825589277e+00 -3.2260766431865124e+00 1.1794595785910216e+00 7.1462560933521968e-01 1.9809074426293589e+00 6.5899075320728029e-02 
        </Neuron>
        <Neuron NSynapses="11">
          -3.8912017764939805e-01 6.7645569239230796e-01 -4.8361919585988650e-01 -8.8684697684719516e-01 1.9152234890450299e+00 -4.9479858674328514e-01 1.9755619557450943e+00 -1.0732725786724084e+00 7.7996369251317121e-01 3.8334488747218418e+00 2.8826468199191710e+00 
        </Neuron>
        <Neuron NSynapses="11">
          -2.9658259285348565e-01 -2.4878365176668349e+00 9.1697103442062777e-01 1.2830789745131415e+00 1.3508453094687578e+00 1.1016318227432507e+00 6.2032629256807315e-01 6.0095317483096466e-01 -1.7424904615882157e+00 6.4378301687260475e-01 -6.5591549084443601e-01 
        </Neuron>
        <Neuron NSynapses="11">
          -4.4977364364133349e-01 -4.4982585680132997e-01 -2.2750122770622188e+00 2.8289946466551266e+00 5.4384617938471669e-01 -2.7093325988797705e+00 -6.7671488071180702e-02 -1.4078344572754264e-01 6.7741585701944862e-01 6.2072436136416209e-01 -1.1235963909146184e-01 
        </Neuron>
        <Neuron NSynapses="11">
          -2.1280158210360480e+00 -1.6120280940506160e+00 2.7154379435161774e-01 -6.2968226500301239e-01 -6.0678218182517407e-01 -1.3091727147776018e+00 7.6139663315812400e-01 8.9653670785687323e-01 1.2823415323481933e+00 1.8262422916358960e+00 -2.5661445465130686e+00 
        </Neuron>
      </Layer>
      <Layer Index="1" NNeurons="12">
        <Neuron NSynapses="1">
          -2.2889087883136376e+00 
        </Neuron>
        <Neuron NSynapses="1">
          -1.4132205674998894e+00 
        </Neuron>
        <Neuron NSynapses="1">
          -1.0239556828289635e+00 
        </Neuron>
        <Neuron NSynapses="1">
          2.7865011442846095e+00 
        </Neuron>
        <Neuron NSynapses="1">
          -7.0319482584546544e-01 
        </Neuron>
        <Neuron NSynapses="1">
          3.5402995454928488e-01 
        </Neuron>
        <Neuron NSynapses="1">
          -2.1431657958698924e+00 
        </Neuron>
        <Neuron NSynapses="1">
          -1.4291635383340817e+00 
        </Neuron>
        <Neuron NSynapses="1">
          -1.0423025349901749e+00 
        </Neuron>
        <Neuron NSynapses="1">
          3.0709948634567610e+00 
        </Neuron>
        <Neuron NSynapses="1">
          -1.2791405945935144e+00 
        </Neuron>
        <Neuron NSynapses="1">
          -1.9386744264779341e+00 
        </Neuron>
      </Layer>
      <Layer Index="2" NNeurons="1">
        <Neuron NSynapses="0"/>
      </Layer>
    </Layout>
  </Weights>
</MethodSetup>
